weights[120][16][5][5] = {{{{ -0.08074783533811569, 0.0898173525929451, 0.06170359626412392, 0.14836277067661285, 0.2628529667854309},
{ -0.04913638159632683, 0.023218203336000443, -0.2365792840719223, 0.050005052238702774, 0.1385175585746765},
{ -0.09940902888774872, 0.14624948799610138, -0.052703242748975754, -0.4362808167934418, -0.20565973222255707},
{ -0.014123853296041489, 0.1783023625612259, 0.12887011468410492, -0.0691315159201622, -0.04641737416386604},
{ -0.1178397536277771, 0.08280836790800095, 0.05621195584535599, -0.13505205512046814, -0.04601248726248741}},
{{ 0.018716558814048767, 0.03680917248129845, -0.16388528048992157, 0.11693704128265381, 0.2104817032814026},
{ -0.07836323976516724, 0.0727890282869339, -0.2805576026439667, -0.40640050172805786, 0.0889289602637291},
{ -0.19683101773262024, 0.28668212890625, 0.18906153738498688, -0.16384407877922058, -0.023863866925239563},
{ -0.13303424417972565, 0.177739217877388, 0.0967276394367218, -0.02737608179450035, -0.18017181754112244},
{ -0.12635190784931183, 0.10409665107727051, 0.05611139535903931, -0.1294870674610138, -0.27946144342422485}},
{{ -0.15128068625926971, 0.23071113228797913, 0.13873052597045898, -0.03669508546590805, -0.08697054535150528},
{ -0.17724071443080902, 0.14666792750358582, 0.11382192373275757, -0.24556884169578552, -0.19958679378032684},
{ -0.20541755855083466, 0.07057895511388779, 0.08666391670703888, -0.16106700897216797, -0.4330211877822876},
{ -0.231223464012146, 0.08650311827659607, 0.1488327533006668, -0.06535264104604721, -0.1817062497138977},
{ -0.19268682599067688, 0.23611386120319366, 0.15426626801490784, 0.04612454026937485, -0.28853312134742737}},
{{ 0.14437884092330933, 0.16580884158611298, 0.247161865234375, 0.02914286032319069, 0.04722559452056885},
{ -0.0031140975188463926, -0.1808692216873169, -0.39339545369148254, -0.6199567317962646, -0.37858691811561584},
{ 0.10006966441869736, -0.032213058322668076, -0.5967115759849548, -0.3130146265029907, -0.05638612434267998},
{ 0.04521680250763893, 0.16964834928512573, -0.22031176090240479, -0.1521487832069397, -0.0264084842056036},
{ 0.028575295582413673, 0.15317590534687042, -0.04925539717078209, -0.12567369639873505, -0.1554294228553772}},
{{ -0.49618980288505554, -0.14453080296516418, -0.25113534927368164, -0.3486376404762268, -0.18239063024520874},
{ -0.368216872215271, -0.00894615426659584, 0.11860397458076477, -0.16089163720607758, -0.2739729583263397},
{ -0.2021598517894745, -0.08086474984884262, 0.23305314779281616, -0.055292464792728424, -0.21622234582901},
{ -0.21281760931015015, 0.0036096067633479834, 0.2708413302898407, 0.2073342204093933, -0.06775979697704315},
{ -0.39434850215911865, 0.018853910267353058, 0.1986708790063858, 0.04407152161002159, 0.0737171322107315}},
{{ -0.0986848697066307, -0.041145484894514084, -0.07222755253314972, -0.16670674085617065, 0.14810986816883087},
{ -0.29921016097068787, -0.0954299047589302, -0.018351396545767784, -0.16823190450668335, -0.07204420864582062},
{ -0.1859492063522339, -0.17004024982452393, -0.09457521140575409, 0.026435699313879013, 0.06236746907234192},
{ -0.2002018690109253, -0.2634024918079376, -0.1570819914340973, -0.14322347939014435, -0.06834971904754639},
{ -0.18837791681289673, -0.1254044622182846, -0.14281515777111053, 0.06004801392555237, 0.2040146440267563}},
{{ 0, 0, 0, 0, 0},
{ 0, 0, 0, 0, 0},
{ 0, 0, 0, 0, 0},
{ 0, 0, 0, 0, 0},
{ 0, 0, 0, 0, 0}},
{{ 0, 0, 0, 0, 0},
{ 0, 0, 0, 0, 0},
{ 0, 0, 0, 0, 0},
{ 0, 0, 0, 0, 0},
{ 0, 0, 0, 0, 0}},
{{ 0, 0, 0, 0, 0},
{ 0, 0, 0, 0, 0},
{ 0, 0, 0, 0, 0},
{ 0, 0, 0, 0, 0},
{ 0, 0, 0, 0, 0}},
{{ 0, 0, 0, 0, 0},
{ 0, 0, 0, 0, 0},
{ 0, 0, 0, 0, 0},
{ 0, 0, 0, 0, 0},
{ 0, 0, 0, 0, 0}},
{{ 0, 0, 0, 0, 0},
{ 0, 0, 0, 0, 0},
{ 0, 0, 0, 0, 0},
{ 0, 0, 0, 0, 0},
{ 0, 0, 0, 0, 0}},
{{ 0, 0, 0, 0, 0},
{ 0, 0, 0, 0, 0},
{ 0, 0, 0, 0, 0},
{ 0, 0, 0, 0, 0},
{ 0, 0, 0, 0, 0}},
{{ 0, 0, 0, 0, 0},
{ 0, 0, 0, 0, 0},
{ 0, 0, 0, 0, 0},
{ 0, 0, 0, 0, 0},
{ 0, 0, 0, 0, 0}},
{{ 0, 0, 0, 0, 0},
{ 0, 0, 0, 0, 0},
{ 0, 0, 0, 0, 0},
{ 0, 0, 0, 0, 0},
{ 0, 0, 0, 0, 0}},
{{ 0, 0, 0, 0, 0},
{ 0, 0, 0, 0, 0},
{ 0, 0, 0, 0, 0},
{ 0, 0, 0, 0, 0},
{ 0, 0, 0, 0, 0}},
{{ 0, 0, 0, 0, 0},
{ 0, 0, 0, 0, 0},
{ 0, 0, 0, 0, 0},
{ 0, 0, 0, 0, 0},
{ 0, 0, 0, 0, 0}}},
{{{ -0.0710172951221466, -0.0005365003598853946, -0.21064995229244232, -0.22740678489208221, 0.05149875208735466},
{ 0.2178110033273697, 0.15984871983528137, 0.23744060099124908, 0.17139564454555511, 0.056980978697538376},
{ 0.24143356084823608, 0.33734801411628723, 0.2846607565879822, 0.1794714331626892, -0.1086348295211792},
{ -0.05355703830718994, -0.048263829201459885, -0.10578475892543793, -0.30457159876823425, -0.27532121539115906},
{ -0.2418401539325714, -0.3372124433517456, -0.3406522274017334, -0.06307254731655121, 0.17925265431404114}},
{{ -0.0191046055406332, -0.025187617167830467, -0.014869718812406063, 0.06375737488269806, 0.02482614666223526},
{ 0.17239074409008026, 0.25966015458106995, 0.14677205681800842, 0.06804374605417252, 0.011644200421869755},
{ -0.03006279468536377, -0.031195081770420074, -0.06389984488487244, -0.26248928904533386, -0.31102344393730164},
{ 0.07152428478002548, -0.23827974498271942, -0.5131263732910156, -0.3464565575122833, -0.01819021627306938},
{ 0.08531288057565689, 0.04006994888186455, -0.1425519585609436, -0.2764248549938202, 0.08160613477230072}},
{{ 0.09944236278533936, -0.009949286468327045, 0.08146266639232635, 0.19946300983428955, 0.1558106541633606},
{ -0.07263965159654617, -0.0038859040942043066, 0.25456082820892334, 0.34741899371147156, 0.34712982177734375},
{ -0.019428741186857224, -0.06220318377017975, 0.010574321262538433, 0.1661679446697235, -0.17680341005325317},
{ -0.09984515607357025, -0.2946276366710663, -0.31081563234329224, -0.4491824507713318, -0.39226868748664856},
{ 0.008509980514645576, 0.04050139710307121, 0.08114927262067795, -0.05149918422102928, 0.042100995779037476}},
{{ -0.14523665606975555, -0.012142484076321125, 0.08952557295560837, 0.006038852501660585, 0.07842510938644409},
{ -0.16480009257793427, -0.01288928184658289, 0.2655803859233856, 0.2787068784236908, 0.20038385689258575},
{ -0.13266438245773315, 0.15177738666534424, 0.18390002846717834, 0.08020608127117157, -0.279735267162323},
{ -0.4081842005252838, -0.2942429184913635, -0.4112297296524048, -0.5362153649330139, -0.09889151901006699},
{ -0.3241441547870636, -0.31204691529273987, -0.24266818165779114, -0.07670124620199203, 0.07693488895893097}},
{{ -0.11491709202528, -0.00792770367115736, 0.07844601571559906, 0.07468347996473312, -0.02752927504479885},
{ -0.4259185194969177, -0.07248526811599731, 0.1888365000486374, 0.14444495737552643, 0.1013314425945282},
{ -0.1293463259935379, 0.028997786343097687, -0.0114479074254632, 0.03939129039645195, 0.14843745529651642},
{ 0.08744294196367264, 0.021101681515574455, 0.024729225784540176, 0.024868475273251534, -0.017622649669647217},
{ 0.07596932351589203, 0.14778266847133636, 0.1340397447347641, 0.001074859406799078, 0.017210502177476883}},
{{ -0.007212314289063215, -0.047994352877140045, 0.1293916404247284, 0.016444766893982887, 0.1769995093345642},
{ -0.16231675446033478, -0.0026810248382389545, -0.057676684111356735, -0.029522601515054703, -0.2455330491065979},
{ -0.28753629326820374, -0.42639943957328796, -0.6854681372642517, -0.8909913301467896, -0.5091750621795654},
{ -0.27857691049575806, 0.002945378888398409, -0.08900989592075348, -0.1833668053150177, 0.08498620241880417},
{ 0.10191631317138672, 0.20676912367343903, 0.10627423226833344, -0.002566220937296748, -0.04588077962398529}},
{{ 0, 0, 0, 0, 0},
{ 0, 0, 0, 0, 0},
{ 0, 0, 0, 0, 0},
{ 0, 0, 0, 0, 0},
{ 0, 0, 0, 0, 0}},
{{ 0, 0, 0, 0, 0},
{ 0, 0, 0, 0, 0},
{ 0, 0, 0, 0, 0},
{ 0, 0, 0, 0, 0},
{ 0, 0, 0, 0, 0}},
{{ 0, 0, 0, 0, 0},
{ 0, 0, 0, 0, 0},
{ 0, 0, 0, 0, 0},
{ 0, 0, 0, 0, 0},
{ 0, 0, 0, 0, 0}},
{{ 0, 0, 0, 0, 0},
{ 0, 0, 0, 0, 0},
{ 0, 0, 0, 0, 0},
{ 0, 0, 0, 0, 0},
{ 0, 0, 0, 0, 0}},
{{ 0, 0, 0, 0, 0},
{ 0, 0, 0, 0, 0},
{ 0, 0, 0, 0, 0},
{ 0, 0, 0, 0, 0},
{ 0, 0, 0, 0, 0}},
{{ 0, 0, 0, 0, 0},
{ 0, 0, 0, 0, 0},
{ 0, 0, 0, 0, 0},
{ 0, 0, 0, 0, 0},
{ 0, 0, 0, 0, 0}},
{{ 0, 0, 0, 0, 0},
{ 0, 0, 0, 0, 0},
{ 0, 0, 0, 0, 0},
{ 0, 0, 0, 0, 0},
{ 0, 0, 0, 0, 0}},
{{ 0, 0, 0, 0, 0},
{ 0, 0, 0, 0, 0},
{ 0, 0, 0, 0, 0},
{ 0, 0, 0, 0, 0},
{ 0, 0, 0, 0, 0}},
{{ 0, 0, 0, 0, 0},
{ 0, 0, 0, 0, 0},
{ 0, 0, 0, 0, 0},
{ 0, 0, 0, 0, 0},
{ 0, 0, 0, 0, 0}},
{{ 0, 0, 0, 0, 0},
{ 0, 0, 0, 0, 0},
{ 0, 0, 0, 0, 0},
{ 0, 0, 0, 0, 0},
{ 0, 0, 0, 0, 0}}},
{{{ 0.046028416603803635, 0.048540469259023666, -0.02678319439291954, -0.10959909856319427, -0.33998730778694153},
{ -0.054236944764852524, -0.1311010867357254, -0.22316542267799377, -0.1915084272623062, -0.19541926681995392},
{ -0.25897178053855896, -0.3565542995929718, -0.10561934113502502, 0.06631514430046082, 0.08979152888059616},
{ 0.1069415733218193, 0.1552143692970276, 0.0638204962015152, -0.006645984016358852, 0.030005211010575294},
{ 0.04513660818338394, 0.05450943484902382, -0.028563540428876877, 0.09713008254766464, 0.12330792099237442}},
{{ -0.04300298914313316, 0.0003173185104969889, -0.050569429993629456, -0.16613006591796875, -0.25296223163604736},
{ -0.06938770413398743, -0.13324832916259766, 0.11932707577943802, 0.17600470781326294, 0.109035924077034},
{ 0.009846008382737637, 0.04213991388678551, -0.05493960157036781, 0.10052741318941116, 0.1647467017173767},
{ 0.06849371641874313, 0.0882343202829361, -0.09905807673931122, 0.02966322936117649, 0.014552882872521877},
{ -0.17363759875297546, -0.029144152998924255, -0.13714838027954102, -0.13669998943805695, -0.1192517802119255}},
{{ -0.07648526877164841, -0.13965623080730438, -0.13368405401706696, -0.06075146421790123, -0.2617545425891876},
{ -0.3258008360862732, -0.02630799263715744, -0.32106319069862366, -0.23186469078063965, -0.15212081372737885},
{ -0.05265692621469498, -0.22211429476737976, 0.10676941275596619, 0.13611097633838654, -0.05899818241596222},
{ 0.10716599971055984, 0.26504814624786377, 0.23159347474575043, 0.11515291035175323, -0.217383474111557},
{ 0.19683486223220825, 0.11578534543514252, -0.09656566381454468, 0.042006783187389374, 0.13730007410049438}},
{{ -0.26013028621673584, -0.08830899000167847, -0.004647331312298775, -0.18238253891468048, -0.2925110459327698},
{ -0.23567742109298706, -0.30473074316978455, -0.17767265439033508, -0.049604106694459915, -0.14122703671455383},
{ -0.1772361695766449, 0.009521575644612312, 0.17766501009464264, 0.15417145192623138, -0.25614771246910095},
{ 0.18371954560279846, 0.2917993366718292, 0.22387392818927765, -0.33776456117630005, -0.3755725920200348},
{ 0.17553125321865082, -0.005374313332140446, -0.25547468662261963, -0.09054332971572876, -0.042059630155563354}},
{{ 0.1353801041841507, 0.038744524121284485, 0.10099641978740692, 0.09611351788043976, 0.12043051421642303},
{ 0.04016909375786781, 0.0013952754670754075, -0.00278946990147233, -0.18345427513122559, -0.1979082077741623},
{ -0.24854284524917603, -0.18677958846092224, -0.18433740735054016, -0.23866917192935944, -0.09293109178543091},
{ -0.7050837874412537, -0.19101455807685852, 0.025893094018101692, 0.03913776949048042, -0.017044389620423317},
{ -0.3133290708065033, 0.09207113087177277, 0.07872513681650162, 0.0048270695842802525, 0.12625408172607422}},
{{ -0.2601659297943115, -0.08074064552783966, 0.06212615221738815, -0.019712019711732864, -0.04215582460165024},
{ -0.29752641916275024, -0.09141820669174194, 0.057631492614746094, 0.08969614654779434, 0.13551455736160278},
{ 0.14731000363826752, 0.1666669100522995, 0.13534750044345856, -0.20321275293827057, -0.3005841076374054},
{ 0.11612384021282196, 0.025769315659999847, -0.03686051815748215, -0.339908242225647, -0.10521725565195084},
{ -0.32585418224334717, -0.4351414144039154, -0.04890627786517143, -0.1593124270439148, -0.19284199178218842}},
{{ 0, 0, 0, 0, 0},
{ 0, 0, 0, 0, 0},
{ 0, 0, 0, 0, 0},
{ 0, 0, 0, 0, 0},
{ 0, 0, 0, 0, 0}},
{{ 0, 0, 0, 0, 0},
{ 0, 0, 0, 0, 0},
{ 0, 0, 0, 0, 0},
{ 0, 0, 0, 0, 0},
{ 0, 0, 0, 0, 0}},
{{ 0, 0, 0, 0, 0},
{ 0, 0, 0, 0, 0},
{ 0, 0, 0, 0, 0},
{ 0, 0, 0, 0, 0},
{ 0, 0, 0, 0, 0}},
{{ 0, 0, 0, 0, 0},
{ 0, 0, 0, 0, 0},
{ 0, 0, 0, 0, 0},
{ 0, 0, 0, 0, 0},
{ 0, 0, 0, 0, 0}},
{{ 0, 0, 0, 0, 0},
{ 0, 0, 0, 0, 0},
{ 0, 0, 0, 0, 0},
{ 0, 0, 0, 0, 0},
{ 0, 0, 0, 0, 0}},
{{ 0, 0, 0, 0, 0},
{ 0, 0, 0, 0, 0},
{ 0, 0, 0, 0, 0},
{ 0, 0, 0, 0, 0},
{ 0, 0, 0, 0, 0}},
{{ 0, 0, 0, 0, 0},
{ 0, 0, 0, 0, 0},
{ 0, 0, 0, 0, 0},
{ 0, 0, 0, 0, 0},
{ 0, 0, 0, 0, 0}},
{{ 0, 0, 0, 0, 0},
{ 0, 0, 0, 0, 0},
{ 0, 0, 0, 0, 0},
{ 0, 0, 0, 0, 0},
{ 0, 0, 0, 0, 0}},
{{ 0, 0, 0, 0, 0},
{ 0, 0, 0, 0, 0},
{ 0, 0, 0, 0, 0},
{ 0, 0, 0, 0, 0},
{ 0, 0, 0, 0, 0}},
{{ 0, 0, 0, 0, 0},
{ 0, 0, 0, 0, 0},
{ 0, 0, 0, 0, 0},
{ 0, 0, 0, 0, 0},
{ 0, 0, 0, 0, 0}}},
{{{ 0.10474053770303726, 0.0926240012049675, 0.1863972395658493, -0.017992647364735603, -0.15502308309078217},
{ -0.1273922175168991, -0.31358641386032104, 0.031926874071359634, 0.12551546096801758, -0.06816066056489944},
{ 0.01250008586794138, -0.13992707431316376, 0.020429246127605438, 0.29860740900039673, 0.038754433393478394},
{ 0.06789189577102661, 0.010967094451189041, -0.09169860929250717, -0.017915941774845123, -0.10122916102409363},
{ 0.05047926306724548, 0.04966818168759346, -0.15373483300209045, -0.054042283445596695, -0.08750812709331512}},
{{ 0.034846626222133636, 0.06697738915681839, 0.15519307553768158, 0.012235529720783234, -0.2154136449098587},
{ -0.05492473021149635, -0.21127907931804657, -0.02799898572266102, -0.029622521251440048, -0.07999709248542786},
{ 0.12921862304210663, -0.017481952905654907, -0.14457957446575165, -0.07495336979627609, -0.07810773700475693},
{ 0.012103039771318436, -0.09787920862436295, -0.13528111577033997, -0.016256343573331833, 0.026890292763710022},
{ -0.054307013750076294, 0.19864381849765778, 0.034562814980745316, 0.04991338029503822, 0.10613728314638138}},
{{ 0.2566289007663727, -0.28241074085235596, -0.21318788826465607, 0.08551818132400513, -0.06128382310271263},
{ 0.06830104440450668, -0.3286817669868469, 0.19158926606178284, 0.20670835673809052, 0.08409474790096283},
{ -0.17441268265247345, 0.2579944133758545, 0.3606413006782532, -0.007966991513967514, -0.500223696231842},
{ 0.1885773092508316, 0.2863725423812866, -0.13998423516750336, -0.4863484799861908, -0.06774280220270157},
{ -0.031201155856251717, -0.22557535767555237, -0.3669557571411133, 0.047046761959791183, 0.04475999251008034}},
{{ 0.2789857089519501, -0.27844569087028503, -0.16968774795532227, -0.1278832107782364, -0.06071067601442337},
{ -0.438125342130661, -0.1669817715883255, 0.21813878417015076, 0.21636979281902313, -0.17451676726341248},
{ -0.09615053236484528, 0.24460051953792572, 0.44273310899734497, 0.12299108505249023, -0.5788815021514893},
{ 0.23746298253536224, 0.21044638752937317, -0.2400476336479187, -0.3267304599285126, -0.09271783381700516},
{ -0.005077080335468054, -0.2995487153530121, -0.7177947759628296, -0.1869896501302719, -0.2527097463607788}},
{{ -0.23368699848651886, -0.5004726648330688, -0.07931246608495712, 0.14982978999614716, 0.12153148651123047},
{ -0.03070070408284664, -0.18645986914634705, -0.026149921119213104, 0.20617778599262238, 0.3327983617782593},
{ -0.4231157600879669, -0.34595295786857605, 0.03745793551206589, 0.0320759154856205, 0.061909690499305725},
{ -0.2459827959537506, 0.320126473903656, 0.04833529144525528, -0.2654128670692444, -0.10190333425998688},
{ 0.03203411027789116, -0.02892153337597847, -0.2628944218158722, -0.16017869114875793, 0.16940638422966003}},
{{ 0.07827457785606384, -0.3181189000606537, 0.03743670508265495, -0.028584038838744164, -0.08578359335660934},
{ -0.25928938388824463, 0.1672734171152115, 0.23387007415294647, -0.0739554613828659, -0.2759419083595276},
{ 0.06175990030169487, 0.2569257318973541, 0.01357960980385542, -0.4466869831085205, -0.17990252375602722},
{ 0.13729390501976013, -0.11893364787101746, -0.40711164474487305, 0.06098268926143646, 0.12671685218811035},
{ -0.15910133719444275, -0.27869847416877747, 0.09769109636545181, 0.2746396064758301, -0.005946241319179535}},
{{ 0, 0, 0, 0, 0},
{ 0, 0, 0, 0, 0},
{ 0, 0, 0, 0, 0},
{ 0, 0, 0, 0, 0},
{ 0, 0, 0, 0, 0}},
{{ 0, 0, 0, 0, 0},
{ 0, 0, 0, 0, 0},
{ 0, 0, 0, 0, 0},
{ 0, 0, 0, 0, 0},
{ 0, 0, 0, 0, 0}},
{{ 0, 0, 0, 0, 0},
{ 0, 0, 0, 0, 0},
{ 0, 0, 0, 0, 0},
{ 0, 0, 0, 0, 0},
{ 0, 0, 0, 0, 0}},
{{ 0, 0, 0, 0, 0},
{ 0, 0, 0, 0, 0},
{ 0, 0, 0, 0, 0},
{ 0, 0, 0, 0, 0},
{ 0, 0, 0, 0, 0}},
{{ 0, 0, 0, 0, 0},
{ 0, 0, 0, 0, 0},
{ 0, 0, 0, 0, 0},
{ 0, 0, 0, 0, 0},
{ 0, 0, 0, 0, 0}},
{{ 0, 0, 0, 0, 0},
{ 0, 0, 0, 0, 0},
{ 0, 0, 0, 0, 0},
{ 0, 0, 0, 0, 0},
{ 0, 0, 0, 0, 0}},
{{ 0, 0, 0, 0, 0},
{ 0, 0, 0, 0, 0},
{ 0, 0, 0, 0, 0},
{ 0, 0, 0, 0, 0},
{ 0, 0, 0, 0, 0}},
{{ 0, 0, 0, 0, 0},
{ 0, 0, 0, 0, 0},
{ 0, 0, 0, 0, 0},
{ 0, 0, 0, 0, 0},
{ 0, 0, 0, 0, 0}},
{{ 0, 0, 0, 0, 0},
{ 0, 0, 0, 0, 0},
{ 0, 0, 0, 0, 0},
{ 0, 0, 0, 0, 0},
{ 0, 0, 0, 0, 0}},
{{ 0, 0, 0, 0, 0},
{ 0, 0, 0, 0, 0},
{ 0, 0, 0, 0, 0},
{ 0, 0, 0, 0, 0},
{ 0, 0, 0, 0, 0}}},
{{{ -0.020931053906679153, -0.085960753262043, -0.21170155704021454, -0.02323601208627224, -0.12969231605529785},
{ 0.06392927467823029, -0.06241913512349129, -0.3519328534603119, -0.3080432116985321, -0.07926011085510254},
{ 0.07070830464363098, -0.12289382517337799, -0.40748393535614014, -0.0109182083979249, -0.07378610223531723},
{ 0.008479541167616844, -0.26777029037475586, -0.25246405601501465, -0.045177169144153595, -0.04098456725478172},
{ -0.44291630387306213, -0.5720851421356201, -0.12906859815120697, 0.11129602044820786, 0.08398415893316269}},
{{ 0.18298129737377167, 0.015738165006041527, -0.4105881452560425, -0.24241439998149872, -0.08265145868062973},
{ 0.01010405644774437, -0.16330623626708984, -0.39748403429985046, 0.07586196064949036, 0.044673237949609756},
{ -0.025208504870533943, -0.1922072470188141, -0.26658323407173157, 0.051866672933101654, -0.13365033268928528},
{ -0.2563766539096832, -0.20415815711021423, -0.08116886764764786, 0.06787192821502686, -0.08728596568107605},
{ -0.00449352664873004, -0.27385297417640686, -0.007774896454066038, 0.0938253402709961, 0.0005615293048322201}},
{{ 0.10913168638944626, 0.0697995126247406, -0.09484276175498962, -0.36959752440452576, -0.09499609470367432},
{ 0.1657445728778839, 0.05953856557607651, -0.3816109001636505, -0.07088958472013474, 0.15414682030677795},
{ 0.22250138223171234, -0.09531665593385696, -0.5255165100097656, 0.10395566374063492, 0.20269674062728882},
{ 0.2184598594903946, -0.33595651388168335, -0.1291513442993164, 0.006448828149586916, 0.07263515144586563},
{ 0.035761065781116486, -0.25988733768463135, 0.14508353173732758, 0.08845330029726028, 0.007732427679002285}},
{{ 0.06008376553654671, -0.18806198239326477, 0.06003846228122711, -0.31755706667900085, -0.04379460960626602},
{ -0.028062283992767334, -0.28290337324142456, -0.4819546341896057, -0.03255096450448036, 0.13652771711349487},
{ 0.06320367753505707, -0.24518629908561707, -0.1891878843307495, 0.19606761634349823, 0.172600656747818},
{ 0.2292884737253189, -0.3510158061981201, 0.04993671923875809, 0.2370888888835907, 0.013368364423513412},
{ 0.006749659776687622, -0.27059245109558105, 0.19967105984687805, 0.14074166119098663, -0.08531603962182999}},
{{ 0.12867535650730133, 0.19077251851558685, 0.10493248701095581, -0.023299550637602806, -0.1764751672744751},
{ 0.05646778643131256, 0.1999223232269287, -0.024508396163582802, -0.23359297215938568, -0.1694326251745224},
{ 0.16474853456020355, 0.19138142466545105, -0.044435352087020874, -0.11013401299715042, 0.0038143680430948734},
{ 0.15570639073848724, 0.08222193270921707, -0.2584831416606903, -0.023381955921649933, 0.018290292471647263},
{ 0.06874911487102509, -0.1667991578578949, -0.10575741529464722, 0.08098631352186203, -0.04472809284925461}},
{{ 0.10341547429561615, -0.16485342383384705, -0.5788620710372925, -0.16234968602657318, 0.08372588455677032},
{ 0.09213337302207947, -0.20568178594112396, -0.3294644057750702, 0.15464834868907928, 0.1148461177945137},
{ 0.17564785480499268, -0.30695685744285583, -0.09041795879602432, 0.16396626830101013, 0.020488550886511803},
{ -0.12142586708068848, -0.29718801379203796, 0.041916634887456894, 0.13328632712364197, -0.16233235597610474},
{ -0.060113102197647095, 0.08804138749837875, 0.1744716316461563, 0.046677976846694946, -0.4495776891708374}},
{{ 0, 0, 0, 0, 0},
{ 0, 0, 0, 0, 0},
{ 0, 0, 0, 0, 0},
{ 0, 0, 0, 0, 0},
{ 0, 0, 0, 0, 0}},
{{ 0, 0, 0, 0, 0},
{ 0, 0, 0, 0, 0},
{ 0, 0, 0, 0, 0},
{ 0, 0, 0, 0, 0},
{ 0, 0, 0, 0, 0}},
{{ 0, 0, 0, 0, 0},
{ 0, 0, 0, 0, 0},
{ 0, 0, 0, 0, 0},
{ 0, 0, 0, 0, 0},
{ 0, 0, 0, 0, 0}},
{{ 0, 0, 0, 0, 0},
{ 0, 0, 0, 0, 0},
{ 0, 0, 0, 0, 0},
{ 0, 0, 0, 0, 0},
{ 0, 0, 0, 0, 0}},
{{ 0, 0, 0, 0, 0},
{ 0, 0, 0, 0, 0},
{ 0, 0, 0, 0, 0},
{ 0, 0, 0, 0, 0},
{ 0, 0, 0, 0, 0}},
{{ 0, 0, 0, 0, 0},
{ 0, 0, 0, 0, 0},
{ 0, 0, 0, 0, 0},
{ 0, 0, 0, 0, 0},
{ 0, 0, 0, 0, 0}},
{{ 0, 0, 0, 0, 0},
{ 0, 0, 0, 0, 0},
{ 0, 0, 0, 0, 0},
{ 0, 0, 0, 0, 0},
{ 0, 0, 0, 0, 0}},
{{ 0, 0, 0, 0, 0},
{ 0, 0, 0, 0, 0},
{ 0, 0, 0, 0, 0},
{ 0, 0, 0, 0, 0},
{ 0, 0, 0, 0, 0}},
{{ 0, 0, 0, 0, 0},
{ 0, 0, 0, 0, 0},
{ 0, 0, 0, 0, 0},
{ 0, 0, 0, 0, 0},
{ 0, 0, 0, 0, 0}},
{{ 0, 0, 0, 0, 0},
{ 0, 0, 0, 0, 0},
{ 0, 0, 0, 0, 0},
{ 0, 0, 0, 0, 0},
{ 0, 0, 0, 0, 0}}},
{{{ -0.15470153093338013, 0.006154107861220837, -0.01797664165496826, -0.06781963258981705, -0.03871527686715126},
{ -0.03170222043991089, 0.10231580585241318, 0.05332093685865402, -0.2893678843975067, -0.17617392539978027},
{ -0.2030215859413147, -0.017787599936127663, 0.09908987581729889, -0.10085327923297882, -0.502404510974884},
{ -0.10365871340036392, -0.1596328169107437, 0.10088274627923965, 0.11534646153450012, -0.25473374128341675},
{ -0.13977095484733582, -0.06104027107357979, -0.0132904052734375, 0.01293788943439722, 0.013945871964097023}},
{{ -0.03490443527698517, 0.05033440142869949, -0.06383530795574188, -0.5086043477058411, -0.2788660526275635},
{ -0.09310968220233917, 0.217930406332016, 0.4205968379974365, -0.019864356145262718, -0.5841631293296814},
{ -0.4012869894504547, -0.07425914704799652, 0.3908754289150238, 0.2120119333267212, -0.18424052000045776},
{ -0.41476374864578247, -0.460721492767334, 0.1238110288977623, 0.3346197307109833, -0.07274429500102997},
{ -0.1447446644306183, -0.20944461226463318, -0.02320726402103901, 0.1918506622314453, 0.033891476690769196}},
{{ -0.20264023542404175, -0.28632164001464844, 0.18407265841960907, 0.05657634139060974, -0.22916202247142792},
{ -0.09892040491104126, -0.3478529751300812, 0.19221316277980804, 0.2452002614736557, 0.00343465618789196},
{ 0.028276974335312843, -0.24176077544689178, -0.004844588227570057, 0.17159582674503326, 0.13599275052547455},
{ -0.13397906720638275, -0.10572100430727005, -0.15727509558200836, 0.1032099723815918, 0.06629256904125214},
{ -0.10997189581394196, -0.028471117839217186, -0.0046139308251440525, 0.09060192108154297, -0.02878562919795513}},
{{ -0.0667230561375618, -0.09568927437067032, 0.0003317687369417399, -0.10828688740730286, 0.07434585690498352},
{ -0.008177335374057293, -0.032185573130846024, -0.17055422067642212, -0.19297657907009125, -0.026618240401148796},
{ 0.04453239589929581, 0.0240227822214365, -0.10460319370031357, -0.3313504159450531, -0.05326349660754204},
{ -0.009000820107758045, 0.1610669046640396, 0.09803666174411774, -0.3542375862598419, -0.053616177290678024},
{ -0.07854195684194565, 0.03881840780377388, 0.14655077457427979, -0.14763911068439484, -0.15120558440685272}},
{{ -0.2506929039955139, 0.007339105010032654, 0.1101127564907074, -0.07068704068660736, -0.11988457292318344},
{ -0.0960414856672287, -0.23272909224033356, -0.12410680949687958, 0.2585013508796692, -0.013704853132367134},
{ -0.015954535454511642, -0.21967819333076477, -0.27901920676231384, 0.20099422335624695, 0.010895689949393272},
{ 0.09293025732040405, -0.059642937034368515, -0.36022284626960754, 0.09270815551280975, 0.09375851601362228},
{ -0.15977202355861664, -0.27538996934890747, -0.36529943346977234, -0.15597714483737946, 0.05760244280099869}},
{{ -0.1327047199010849, 0.05792347341775894, 0.005433196201920509, 0.011646786704659462, -0.140700101852417},
{ 0.09117188304662704, -0.0657525360584259, 0.16483977437019348, 0.21367566287517548, 0.010637118481099606},
{ 0.14310181140899658, -0.08282119780778885, -0.05709873139858246, 0.10311020165681839, 0.21761754155158997},
{ 0.039019618183374405, 0.04533941671252251, -0.11110716313123703, -0.2714836895465851, 0.23980894684791565},
{ -0.03706282377243042, 0.017011763527989388, -0.038063760846853256, -0.36138853430747986, -0.05357058718800545}},
{{ 0, 0, 0, 0, 0},
{ 0, 0, 0, 0, 0},
{ 0, 0, 0, 0, 0},
{ 0, 0, 0, 0, 0},
{ 0, 0, 0, 0, 0}},
{{ 0, 0, 0, 0, 0},
{ 0, 0, 0, 0, 0},
{ 0, 0, 0, 0, 0},
{ 0, 0, 0, 0, 0},
{ 0, 0, 0, 0, 0}},
{{ 0, 0, 0, 0, 0},
{ 0, 0, 0, 0, 0},
{ 0, 0, 0, 0, 0},
{ 0, 0, 0, 0, 0},
{ 0, 0, 0, 0, 0}},
{{ 0, 0, 0, 0, 0},
{ 0, 0, 0, 0, 0},
{ 0, 0, 0, 0, 0},
{ 0, 0, 0, 0, 0},
{ 0, 0, 0, 0, 0}},
{{ 0, 0, 0, 0, 0},
{ 0, 0, 0, 0, 0},
{ 0, 0, 0, 0, 0},
{ 0, 0, 0, 0, 0},
{ 0, 0, 0, 0, 0}},
{{ 0, 0, 0, 0, 0},
{ 0, 0, 0, 0, 0},
{ 0, 0, 0, 0, 0},
{ 0, 0, 0, 0, 0},
{ 0, 0, 0, 0, 0}},
{{ 0, 0, 0, 0, 0},
{ 0, 0, 0, 0, 0},
{ 0, 0, 0, 0, 0},
{ 0, 0, 0, 0, 0},
{ 0, 0, 0, 0, 0}},
{{ 0, 0, 0, 0, 0},
{ 0, 0, 0, 0, 0},
{ 0, 0, 0, 0, 0},
{ 0, 0, 0, 0, 0},
{ 0, 0, 0, 0, 0}},
{{ 0, 0, 0, 0, 0},
{ 0, 0, 0, 0, 0},
{ 0, 0, 0, 0, 0},
{ 0, 0, 0, 0, 0},
{ 0, 0, 0, 0, 0}},
{{ 0, 0, 0, 0, 0},
{ 0, 0, 0, 0, 0},
{ 0, 0, 0, 0, 0},
{ 0, 0, 0, 0, 0},
{ 0, 0, 0, 0, 0}}},
{{{ -0.3119973838329315, -0.4178476929664612, -0.21861638128757477, -0.360058069229126, -0.18149694800376892},
{ -0.02970471791923046, 0.005934117827564478, 0.19077353179454803, 0.005231624934822321, -0.05137069895863533},
{ 0.04299870505928993, 0.14390099048614502, 0.11236851662397385, 0.12433604896068573, 0.13074810802936554},
{ 0.0920487642288208, -0.037024226039648056, -0.06312714517116547, -0.03127993643283844, 0.014725216664373875},
{ 0.01937849074602127, -0.1560179591178894, -0.26888978481292725, -0.2937457859516144, -0.2806917130947113}},
{{ 0.009025750681757927, -0.2318732887506485, -0.4114685654640198, -0.6413024663925171, -0.32219362258911133},
{ 0.22587403655052185, 0.13086187839508057, 0.00599408894777298, -0.015217278152704239, 0.13356173038482666},
{ 0.18460914492607117, 0.007855245843529701, 0.15677335858345032, 0.16720908880233765, 0.13432931900024414},
{ -0.12261585891246796, -0.03366028144955635, 0.038581278175115585, -0.06538175791501999, -0.07338887453079224},
{ -0.028262505307793617, -0.43426039814949036, -0.05088959261775017, -0.13422343134880066, -0.03289065510034561}},
{{ 0.1814235895872116, 0.001017858972772956, -0.3872353136539459, -0.38533899188041687, -0.2952895760536194},
{ -0.0484384149312973, -0.21874819695949554, 0.060126569122076035, -0.16303646564483643, -0.15844154357910156},
{ 0.09271015226840973, 0.150452122092247, 0.1948973685503006, -0.009248579852283001, 0.14941152930259705},
{ 0.05686260014772415, 0.05905389040708542, -0.1511528640985489, 0.14399045705795288, 0.039685264229774475},
{ -0.05141181871294975, -0.2582927346229553, 0.007318657357245684, 0.08570358902215958, -0.05195057764649391}},
{{ 0.23950210213661194, -0.014835089445114136, -0.5678344964981079, -0.06713221222162247, -0.16361312568187714},
{ -0.15104460716247559, -0.37281790375709534, -0.3434431552886963, -0.2897043824195862, -0.08429306745529175},
{ -0.12221330404281616, -0.15149278938770294, -0.15601013600826263, 0.08068305253982544, 0.2030838429927826},
{ -0.10189645737409592, -0.37950626015663147, 0.027659840881824493, 0.19900545477867126, 0.11635980010032654},
{ -0.20802098512649536, -0.2695661783218384, -0.10111785680055618, -0.059827324002981186, -0.08311565965414047}},
{{ 0.15182431042194366, 0.19604595005512238, -0.01261285599321127, 0.11032970249652863, 0.015064798295497894},
{ -0.22376681864261627, -0.1276598423719406, -0.14837400615215302, -0.06669747829437256, -0.026222968474030495},
{ -0.6755056381225586, -0.44715431332588196, -0.15210963785648346, 0.017746172845363617, -0.07303169369697571},
{ -0.034064438194036484, -0.0451042465865612, 0.09998335689306259, -0.0013553753960877657, -0.11271324008703232},
{ 0.29761794209480286, 0.09734164923429489, 0.1005759984254837, -0.11861078441143036, -0.10048270225524902}},
{{ 0.12278814613819122, -0.288418173789978, -0.22656023502349854, -0.10187883675098419, -0.2022198885679245},
{ -0.03887225314974785, 0.05994846299290657, 0.19050170481204987, 0.23334188759326935, 0.22244733572006226},
{ 0.0013081327779218554, 0.09280852973461151, -0.09582006186246872, -0.02517758123576641, 0.07043518871068954},
{ -0.3255835771560669, -0.4904766082763672, -0.3427852392196655, -0.3745047450065613, -0.5238483548164368},
{ -0.26429659128189087, -0.19450993835926056, 0.025378188118338585, 0.07234909385442734, 0.26309719681739807}},
{{ 0, 0, 0, 0, 0},
{ 0, 0, 0, 0, 0},
{ 0, 0, 0, 0, 0},
{ 0, 0, 0, 0, 0},
{ 0, 0, 0, 0, 0}},
{{ 0, 0, 0, 0, 0},
{ 0, 0, 0, 0, 0},
{ 0, 0, 0, 0, 0},
{ 0, 0, 0, 0, 0},
{ 0, 0, 0, 0, 0}},
{{ 0, 0, 0, 0, 0},
{ 0, 0, 0, 0, 0},
{ 0, 0, 0, 0, 0},
{ 0, 0, 0, 0, 0},
{ 0, 0, 0, 0, 0}},
{{ 0, 0, 0, 0, 0},
{ 0, 0, 0, 0, 0},
{ 0, 0, 0, 0, 0},
{ 0, 0, 0, 0, 0},
{ 0, 0, 0, 0, 0}},
{{ 0, 0, 0, 0, 0},
{ 0, 0, 0, 0, 0},
{ 0, 0, 0, 0, 0},
{ 0, 0, 0, 0, 0},
{ 0, 0, 0, 0, 0}},
{{ 0, 0, 0, 0, 0},
{ 0, 0, 0, 0, 0},
{ 0, 0, 0, 0, 0},
{ 0, 0, 0, 0, 0},
{ 0, 0, 0, 0, 0}},
{{ 0, 0, 0, 0, 0},
{ 0, 0, 0, 0, 0},
{ 0, 0, 0, 0, 0},
{ 0, 0, 0, 0, 0},
{ 0, 0, 0, 0, 0}},
{{ 0, 0, 0, 0, 0},
{ 0, 0, 0, 0, 0},
{ 0, 0, 0, 0, 0},
{ 0, 0, 0, 0, 0},
{ 0, 0, 0, 0, 0}},
{{ 0, 0, 0, 0, 0},
{ 0, 0, 0, 0, 0},
{ 0, 0, 0, 0, 0},
{ 0, 0, 0, 0, 0},
{ 0, 0, 0, 0, 0}},
{{ 0, 0, 0, 0, 0},
{ 0, 0, 0, 0, 0},
{ 0, 0, 0, 0, 0},
{ 0, 0, 0, 0, 0},
{ 0, 0, 0, 0, 0}}},
{{{ 0.006413402501493692, 0.05155615136027336, 0.05703752115368843, -0.019774336367845535, 0.023867180570960045},
{ -0.10262531787157059, 0.0930926576256752, 0.1241050511598587, 0.06651291251182556, 0.22047869861125946},
{ 0.11877130717039108, 0.08350953459739685, 0.12274394184350967, 0.07545345276594162, -0.09070691466331482},
{ 0.05207138508558273, -0.08228810131549835, -0.057884581387043, -0.04220462962985039, -0.3456519544124603},
{ -0.12119456380605698, 0.018933555111289024, 0.13950645923614502, 0.09768973290920258, 0.13469909131526947}},
{{ -0.1269848495721817, 0.013677539303898811, -0.023962711915373802, 0.027075812220573425, 0.044676993042230606},
{ -0.16623647511005402, -0.05948186665773392, -0.1266733705997467, -0.00968991033732891, -0.13083955645561218},
{ -0.05358536168932915, -0.2134450227022171, -0.33436495065689087, -0.36324790120124817, -0.2698392868041992},
{ -0.2653443217277527, -0.05157499015331268, 0.01242843084037304, 0.11762229353189468, 0.09782326966524124},
{ -0.16204947233200073, 0.0047368393279612064, 0.033954158425331116, 0.12197384983301163, 0.26709410548210144}},
{{ 0.14085906744003296, 0.10484418272972107, 0.029880132526159286, -0.029893580824136734, 0.03828362002968788},
{ 0.1798693686723709, -0.06298303604125977, 0.054583389312028885, 0.11937710642814636, -0.13045042753219604},
{ -0.0727996826171875, 0.13232222199440002, 0.16535867750644684, -0.21263916790485382, -0.23157426714897156},
{ -0.158181831240654, -0.049937017261981964, -0.4636760652065277, -0.4362010955810547, 0.04460517317056656},
{ -0.13758684694766998, 0.24363277852535248, 0.16094404458999634, 0.2605235278606415, 0.024115294218063354}},
{{ 0.13212750852108002, -0.186889186501503, -0.037123389542102814, -0.024742992594838142, -0.14712099730968475},
{ -0.10256236791610718, -0.014481917023658752, 0.1578911542892456, 0.1466347724199295, 0.03203028067946434},
{ 0.03012472204864025, 0.311568945646286, -0.0014664226910099387, -0.17527347803115845, -0.4005257785320282},
{ -0.15363435447216034, -0.20462320744991302, -0.3231824040412903, -0.14844846725463867, -0.12872783839702606},
{ -0.22974838316440582, -0.009714920073747635, 0.2359919399023056, 0.16601493954658508, 0.05779873579740524}},
{{ 0.08092179149389267, 0.06476248055696487, -0.04518637806177139, 0.14588607847690582, 0.1902846395969391},
{ 0.18762022256851196, 0.07804363965988159, -0.06546977162361145, 0.14415514469146729, 0.021983163431286812},
{ 0.08141104131937027, 0.01644226908683777, -0.0636160671710968, 0.011974497698247433, -0.10920301824808121},
{ -0.05690702050924301, -0.14473307132720947, -0.18987832963466644, -0.5768415331840515, -0.30944380164146423},
{ -0.18159528076648712, -0.14533118903636932, -0.37815240025520325, -0.34842193126678467, -0.08605201542377472}},
{{ -0.2447139173746109, -0.18271437287330627, -0.08162679523229599, -0.2686333656311035, -0.033206693828105927},
{ -0.1893986314535141, -0.07495586574077606, -0.13864998519420624, -0.4688972234725952, -0.6748151183128357},
{ -0.3460908532142639, -0.31023192405700684, -0.47978249192237854, -0.22331960499286652, -0.13439922034740448},
{ -0.4110594689846039, -0.16796913743019104, 0.05620156601071358, 0.3057166039943695, 0.3113560378551483},
{ 0.09131450951099396, 0.18126936256885529, 0.10214546322822571, 0.14555948972702026, -0.0908876359462738}},
{{ 0, 0, 0, 0, 0},
{ 0, 0, 0, 0, 0},
{ 0, 0, 0, 0, 0},
{ 0, 0, 0, 0, 0},
{ 0, 0, 0, 0, 0}},
{{ 0, 0, 0, 0, 0},
{ 0, 0, 0, 0, 0},
{ 0, 0, 0, 0, 0},
{ 0, 0, 0, 0, 0},
{ 0, 0, 0, 0, 0}},
{{ 0, 0, 0, 0, 0},
{ 0, 0, 0, 0, 0},
{ 0, 0, 0, 0, 0},
{ 0, 0, 0, 0, 0},
{ 0, 0, 0, 0, 0}},
{{ 0, 0, 0, 0, 0},
{ 0, 0, 0, 0, 0},
{ 0, 0, 0, 0, 0},
{ 0, 0, 0, 0, 0},
{ 0, 0, 0, 0, 0}},
{{ 0, 0, 0, 0, 0},
{ 0, 0, 0, 0, 0},
{ 0, 0, 0, 0, 0},
{ 0, 0, 0, 0, 0},
{ 0, 0, 0, 0, 0}},
{{ 0, 0, 0, 0, 0},
{ 0, 0, 0, 0, 0},
{ 0, 0, 0, 0, 0},
{ 0, 0, 0, 0, 0},
{ 0, 0, 0, 0, 0}},
{{ 0, 0, 0, 0, 0},
{ 0, 0, 0, 0, 0},
{ 0, 0, 0, 0, 0},
{ 0, 0, 0, 0, 0},
{ 0, 0, 0, 0, 0}},
{{ 0, 0, 0, 0, 0},
{ 0, 0, 0, 0, 0},
{ 0, 0, 0, 0, 0},
{ 0, 0, 0, 0, 0},
{ 0, 0, 0, 0, 0}},
{{ 0, 0, 0, 0, 0},
{ 0, 0, 0, 0, 0},
{ 0, 0, 0, 0, 0},
{ 0, 0, 0, 0, 0},
{ 0, 0, 0, 0, 0}},
{{ 0, 0, 0, 0, 0},
{ 0, 0, 0, 0, 0},
{ 0, 0, 0, 0, 0},
{ 0, 0, 0, 0, 0},
{ 0, 0, 0, 0, 0}}},
{{{ -0.03631661832332611, 0.07746179401874542, -0.08416449278593063, -0.1942330300807953, -0.3038713037967682},
{ -0.09049809724092484, -0.22487664222717285, -0.10113544017076492, -0.22975128889083862, -0.2398865967988968},
{ -0.20589108765125275, -0.18819399178028107, 0.13613371551036835, 0.22568491101264954, -0.10788202285766602},
{ 0.20142203569412231, 0.0718965157866478, -0.06154606491327286, -0.09745028614997864, -0.11521419137716293},
{ 0.22845308482646942, 0.13749922811985016, 0.16530156135559082, 0.0680626854300499, 0.0929829478263855}},
{{ -0.1763744056224823, 0.030195320025086403, -0.1472720205783844, -0.18582120537757874, -0.21771056950092316},
{ -0.29329395294189453, -0.1296156942844391, 0.05367935821413994, -0.08250219374895096, -0.06944739818572998},
{ 0.14303508400917053, 0.049025118350982666, 0.04622823745012283, 0.1688108742237091, 0.1662038415670395},
{ 0.12568645179271698, 0.015261023305356503, 0.002198813483119011, -0.05344870314002037, -0.005145219154655933},
{ -0.13004232943058014, -0.06240734085440636, 0.09797830879688263, -0.10943751037120819, -0.15343673527240753}},
{{ 0.17494405806064606, -0.017604071646928787, -0.007654564920812845, -0.06844130903482437, -0.29136356711387634},
{ 0.15184281766414642, -0.21418263018131256, -0.19633977115154266, -0.04452464357018471, -0.13883696496486664},
{ -0.011930031701922417, 0.012310806661844254, 0.1274084597826004, -0.0018790465546771884, -0.1196887269616127},
{ 0.3076535165309906, 0.07605375349521637, -0.07025479525327682, -0.002252348465844989, -0.004047175403684378},
{ 0.13361449539661407, -0.2412308156490326, 0.012698715552687645, 0.15639448165893555, 0.18425427377223969}},
{{ 0.26953378319740295, 0.13662341237068176, 0.0626525729894638, -0.37684202194213867, -0.4059971570968628},
{ 0.17193074524402618, -0.010013116523623466, -0.1141696646809578, -0.11849377304315567, -0.1344117671251297},
{ -0.04041611775755882, 0.10100293904542923, 0.1819966435432434, -0.13611087203025818, -0.2393576204776764},
{ 0.18867938220500946, 0.11269404739141464, -0.22173328697681427, -0.15781064331531525, -0.05556613206863403},
{ -0.1066761389374733, -0.18193656206130981, 0.09282688796520233, 0.20698274672031403, 0.013760887086391449}},
{{ 0.2437538355588913, -0.012263004668056965, 0.19024385511875153, 0.10185667872428894, -0.20547397434711456},
{ 0.24567031860351562, -0.1712506264448166, -0.09420882910490036, -0.015053853392601013, -0.10661854594945908},
{ -0.09103915095329285, -0.5451696515083313, -0.029857933521270752, 0.11489367485046387, -0.10646384954452515},
{ -0.5737286806106567, -0.3350122570991516, -0.048105932772159576, -0.0982770100235939, -0.11118577420711517},
{ -0.17000387609004974, -0.24529379606246948, -0.20668749511241913, -0.07953470200300217, -0.017224805429577827}},
{{ 0.021500397473573685, -0.20466463267803192, -0.23071780800819397, -0.11705563962459564, -0.12878623604774475},
{ -0.034709662199020386, 0.02774331532418728, 0.10935511440038681, 0.21737787127494812, 0.06820982694625854},
{ 0.23869743943214417, 0.30375006794929504, 0.04731206223368645, -0.18363651633262634, -0.1206238716840744},
{ 0.07178796082735062, 0.16104856133460999, 0.09249787777662277, -0.11423111706972122, -0.1022426038980484},
{ -0.19871976971626282, -0.20432348549365997, -0.4284273386001587, -0.387984961271286, -0.44708943367004395}},
{{ 0, 0, 0, 0, 0},
{ 0, 0, 0, 0, 0},
{ 0, 0, 0, 0, 0},
{ 0, 0, 0, 0, 0},
{ 0, 0, 0, 0, 0}},
{{ 0, 0, 0, 0, 0},
{ 0, 0, 0, 0, 0},
{ 0, 0, 0, 0, 0},
{ 0, 0, 0, 0, 0},
{ 0, 0, 0, 0, 0}},
{{ 0, 0, 0, 0, 0},
{ 0, 0, 0, 0, 0},
{ 0, 0, 0, 0, 0},
{ 0, 0, 0, 0, 0},
{ 0, 0, 0, 0, 0}},
{{ 0, 0, 0, 0, 0},
{ 0, 0, 0, 0, 0},
{ 0, 0, 0, 0, 0},
{ 0, 0, 0, 0, 0},
{ 0, 0, 0, 0, 0}},
{{ 0, 0, 0, 0, 0},
{ 0, 0, 0, 0, 0},
{ 0, 0, 0, 0, 0},
{ 0, 0, 0, 0, 0},
{ 0, 0, 0, 0, 0}},
{{ 0, 0, 0, 0, 0},
{ 0, 0, 0, 0, 0},
{ 0, 0, 0, 0, 0},
{ 0, 0, 0, 0, 0},
{ 0, 0, 0, 0, 0}},
{{ 0, 0, 0, 0, 0},
{ 0, 0, 0, 0, 0},
{ 0, 0, 0, 0, 0},
{ 0, 0, 0, 0, 0},
{ 0, 0, 0, 0, 0}},
{{ 0, 0, 0, 0, 0},
{ 0, 0, 0, 0, 0},
{ 0, 0, 0, 0, 0},
{ 0, 0, 0, 0, 0},
{ 0, 0, 0, 0, 0}},
{{ 0, 0, 0, 0, 0},
{ 0, 0, 0, 0, 0},
{ 0, 0, 0, 0, 0},
{ 0, 0, 0, 0, 0},
{ 0, 0, 0, 0, 0}},
{{ 0, 0, 0, 0, 0},
{ 0, 0, 0, 0, 0},
{ 0, 0, 0, 0, 0},
{ 0, 0, 0, 0, 0},
{ 0, 0, 0, 0, 0}}},
{{{ 0.06546279042959213, -0.023722443729639053, -0.2840155065059662, -0.3181946277618408, -0.3324403464794159},
{ 0.028178291395306587, 0.054283324629068375, -0.13839520514011383, -0.18601197004318237, -0.15647970139980316},
{ 0.017797309905290604, 0.2228756994009018, 0.3223917484283447, 0.024085260927677155, 0.055291835218667984},
{ -0.011026950553059578, 0.28354495763778687, 0.514020562171936, 0.4235994517803192, 0.14706949889659882},
{ -0.2746678590774536, -0.31834840774536133, -0.19409818947315216, -0.14663644134998322, -0.06046939268708229}},
{{ 0.10157041251659393, 0.0810050517320633, 0.007300787605345249, 0.12241945415735245, -0.007063284981995821},
{ -0.2136492282152176, -0.0738472118973732, -0.07349076867103577, -0.052410922944545746, -0.041952017694711685},
{ -0.0481070913374424, 0.2732085883617401, 0.3407057523727417, 0.19153256714344025, -0.011844185180962086},
{ -0.12377706915140152, 0.03330918401479721, 0.10250961780548096, 0.0005816213670186698, -0.16682881116867065},
{ -0.25472599267959595, -0.24980752170085907, -0.519697904586792, -0.5209352374076843, -0.3309880495071411}},
{{ -0.21426869928836823, 0.08748794347047806, 0.07893388718366623, -0.05180145800113678, -0.05799935385584831},
{ -0.06130925938487053, 0.2242107093334198, 0.17670045793056488, 0.005360315553843975, -0.044688064604997635},
{ -0.2400926649570465, -0.16425219178199768, 0.011125612072646618, 0.046122629195451736, 0.25919780135154724},
{ -0.09605667740106583, -0.15558715164661407, -0.1499260812997818, 0.06646177172660828, 0.13004250824451447},
{ -0.36621764302253723, -0.17554306983947754, -0.11736461520195007, -0.2171553671360016, -0.2695583701133728}},
{{ -0.1425584852695465, -0.05513427406549454, 0.18562725186347961, 0.18199583888053894, 0.04588520899415016},
{ -0.08547260612249374, 0.05805187672376633, 0.03417915478348732, 0.02105957642197609, -0.06502476334571838},
{ 0.04001667723059654, -0.003595164278522134, -0.11081773787736893, -0.01841479353606701, 0.1643473505973816},
{ 0.035070523619651794, 0.10569719970226288, 0.05354056507349014, 0.18281130492687225, -0.015855776146054268},
{ -0.2686205208301544, -0.25551047921180725, -0.25694429874420166, -0.25710850954055786, -0.2798546552658081}},
{{ -0.04517648369073868, 0.029265496879816055, -0.006091199349611998, -0.07283379137516022, 0.12257587909698486},
{ 0.08350205421447754, 0.06165555864572525, -0.040291354060173035, -0.14316467940807343, -0.17126645147800446},
{ -0.022929640486836433, -0.268129825592041, -0.15048135817050934, -0.33897218108177185, -0.04360714182257652},
{ -0.0884709432721138, 0.03914745897054672, -0.05163581669330597, -0.007532081566751003, 0.07438158988952637},
{ 0.11938530951738358, 0.04119584709405899, -0.09446226060390472, -0.281164288520813, -0.008947127498686314}},
{{ -0.14696548879146576, -0.021299289539456367, 0.024589652195572853, -0.08950329571962357, -0.06086092069745064},
{ -0.27938568592071533, -0.15095371007919312, 0.028650756925344467, -0.05533038079738617, 0.09230126440525055},
{ -0.14501942694187164, -0.18842896819114685, 0.0966944694519043, 0.17997469007968903, 0.16612665355205536},
{ -0.3070121109485626, -0.5530142784118652, -0.4228152930736542, -0.2625294327735901, -0.45826461911201477},
{ -0.052617959678173065, 0.0875014215707779, -0.028957916423678398, 0.2771306335926056, 0.20500530302524567}},
{{ 0, 0, 0, 0, 0},
{ 0, 0, 0, 0, 0},
{ 0, 0, 0, 0, 0},
{ 0, 0, 0, 0, 0},
{ 0, 0, 0, 0, 0}},
{{ 0, 0, 0, 0, 0},
{ 0, 0, 0, 0, 0},
{ 0, 0, 0, 0, 0},
{ 0, 0, 0, 0, 0},
{ 0, 0, 0, 0, 0}},
{{ 0, 0, 0, 0, 0},
{ 0, 0, 0, 0, 0},
{ 0, 0, 0, 0, 0},
{ 0, 0, 0, 0, 0},
{ 0, 0, 0, 0, 0}},
{{ 0, 0, 0, 0, 0},
{ 0, 0, 0, 0, 0},
{ 0, 0, 0, 0, 0},
{ 0, 0, 0, 0, 0},
{ 0, 0, 0, 0, 0}},
{{ 0, 0, 0, 0, 0},
{ 0, 0, 0, 0, 0},
{ 0, 0, 0, 0, 0},
{ 0, 0, 0, 0, 0},
{ 0, 0, 0, 0, 0}},
{{ 0, 0, 0, 0, 0},
{ 0, 0, 0, 0, 0},
{ 0, 0, 0, 0, 0},
{ 0, 0, 0, 0, 0},
{ 0, 0, 0, 0, 0}},
{{ 0, 0, 0, 0, 0},
{ 0, 0, 0, 0, 0},
{ 0, 0, 0, 0, 0},
{ 0, 0, 0, 0, 0},
{ 0, 0, 0, 0, 0}},
{{ 0, 0, 0, 0, 0},
{ 0, 0, 0, 0, 0},
{ 0, 0, 0, 0, 0},
{ 0, 0, 0, 0, 0},
{ 0, 0, 0, 0, 0}},
{{ 0, 0, 0, 0, 0},
{ 0, 0, 0, 0, 0},
{ 0, 0, 0, 0, 0},
{ 0, 0, 0, 0, 0},
{ 0, 0, 0, 0, 0}},
{{ 0, 0, 0, 0, 0},
{ 0, 0, 0, 0, 0},
{ 0, 0, 0, 0, 0},
{ 0, 0, 0, 0, 0},
{ 0, 0, 0, 0, 0}}},
{{{ -0.14877647161483765, -0.12417904287576675, 0.06056751310825348, -0.03210831806063652, 0.017775308340787888},
{ -0.21515780687332153, 0.05913912504911423, 0.060993656516075134, -0.04560202360153198, -0.046146828681230545},
{ -0.4257603585720062, 0.04376288130879402, 0.03428034484386444, 0.014318871311843395, 8.03901712060906e-05},
{ 0.01607697829604149, 0.06609196960926056, 0.19676871597766876, 0.10467119514942169, -0.045170191675424576},
{ -0.10307956486940384, -0.06406272202730179, 0.15221428871154785, -0.018932033330202103, -0.15929590165615082}},
{{ -0.0627390667796135, 0.17089533805847168, 0.19966018199920654, -0.00638952711597085, -0.08597700297832489},
{ -0.27600792050361633, 0.07682622969150543, 0.08034342527389526, 0.018865743651986122, -0.15040843188762665},
{ -0.2667408585548401, 0.06173904985189438, 0.15535497665405273, -0.014430686831474304, -0.1605006903409958},
{ -0.23778215050697327, 0.06942112743854523, 0.11939044296741486, 0.02562331221997738, -0.12093896418809891},
{ -0.03307414427399635, 0.29805710911750793, 0.08628708124160767, 0.07269082218408585, 0.12940718233585358}},
{{ -0.5970238447189331, -0.15484412014484406, 0.08998547494411469, 0.20729787647724152, -0.009607869200408459},
{ -0.5516810417175293, -0.042790256440639496, 0.22503893077373505, 0.20924964547157288, -0.14271336793899536},
{ -0.41331204771995544, 0.01901443488895893, 0.2880743145942688, 0.0985364243388176, -0.218049094080925},
{ -0.09708671271800995, 0.024517834186553955, 0.07541003823280334, -0.04243948683142662, 0.15957826375961304},
{ -0.09799983352422714, -0.0021600895561277866, 0.14122796058654785, -0.026340896263718605, -0.08876769244670868}},
{{ 0.06391274929046631, 0.07568886876106262, -0.0063251592218875885, -0.12345688045024872, -0.330327570438385},
{ 0.03513618931174278, 0.04293961822986603, -0.017127886414527893, -0.05389810726046562, -0.5603657364845276},
{ 0.02388531155884266, 0.18510007858276367, 0.15465028584003448, -0.06937219202518463, -0.20832988619804382},
{ 0.08237317949533463, 0.17096492648124695, 0.0026375383604317904, -0.45043709874153137, -0.06340400129556656},
{ 0.08074513077735901, 0.005472398828715086, -0.08180302381515503, -0.04647716134786606, -0.09199878573417664}},
{{ -0.42838793992996216, -0.4088180959224701, -0.053372595459222794, 0.1427246332168579, -0.07847452163696289},
{ -0.22067196667194366, -0.5858598351478577, -0.00879925861954689, 0.23692180216312408, 0.07288577407598495},
{ -0.04211248829960823, -0.08908634632825851, 0.10655701160430908, 0.24366433918476105, 0.028100330382585526},
{ -0.15349555015563965, -0.13423407077789307, 0.06706040352582932, 0.11279244720935822, -0.06793753057718277},
{ -0.1568058729171753, -0.2582884728908539, -0.09812777489423752, -0.17760069668293, 0.04016159847378731}},
{{ 0.04254268482327461, -0.048522692173719406, 0.09231836348772049, 0.01992410607635975, -0.21116864681243896},
{ -0.10493195801973343, 3.487442882033065e-05, -0.0972963497042656, -0.1615407019853592, -0.02675410732626915},
{ -0.106597401201725, -0.17800948023796082, -0.08880655467510223, -0.4026336669921875, -0.09020239114761353},
{ -0.15473182499408722, -0.20864377915859222, -0.41995519399642944, -0.14108915627002716, 0.07862535864114761},
{ 0.01014617644250393, 0.028110358864068985, -0.15410880744457245, 0.12679849565029144, 0.19871088862419128}},
{{ 0, 0, 0, 0, 0},
{ 0, 0, 0, 0, 0},
{ 0, 0, 0, 0, 0},
{ 0, 0, 0, 0, 0},
{ 0, 0, 0, 0, 0}},
{{ 0, 0, 0, 0, 0},
{ 0, 0, 0, 0, 0},
{ 0, 0, 0, 0, 0},
{ 0, 0, 0, 0, 0},
{ 0, 0, 0, 0, 0}},
{{ 0, 0, 0, 0, 0},
{ 0, 0, 0, 0, 0},
{ 0, 0, 0, 0, 0},
{ 0, 0, 0, 0, 0},
{ 0, 0, 0, 0, 0}},
{{ 0, 0, 0, 0, 0},
{ 0, 0, 0, 0, 0},
{ 0, 0, 0, 0, 0},
{ 0, 0, 0, 0, 0},
{ 0, 0, 0, 0, 0}},
{{ 0, 0, 0, 0, 0},
{ 0, 0, 0, 0, 0},
{ 0, 0, 0, 0, 0},
{ 0, 0, 0, 0, 0},
{ 0, 0, 0, 0, 0}},
{{ 0, 0, 0, 0, 0},
{ 0, 0, 0, 0, 0},
{ 0, 0, 0, 0, 0},
{ 0, 0, 0, 0, 0},
{ 0, 0, 0, 0, 0}},
{{ 0, 0, 0, 0, 0},
{ 0, 0, 0, 0, 0},
{ 0, 0, 0, 0, 0},
{ 0, 0, 0, 0, 0},
{ 0, 0, 0, 0, 0}},
{{ 0, 0, 0, 0, 0},
{ 0, 0, 0, 0, 0},
{ 0, 0, 0, 0, 0},
{ 0, 0, 0, 0, 0},
{ 0, 0, 0, 0, 0}},
{{ 0, 0, 0, 0, 0},
{ 0, 0, 0, 0, 0},
{ 0, 0, 0, 0, 0},
{ 0, 0, 0, 0, 0},
{ 0, 0, 0, 0, 0}},
{{ 0, 0, 0, 0, 0},
{ 0, 0, 0, 0, 0},
{ 0, 0, 0, 0, 0},
{ 0, 0, 0, 0, 0},
{ 0, 0, 0, 0, 0}}},
{{{ 0.34830573201179504, 0.1028842106461525, 0.0002862122200895101, -0.054912347346544266, -0.0469655878841877},
{ -0.16128045320510864, -0.17192821204662323, -0.07496394217014313, -0.24775703251361847, 0.0999830961227417},
{ -0.06751256436109543, -0.12810426950454712, -0.1773504614830017, -0.06492985785007477, -0.10644400864839554},
{ -0.10393376648426056, 0.04527147486805916, 0.11788715422153473, 0.16835609078407288, -0.036873869597911835},
{ 0.09798157215118408, 0.00875314511358738, 0.08090244233608246, 0.26875174045562744, 0.0905650183558464}},
{{ 0.10757763683795929, -0.15052594244480133, -0.14588363468647003, 0.08212992548942566, 0.044804077595472336},
{ -0.014208538457751274, 0.05900207534432411, 0.000950391695369035, -0.2196444720029831, -0.022288180887699127},
{ 0.046333447098731995, 0.027339419350028038, -0.0706830695271492, -0.07708758115768433, -0.09702534973621368},
{ 0.013073014095425606, 0.07237778604030609, 0.3091075122356415, 0.16477763652801514, 0.05534275248646736},
{ 0.38740620017051697, 0.36173275113105774, 0.2765699625015259, 0.190154030919075, 0.08061578869819641}},
{{ -0.04310256242752075, -0.1728447675704956, -0.5107664465904236, -0.08721096813678741, 0.011190643534064293},
{ -0.3138112723827362, -0.33687034249305725, 0.2529119551181793, 0.24425244331359863, 0.14074869453907013},
{ -0.08308938145637512, -0.0044815256260335445, 0.3165454864501953, 0.3112025856971741, -0.007688675541430712},
{ -0.06321881711483002, -0.015588191337883472, 0.02980918064713478, -0.07629507780075073, 0.10794001072645187},
{ -0.25745972990989685, -0.0012689725263044238, 0.03784070536494255, 0.06902771443128586, -0.19559569656848907}},
{{ -0.06225556880235672, -0.21354693174362183, -0.271605908870697, -0.04042178764939308, -0.09866559505462646},
{ -0.16945001482963562, -0.2078000158071518, 0.2464003711938858, 0.2507384419441223, 0.02366887591779232},
{ 0.13761654496192932, 0.00742493337020278, 0.1765192747116089, 0.057718951255083084, -0.18521292507648468},
{ 0.05165360867977142, -0.0243635606020689, 0.020052962005138397, -0.2760058045387268, -0.0748811662197113},
{ 0.03348608314990997, -0.08704453706741333, -0.1914869099855423, -0.4689888656139374, -0.47766584157943726}},
{{ -0.204924538731575, -0.057948533445596695, -0.33329206705093384, -0.4473048448562622, -0.2621903717517853},
{ -0.49431073665618896, -0.15163034200668335, -0.701724648475647, -0.34901800751686096, -0.09654306620359421},
{ -0.23674824833869934, -0.46075624227523804, -0.07620032131671906, -0.20329684019088745, -0.12507116794586182},
{ -0.13125087320804596, -0.24550530314445496, -0.24582944810390472, -0.12492623925209045, -0.14161783456802368},
{ 0.01878438889980316, -0.5015166997909546, -0.3511926233768463, -0.12421818822622299, 0.05558706820011139}},
{{ -0.3504231870174408, -0.18214845657348633, -0.013153518550097942, -0.012213826179504395, 0.04026896506547928},
{ 0.1331169158220291, 0.08886189013719559, 0.30394691228866577, 0.09345172345638275, -0.05463455244898796},
{ -0.023143377155065536, 0.1382482349872589, 0.14834070205688477, -0.20604467391967773, -0.12328509241342545},
{ -0.032567285001277924, -0.07894699275493622, -0.2190585881471634, -0.293560266494751, 0.040914155542850494},
{ 0.03260625898838043, -0.0441216416656971, -0.19720244407653809, -0.17472583055496216, 0.02114037051796913}},
{{ 0, 0, 0, 0, 0},
{ 0, 0, 0, 0, 0},
{ 0, 0, 0, 0, 0},
{ 0, 0, 0, 0, 0},
{ 0, 0, 0, 0, 0}},
{{ 0, 0, 0, 0, 0},
{ 0, 0, 0, 0, 0},
{ 0, 0, 0, 0, 0},
{ 0, 0, 0, 0, 0},
{ 0, 0, 0, 0, 0}},
{{ 0, 0, 0, 0, 0},
{ 0, 0, 0, 0, 0},
{ 0, 0, 0, 0, 0},
{ 0, 0, 0, 0, 0},
{ 0, 0, 0, 0, 0}},
{{ 0, 0, 0, 0, 0},
{ 0, 0, 0, 0, 0},
{ 0, 0, 0, 0, 0},
{ 0, 0, 0, 0, 0},
{ 0, 0, 0, 0, 0}},
{{ 0, 0, 0, 0, 0},
{ 0, 0, 0, 0, 0},
{ 0, 0, 0, 0, 0},
{ 0, 0, 0, 0, 0},
{ 0, 0, 0, 0, 0}},
{{ 0, 0, 0, 0, 0},
{ 0, 0, 0, 0, 0},
{ 0, 0, 0, 0, 0},
{ 0, 0, 0, 0, 0},
{ 0, 0, 0, 0, 0}},
{{ 0, 0, 0, 0, 0},
{ 0, 0, 0, 0, 0},
{ 0, 0, 0, 0, 0},
{ 0, 0, 0, 0, 0},
{ 0, 0, 0, 0, 0}},
{{ 0, 0, 0, 0, 0},
{ 0, 0, 0, 0, 0},
{ 0, 0, 0, 0, 0},
{ 0, 0, 0, 0, 0},
{ 0, 0, 0, 0, 0}},
{{ 0, 0, 0, 0, 0},
{ 0, 0, 0, 0, 0},
{ 0, 0, 0, 0, 0},
{ 0, 0, 0, 0, 0},
{ 0, 0, 0, 0, 0}},
{{ 0, 0, 0, 0, 0},
{ 0, 0, 0, 0, 0},
{ 0, 0, 0, 0, 0},
{ 0, 0, 0, 0, 0},
{ 0, 0, 0, 0, 0}}},
{{{ 0.013752303086221218, 0.036334265023469925, 0.08239422738552094, 0.10356462746858597, 0.08695705235004425},
{ 0.11565184593200684, 0.07992492616176605, 0.01994842104613781, 0.012996279634535313, 0.0917886421084404},
{ 0.21696849167346954, 0.22680842876434326, -0.1284257173538208, -0.051809363067150116, 0.04983031004667282},
{ 0.07067073881626129, -0.13253507018089294, -0.363130658864975, -0.03236440569162369, 0.0472378209233284},
{ -0.4150184392929077, -0.3160983622074127, -0.1603371500968933, 0.12908624112606049, 0.14116032421588898}},
{{ 0.041015706956386566, 0.0983913391828537, 0.100852832198143, 0.20273099839687347, 0.16697604954242706},
{ 0.02590598165988922, 0.03508424386382103, -0.11902996152639389, 0.08335696905851364, 0.2030133605003357},
{ 0.19869717955589294, 0.011401010677218437, -0.44719651341438293, -0.2476998269557953, -0.024541324004530907},
{ -0.47697895765304565, -0.17233605682849884, -0.40176790952682495, -0.1970239132642746, 0.004161865450441837},
{ -0.1918986737728119, 0.07743269950151443, -0.20298908650875092, -0.08162876218557358, -0.05327900871634483}},
{{ 0.16264517605304718, 0.08078058063983917, -0.007452755700796843, -0.31829339265823364, -0.08336421102285385},
{ -0.12460017204284668, 0.019224703311920166, -0.11226655542850494, -0.36328813433647156, -0.06550035625696182},
{ 0.013913992792367935, 0.04216957837343216, -0.41796600818634033, -0.22521698474884033, 0.1657760739326477},
{ -0.1484234780073166, -0.2691844701766968, -0.3783799707889557, 0.16106759011745453, 0.21509282290935516},
{ -0.535230815410614, -0.22553227841854095, 0.14336739480495453, 0.1335587054491043, 0.16997259855270386}},
{{ 0.11600631475448608, 0.01692512258887291, -0.046951983124017715, -0.18891118466854095, -0.12854979932308197},
{ -0.058703843504190445, -0.0006566857337020338, -0.017968162894248962, -0.017211198806762695, -0.03150731697678566},
{ -0.06692523509263992, -0.016427477821707726, -0.4000649154186249, -0.003392841899767518, 0.0804850235581398},
{ -0.29150402545928955, -0.5947767496109009, -0.029276058077812195, 0.15062357485294342, 0.27066051959991455},
{ -0.24498477578163147, 0.1503814309835434, -0.00762352766469121, 0.1461024284362793, 0.22278720140457153}},
{{ -0.005389586556702852, -0.01759379543364048, -0.5356327891349792, -0.6376468539237976, 0.19846098124980927},
{ -0.20101898908615112, -0.09683506935834885, -0.40292879939079285, -0.6616899371147156, 0.2808639705181122},
{ -0.21060983836650848, -0.10034746676683426, -0.0800882875919342, -0.31687650084495544, 0.14053432643413544},
{ -0.2901385426521301, -0.23591558635234833, -0.10498759150505066, -0.3443247675895691, 0.1798306703567505},
{ -0.28456026315689087, -0.13682371377944946, 0.017959071323275566, 0.00697339978069067, 0.10636290907859802}},
{{ 0.04296061396598816, 0.09482546150684357, 0.04972146451473236, 0.12669000029563904, 0.15212775766849518},
{ -0.002633200027048588, 0.07125607132911682, -0.05253506079316139, -0.35697364807128906, -0.29834410548210144},
{ -0.1568896770477295, -0.5028262734413147, -0.32432207465171814, -0.29017168283462524, -0.43839311599731445},
{ -0.04441080614924431, 0.02092735283076763, 0.018068348988890648, 0.05914883688092232, 0.007033590227365494},
{ 0.05484667420387268, 0.1562000811100006, 0.07163935154676437, 0.0596352219581604, -0.014839297160506248}},
{{ 0, 0, 0, 0, 0},
{ 0, 0, 0, 0, 0},
{ 0, 0, 0, 0, 0},
{ 0, 0, 0, 0, 0},
{ 0, 0, 0, 0, 0}},
{{ 0, 0, 0, 0, 0},
{ 0, 0, 0, 0, 0},
{ 0, 0, 0, 0, 0},
{ 0, 0, 0, 0, 0},
{ 0, 0, 0, 0, 0}},
{{ 0, 0, 0, 0, 0},
{ 0, 0, 0, 0, 0},
{ 0, 0, 0, 0, 0},
{ 0, 0, 0, 0, 0},
{ 0, 0, 0, 0, 0}},
{{ 0, 0, 0, 0, 0},
{ 0, 0, 0, 0, 0},
{ 0, 0, 0, 0, 0},
{ 0, 0, 0, 0, 0},
{ 0, 0, 0, 0, 0}},
{{ 0, 0, 0, 0, 0},
{ 0, 0, 0, 0, 0},
{ 0, 0, 0, 0, 0},
{ 0, 0, 0, 0, 0},
{ 0, 0, 0, 0, 0}},
{{ 0, 0, 0, 0, 0},
{ 0, 0, 0, 0, 0},
{ 0, 0, 0, 0, 0},
{ 0, 0, 0, 0, 0},
{ 0, 0, 0, 0, 0}},
{{ 0, 0, 0, 0, 0},
{ 0, 0, 0, 0, 0},
{ 0, 0, 0, 0, 0},
{ 0, 0, 0, 0, 0},
{ 0, 0, 0, 0, 0}},
{{ 0, 0, 0, 0, 0},
{ 0, 0, 0, 0, 0},
{ 0, 0, 0, 0, 0},
{ 0, 0, 0, 0, 0},
{ 0, 0, 0, 0, 0}},
{{ 0, 0, 0, 0, 0},
{ 0, 0, 0, 0, 0},
{ 0, 0, 0, 0, 0},
{ 0, 0, 0, 0, 0},
{ 0, 0, 0, 0, 0}},
{{ 0, 0, 0, 0, 0},
{ 0, 0, 0, 0, 0},
{ 0, 0, 0, 0, 0},
{ 0, 0, 0, 0, 0},
{ 0, 0, 0, 0, 0}}},
{{{ -0.0150898527354002, -0.03984038159251213, -0.14762502908706665, -0.08236528187990189, -0.0509352870285511},
{ -0.040533289313316345, -0.028951065614819527, -0.13273504376411438, -0.12063318490982056, -0.1282970905303955},
{ 0.08742937445640564, 0.10253585129976273, 0.09861338883638382, -0.06833954900503159, -0.0725279301404953},
{ -0.08110105246305466, 0.14301197230815887, 0.3936755061149597, 0.21502065658569336, -0.0567861832678318},
{ -0.03143949434161186, -0.2227177917957306, 0.2202700674533844, 0.2640721797943115, 0.2118159532546997}},
{{ 0.07902104407548904, -0.03778611496090889, 0.10962466895580292, 0.027677051723003387, 0.0028622231911867857},
{ 0.056536853313446045, -0.05910347029566765, 0.06248701363801956, 0.0701485276222229, 0.15141332149505615},
{ -0.22214482724666595, 0.07620656490325928, 0.26123106479644775, 0.08037927001714706, -0.06174271181225777},
{ -0.16785423457622528, -0.11402822285890579, 0.39120936393737793, 0.28390997648239136, 0.022328998893499374},
{ -0.18122093379497528, -0.28110259771347046, -0.019952360540628433, 0.31935128569602966, 0.2005726844072342}},
{{ 0.23614706099033356, 0.06733906269073486, 0.07827578485012054, 0.21751698851585388, -0.07644829899072647},
{ -0.19602134823799133, 0.045124176889657974, 0.2301236093044281, 0.21144868433475494, -0.14019526541233063},
{ -0.16286645829677582, -0.21010664105415344, 0.15068699419498444, 0.10152968019247055, 0.13347436487674713},
{ -0.28818202018737793, -0.5911067128181458, -0.6175599694252014, -0.07526461035013199, 0.1425221562385559},
{ -0.1742141842842102, -0.3737971782684326, -0.29006215929985046, -0.10042751580476761, 0.04401338845491409}},
{{ 0.07763208448886871, -0.05058540403842926, -0.09254539012908936, 0.12057656794786453, -0.038408905267715454},
{ -0.13114549219608307, -0.02122783288359642, 0.13160128891468048, -0.047943755984306335, -0.03839680179953575},
{ -0.10190758109092712, 0.027581848204135895, -0.015988951548933983, -0.07760318368673325, -0.08668385446071625},
{ -0.053847283124923706, 0.1502406746149063, -0.008335219696164131, -0.17601066827774048, 0.023829132318496704},
{ -0.24119357764720917, -0.022063251584768295, 0.05321268364787102, -0.2522261440753937, -0.3786947727203369}},
{{ -0.11729919910430908, 0.18365894258022308, -0.14275504648685455, -0.08004231750965118, 0.005337339360266924},
{ -0.06264227628707886, 0.04003242403268814, 0.12268511205911636, -0.09838034957647324, -0.17171230912208557},
{ -0.019553184509277344, -0.2105419933795929, -0.001173835014924407, 0.009929316118359566, -0.21951061487197876},
{ 0.19256030023097992, -0.19975097477436066, -0.572145938873291, -0.35673999786376953, -0.3114490509033203},
{ 0.06108251214027405, -0.04333172366023064, -0.5544383525848389, -0.31587082147598267, -0.26083409786224365}},
{{ -0.024989819154143333, -0.07212822884321213, 0.004703128710389137, 0.14101891219615936, 0.06800676137208939},
{ -0.08554763346910477, 0.05298909172415733, -0.048553790897130966, -0.1734606772661209, 0.07016558945178986},
{ -0.20426581799983978, -0.13433921337127686, -0.14477409422397614, 0.004927735310047865, -0.03668012097477913},
{ -0.5234985947608948, -0.5500566959381104, -0.23371998965740204, 0.1238492876291275, 0.12063935399055481},
{ 0.10273340344429016, 0.07642858475446701, -0.16353346407413483, -0.5010398030281067, -0.13202929496765137}},
{{ 0, 0, 0, 0, 0},
{ 0, 0, 0, 0, 0},
{ 0, 0, 0, 0, 0},
{ 0, 0, 0, 0, 0},
{ 0, 0, 0, 0, 0}},
{{ 0, 0, 0, 0, 0},
{ 0, 0, 0, 0, 0},
{ 0, 0, 0, 0, 0},
{ 0, 0, 0, 0, 0},
{ 0, 0, 0, 0, 0}},
{{ 0, 0, 0, 0, 0},
{ 0, 0, 0, 0, 0},
{ 0, 0, 0, 0, 0},
{ 0, 0, 0, 0, 0},
{ 0, 0, 0, 0, 0}},
{{ 0, 0, 0, 0, 0},
{ 0, 0, 0, 0, 0},
{ 0, 0, 0, 0, 0},
{ 0, 0, 0, 0, 0},
{ 0, 0, 0, 0, 0}},
{{ 0, 0, 0, 0, 0},
{ 0, 0, 0, 0, 0},
{ 0, 0, 0, 0, 0},
{ 0, 0, 0, 0, 0},
{ 0, 0, 0, 0, 0}},
{{ 0, 0, 0, 0, 0},
{ 0, 0, 0, 0, 0},
{ 0, 0, 0, 0, 0},
{ 0, 0, 0, 0, 0},
{ 0, 0, 0, 0, 0}},
{{ 0, 0, 0, 0, 0},
{ 0, 0, 0, 0, 0},
{ 0, 0, 0, 0, 0},
{ 0, 0, 0, 0, 0},
{ 0, 0, 0, 0, 0}},
{{ 0, 0, 0, 0, 0},
{ 0, 0, 0, 0, 0},
{ 0, 0, 0, 0, 0},
{ 0, 0, 0, 0, 0},
{ 0, 0, 0, 0, 0}},
{{ 0, 0, 0, 0, 0},
{ 0, 0, 0, 0, 0},
{ 0, 0, 0, 0, 0},
{ 0, 0, 0, 0, 0},
{ 0, 0, 0, 0, 0}},
{{ 0, 0, 0, 0, 0},
{ 0, 0, 0, 0, 0},
{ 0, 0, 0, 0, 0},
{ 0, 0, 0, 0, 0},
{ 0, 0, 0, 0, 0}}},
{{{ -0.3619934320449829, -0.4294290542602539, -0.3948397934436798, -0.5052469372749329, -0.48485085368156433},
{ -0.000411409477237612, -0.008468691259622574, -0.2037861943244934, -0.048998937010765076, 0.028987953439354897},
{ 0.23704448342323303, 0.1911715716123581, 0.23598793148994446, 0.2255081683397293, 0.11823911219835281},
{ 0.05328468605875969, 0.12663105130195618, 0.1423301249742508, -0.0383739247918129, -0.1951730102300644},
{ -0.06507670134305954, -0.2668399512767792, -0.350565105676651, -0.217767596244812, -0.055491771548986435}},
{{ -0.11552602797746658, -0.2525571882724762, -0.18855899572372437, -0.13834424316883087, -0.11451606452465057},
{ 0.20034141838550568, 0.05855526402592659, 0.10030998289585114, 0.16083353757858276, 0.19266940653324127},
{ 0.07546794414520264, 0.0981907770037651, 0.08747176826000214, 0.043128788471221924, 0.027067430317401886},
{ -0.1521821767091751, -0.4236149191856384, -0.45120516419410706, -0.18524733185768127, -0.07236111164093018},
{ 0.08387954533100128, -0.02347869798541069, -0.010596005246043205, 0.01899956911802292, -0.09646682441234589}},
{{ 0.17038175463676453, 0.025977961719036102, -0.010805601254105568, 0.06829080730676651, -0.07704119384288788},
{ -0.00962617713958025, -0.1473131775856018, 0.05182253569364548, -0.025914182886481285, 0.002745378762483597},
{ 0.014092245139181614, 0.06458836048841476, 0.06913446635007858, 0.10130533576011658, 0.12664906680583954},
{ 0.022532597184181213, 0.04335394874215126, -0.12729480862617493, -0.20177677273750305, -0.15504240989685059},
{ -0.050801072269678116, -0.1728653758764267, -0.043622326105833054, 0.05733251944184303, 0.143955260515213}},
{{ 0.1395149827003479, -0.012520761229097843, 0.07409218698740005, -0.014505922794342041, -0.1737103909254074},
{ -0.023503044620156288, -0.0053200493566691875, 0.011737613938748837, 0.02997365966439247, 0.1913420408964157},
{ 0.07514830678701401, 0.0836726650595665, 0.1375957429409027, 0.10484088212251663, 0.06494516879320145},
{ 0.011971190571784973, -0.05419154837727547, -0.1111263558268547, -0.16108958423137665, -0.17520716786384583},
{ -0.23062531650066376, -0.30020785331726074, -0.031293027102947235, 0.008506369777023792, 0.09260222315788269}},
{{ 0.19997918605804443, 0.32725077867507935, 0.09492179751396179, 0.07555390149354935, -0.03221804276108742},
{ -0.2963571846485138, -0.1369217187166214, -0.1493341475725174, -0.08238179981708527, 0.008739552460610867},
{ -0.43090522289276123, -0.24334459006786346, -0.2763679325580597, -0.18011531233787537, 0.04517462104558945},
{ -0.11397247761487961, -0.04785793647170067, -0.17131702601909637, -0.2888278365135193, -0.04577238857746124},
{ 0.04085994139313698, 0.20392104983329773, -0.03682472184300423, 0.12523765861988068, 0.048649098724126816}},
{{ 0.05060436949133873, -0.17310723662376404, -0.042151421308517456, 0.02387234754860401, 0.14983990788459778},
{ 0.09169843047857285, 0.05081859976053238, 0.13632147014141083, 0.04589160904288292, 0.09209958463907242},
{ -0.2372751384973526, -0.15324872732162476, -0.23218649625778198, -0.25973623991012573, -0.39527595043182373},
{ 0.01627451553940773, -0.10611853003501892, -0.30697932839393616, -0.2409951239824295, -0.15449251234531403},
{ 0.05654866620898247, 0.22504468262195587, 0.246164932847023, 0.14160998165607452, 0.07524695247411728}},
{{ 0, 0, 0, 0, 0},
{ 0, 0, 0, 0, 0},
{ 0, 0, 0, 0, 0},
{ 0, 0, 0, 0, 0},
{ 0, 0, 0, 0, 0}},
{{ 0, 0, 0, 0, 0},
{ 0, 0, 0, 0, 0},
{ 0, 0, 0, 0, 0},
{ 0, 0, 0, 0, 0},
{ 0, 0, 0, 0, 0}},
{{ 0, 0, 0, 0, 0},
{ 0, 0, 0, 0, 0},
{ 0, 0, 0, 0, 0},
{ 0, 0, 0, 0, 0},
{ 0, 0, 0, 0, 0}},
{{ 0, 0, 0, 0, 0},
{ 0, 0, 0, 0, 0},
{ 0, 0, 0, 0, 0},
{ 0, 0, 0, 0, 0},
{ 0, 0, 0, 0, 0}},
{{ 0, 0, 0, 0, 0},
{ 0, 0, 0, 0, 0},
{ 0, 0, 0, 0, 0},
{ 0, 0, 0, 0, 0},
{ 0, 0, 0, 0, 0}},
{{ 0, 0, 0, 0, 0},
{ 0, 0, 0, 0, 0},
{ 0, 0, 0, 0, 0},
{ 0, 0, 0, 0, 0},
{ 0, 0, 0, 0, 0}},
{{ 0, 0, 0, 0, 0},
{ 0, 0, 0, 0, 0},
{ 0, 0, 0, 0, 0},
{ 0, 0, 0, 0, 0},
{ 0, 0, 0, 0, 0}},
{{ 0, 0, 0, 0, 0},
{ 0, 0, 0, 0, 0},
{ 0, 0, 0, 0, 0},
{ 0, 0, 0, 0, 0},
{ 0, 0, 0, 0, 0}},
{{ 0, 0, 0, 0, 0},
{ 0, 0, 0, 0, 0},
{ 0, 0, 0, 0, 0},
{ 0, 0, 0, 0, 0},
{ 0, 0, 0, 0, 0}},
{{ 0, 0, 0, 0, 0},
{ 0, 0, 0, 0, 0},
{ 0, 0, 0, 0, 0},
{ 0, 0, 0, 0, 0},
{ 0, 0, 0, 0, 0}}},
{{{ -0.21502718329429626, -0.31426742672920227, -0.10029350221157074, 0.3298332393169403, 0.3893766701221466},
{ -0.07725945860147476, -0.237460657954216, -0.7634532451629639, -0.4098590016365051, 0.051880791783332825},
{ -0.008432569913566113, 0.21373037993907928, 0.04202071577310562, -0.0936063677072525, -0.4292909502983093},
{ -0.12276173382997513, 0.052052829414606094, 0.10446933656930923, 0.20541201531887054, 0.18110248446464539},
{ 0.10616812109947205, 0.06778719276189804, 0.10849521309137344, 0.07297481596469879, 0.09354919195175171}},
{{ -0.3146335780620575, -0.6876017451286316, -0.6373305320739746, -0.013687853701412678, 0.2085864394903183},
{ 0.16199365258216858, 0.17704325914382935, 0.13267149031162262, -0.3521174192428589, -0.45944201946258545},
{ 0.0640716627240181, 0.1782558262348175, 0.11880895495414734, 0.25926730036735535, -0.023261941969394684},
{ 0.005239279009401798, 0.14802797138690948, 0.10267823189496994, 0.19116906821727753, 0.2140037715435028},
{ 0.12057845294475555, 0.22021746635437012, 0.183791384100914, 0.1052401214838028, 0.10576926171779633}},
{{ -0.1573609560728073, -0.5348101854324341, -0.39295080304145813, -0.21384641528129578, 0.17399339377880096},
{ -0.42464393377304077, -0.2200443595647812, -0.23371005058288574, -0.32655781507492065, -0.20834536850452423},
{ -0.08691705018281937, -0.020250853151082993, -0.022108707576990128, -0.24884910881519318, -0.009524570778012276},
{ -0.1782180368900299, -0.03913361206650734, 0.011884039267897606, -0.08712603151798248, 0.009636272676289082},
{ 0.06780385971069336, 0.06263773888349533, -0.02854781411588192, -0.04139553755521774, 0.02357882261276245}},
{{ -0.6305896639823914, -0.515042245388031, -0.07148458808660507, 0.2747727930545807, 0.35741302371025085},
{ -0.29895931482315063, -0.2850506603717804, -0.3023902475833893, -0.24274446070194244, -0.11570481210947037},
{ 0.10797042399644852, -0.11480355262756348, -0.3320144712924957, -0.24833574891090393, -0.21062196791172028},
{ -0.047309305518865585, 0.017417924478650093, 0.0627845898270607, 0.029027149081230164, -0.04567930847406387},
{ 0.044651299715042114, 0.044007617980241776, 0.010884005576372147, -0.0016892076237127185, -0.14348755776882172}},
{{ -0.11557875573635101, -0.12626320123672485, -0.15915653109550476, -0.15669478476047516, -0.09555228799581528},
{ -0.18368293344974518, -0.040432315319776535, -0.008082178421318531, -0.09094160795211792, -0.24585217237472534},
{ -0.16986268758773804, 0.13315601646900177, 0.13589583337306976, -0.05136336013674736, 0.05021630972623825},
{ -0.5040761232376099, -0.12312529236078262, 0.1365099847316742, 0.0294467955827713, 0.12270911037921906},
{ -0.21770985424518585, -0.061595965176820755, 0.0627857893705368, 0.0020745208021253347, -0.09891115874052048}},
{{ 0.2223309576511383, 0.13899065554141998, -0.3494301736354828, -0.5593799352645874, -0.29785242676734924},
{ 0.39597010612487793, 0.27655497193336487, 0.12460341304540634, -0.07873709499835968, -0.14466312527656555},
{ -0.02314392663538456, -0.07071719318628311, 0.1866745501756668, 0.24519793689250946, 0.22066469490528107},
{ 0.016714440658688545, -0.018662428483366966, -0.05049282684922218, 0.12375485152006149, 0.2259998768568039},
{ 0.0008021658868528903, -0.08258359879255295, -0.21621835231781006, -0.1368039846420288, -0.07098860293626785}},
{{ 0, 0, 0, 0, 0},
{ 0, 0, 0, 0, 0},
{ 0, 0, 0, 0, 0},
{ 0, 0, 0, 0, 0},
{ 0, 0, 0, 0, 0}},
{{ 0, 0, 0, 0, 0},
{ 0, 0, 0, 0, 0},
{ 0, 0, 0, 0, 0},
{ 0, 0, 0, 0, 0},
{ 0, 0, 0, 0, 0}},
{{ 0, 0, 0, 0, 0},
{ 0, 0, 0, 0, 0},
{ 0, 0, 0, 0, 0},
{ 0, 0, 0, 0, 0},
{ 0, 0, 0, 0, 0}},
{{ 0, 0, 0, 0, 0},
{ 0, 0, 0, 0, 0},
{ 0, 0, 0, 0, 0},
{ 0, 0, 0, 0, 0},
{ 0, 0, 0, 0, 0}},
{{ 0, 0, 0, 0, 0},
{ 0, 0, 0, 0, 0},
{ 0, 0, 0, 0, 0},
{ 0, 0, 0, 0, 0},
{ 0, 0, 0, 0, 0}},
{{ 0, 0, 0, 0, 0},
{ 0, 0, 0, 0, 0},
{ 0, 0, 0, 0, 0},
{ 0, 0, 0, 0, 0},
{ 0, 0, 0, 0, 0}},
{{ 0, 0, 0, 0, 0},
{ 0, 0, 0, 0, 0},
{ 0, 0, 0, 0, 0},
{ 0, 0, 0, 0, 0},
{ 0, 0, 0, 0, 0}},
{{ 0, 0, 0, 0, 0},
{ 0, 0, 0, 0, 0},
{ 0, 0, 0, 0, 0},
{ 0, 0, 0, 0, 0},
{ 0, 0, 0, 0, 0}},
{{ 0, 0, 0, 0, 0},
{ 0, 0, 0, 0, 0},
{ 0, 0, 0, 0, 0},
{ 0, 0, 0, 0, 0},
{ 0, 0, 0, 0, 0}},
{{ 0, 0, 0, 0, 0},
{ 0, 0, 0, 0, 0},
{ 0, 0, 0, 0, 0},
{ 0, 0, 0, 0, 0},
{ 0, 0, 0, 0, 0}}},
{{{ 0, 0, 0, 0, 0},
{ 0, 0, 0, 0, 0},
{ 0, 0, 0, 0, 0},
{ 0, 0, 0, 0, 0},
{ 0, 0, 0, 0, 0}},
{{ 0, 0, 0, 0, 0},
{ 0, 0, 0, 0, 0},
{ 0, 0, 0, 0, 0},
{ 0, 0, 0, 0, 0},
{ 0, 0, 0, 0, 0}},
{{ 0, 0, 0, 0, 0},
{ 0, 0, 0, 0, 0},
{ 0, 0, 0, 0, 0},
{ 0, 0, 0, 0, 0},
{ 0, 0, 0, 0, 0}},
{{ 0, 0, 0, 0, 0},
{ 0, 0, 0, 0, 0},
{ 0, 0, 0, 0, 0},
{ 0, 0, 0, 0, 0},
{ 0, 0, 0, 0, 0}},
{{ 0, 0, 0, 0, 0},
{ 0, 0, 0, 0, 0},
{ 0, 0, 0, 0, 0},
{ 0, 0, 0, 0, 0},
{ 0, 0, 0, 0, 0}},
{{ 0, 0, 0, 0, 0},
{ 0, 0, 0, 0, 0},
{ 0, 0, 0, 0, 0},
{ 0, 0, 0, 0, 0},
{ 0, 0, 0, 0, 0}},
{{ 0, 0, 0, 0, 0},
{ 0, 0, 0, 0, 0},
{ 0, 0, 0, 0, 0},
{ 0, 0, 0, 0, 0},
{ 0, 0, 0, 0, 0}},
{{ 0, 0, 0, 0, 0},
{ 0, 0, 0, 0, 0},
{ 0, 0, 0, 0, 0},
{ 0, 0, 0, 0, 0},
{ 0, 0, 0, 0, 0}},
{{ 0, 0, 0, 0, 0},
{ 0, 0, 0, 0, 0},
{ 0, 0, 0, 0, 0},
{ 0, 0, 0, 0, 0},
{ 0, 0, 0, 0, 0}},
{{ 0, 0, 0, 0, 0},
{ 0, 0, 0, 0, 0},
{ 0, 0, 0, 0, 0},
{ 0, 0, 0, 0, 0},
{ 0, 0, 0, 0, 0}},
{{ 0, 0, 0, 0, 0},
{ 0, 0, 0, 0, 0},
{ 0, 0, 0, 0, 0},
{ 0, 0, 0, 0, 0},
{ 0, 0, 0, 0, 0}},
{{ 0, 0, 0, 0, 0},
{ 0, 0, 0, 0, 0},
{ 0, 0, 0, 0, 0},
{ 0, 0, 0, 0, 0},
{ 0, 0, 0, 0, 0}},
{{ 0, 0, 0, 0, 0},
{ 0, 0, 0, 0, 0},
{ 0, 0, 0, 0, 0},
{ 0, 0, 0, 0, 0},
{ 0, 0, 0, 0, 0}},
{{ 0, 0, 0, 0, 0},
{ 0, 0, 0, 0, 0},
{ 0, 0, 0, 0, 0},
{ 0, 0, 0, 0, 0},
{ 0, 0, 0, 0, 0}},
{{ 0, 0, 0, 0, 0},
{ 0, 0, 0, 0, 0},
{ 0, 0, 0, 0, 0},
{ 0, 0, 0, 0, 0},
{ 0, 0, 0, 0, 0}},
{{ 0, 0, 0, 0, 0},
{ 0, 0, 0, 0, 0},
{ 0, 0, 0, 0, 0},
{ 0, 0, 0, 0, 0},
{ 0, 0, 0, 0, 0}}},
{{{ 0, 0, 0, 0, 0},
{ 0, 0, 0, 0, 0},
{ 0, 0, 0, 0, 0},
{ 0, 0, 0, 0, 0},
{ 0, 0, 0, 0, 0}},
{{ 0, 0, 0, 0, 0},
{ 0, 0, 0, 0, 0},
{ 0, 0, 0, 0, 0},
{ 0, 0, 0, 0, 0},
{ 0, 0, 0, 0, 0}},
{{ 0, 0, 0, 0, 0},
{ 0, 0, 0, 0, 0},
{ 0, 0, 0, 0, 0},
{ 0, 0, 0, 0, 0},
{ 0, 0, 0, 0, 0}},
{{ 0, 0, 0, 0, 0},
{ 0, 0, 0, 0, 0},
{ 0, 0, 0, 0, 0},
{ 0, 0, 0, 0, 0},
{ 0, 0, 0, 0, 0}},
{{ 0, 0, 0, 0, 0},
{ 0, 0, 0, 0, 0},
{ 0, 0, 0, 0, 0},
{ 0, 0, 0, 0, 0},
{ 0, 0, 0, 0, 0}},
{{ 0, 0, 0, 0, 0},
{ 0, 0, 0, 0, 0},
{ 0, 0, 0, 0, 0},
{ 0, 0, 0, 0, 0},
{ 0, 0, 0, 0, 0}},
{{ 0, 0, 0, 0, 0},
{ 0, 0, 0, 0, 0},
{ 0, 0, 0, 0, 0},
{ 0, 0, 0, 0, 0},
{ 0, 0, 0, 0, 0}},
{{ 0, 0, 0, 0, 0},
{ 0, 0, 0, 0, 0},
{ 0, 0, 0, 0, 0},
{ 0, 0, 0, 0, 0},
{ 0, 0, 0, 0, 0}},
{{ 0, 0, 0, 0, 0},
{ 0, 0, 0, 0, 0},
{ 0, 0, 0, 0, 0},
{ 0, 0, 0, 0, 0},
{ 0, 0, 0, 0, 0}},
{{ 0, 0, 0, 0, 0},
{ 0, 0, 0, 0, 0},
{ 0, 0, 0, 0, 0},
{ 0, 0, 0, 0, 0},
{ 0, 0, 0, 0, 0}},
{{ 0, 0, 0, 0, 0},
{ 0, 0, 0, 0, 0},
{ 0, 0, 0, 0, 0},
{ 0, 0, 0, 0, 0},
{ 0, 0, 0, 0, 0}},
{{ 0, 0, 0, 0, 0},
{ 0, 0, 0, 0, 0},
{ 0, 0, 0, 0, 0},
{ 0, 0, 0, 0, 0},
{ 0, 0, 0, 0, 0}},
{{ 0, 0, 0, 0, 0},
{ 0, 0, 0, 0, 0},
{ 0, 0, 0, 0, 0},
{ 0, 0, 0, 0, 0},
{ 0, 0, 0, 0, 0}},
{{ 0, 0, 0, 0, 0},
{ 0, 0, 0, 0, 0},
{ 0, 0, 0, 0, 0},
{ 0, 0, 0, 0, 0},
{ 0, 0, 0, 0, 0}},
{{ 0, 0, 0, 0, 0},
{ 0, 0, 0, 0, 0},
{ 0, 0, 0, 0, 0},
{ 0, 0, 0, 0, 0},
{ 0, 0, 0, 0, 0}},
{{ 0, 0, 0, 0, 0},
{ 0, 0, 0, 0, 0},
{ 0, 0, 0, 0, 0},
{ 0, 0, 0, 0, 0},
{ 0, 0, 0, 0, 0}}},
{{{ 0, 0, 0, 0, 0},
{ 0, 0, 0, 0, 0},
{ 0, 0, 0, 0, 0},
{ 0, 0, 0, 0, 0},
{ 0, 0, 0, 0, 0}},
{{ 0, 0, 0, 0, 0},
{ 0, 0, 0, 0, 0},
{ 0, 0, 0, 0, 0},
{ 0, 0, 0, 0, 0},
{ 0, 0, 0, 0, 0}},
{{ 0, 0, 0, 0, 0},
{ 0, 0, 0, 0, 0},
{ 0, 0, 0, 0, 0},
{ 0, 0, 0, 0, 0},
{ 0, 0, 0, 0, 0}},
{{ 0, 0, 0, 0, 0},
{ 0, 0, 0, 0, 0},
{ 0, 0, 0, 0, 0},
{ 0, 0, 0, 0, 0},
{ 0, 0, 0, 0, 0}},
{{ 0, 0, 0, 0, 0},
{ 0, 0, 0, 0, 0},
{ 0, 0, 0, 0, 0},
{ 0, 0, 0, 0, 0},
{ 0, 0, 0, 0, 0}},
{{ 0, 0, 0, 0, 0},
{ 0, 0, 0, 0, 0},
{ 0, 0, 0, 0, 0},
{ 0, 0, 0, 0, 0},
{ 0, 0, 0, 0, 0}},
{{ 0, 0, 0, 0, 0},
{ 0, 0, 0, 0, 0},
{ 0, 0, 0, 0, 0},
{ 0, 0, 0, 0, 0},
{ 0, 0, 0, 0, 0}},
{{ 0, 0, 0, 0, 0},
{ 0, 0, 0, 0, 0},
{ 0, 0, 0, 0, 0},
{ 0, 0, 0, 0, 0},
{ 0, 0, 0, 0, 0}},
{{ 0, 0, 0, 0, 0},
{ 0, 0, 0, 0, 0},
{ 0, 0, 0, 0, 0},
{ 0, 0, 0, 0, 0},
{ 0, 0, 0, 0, 0}},
{{ 0, 0, 0, 0, 0},
{ 0, 0, 0, 0, 0},
{ 0, 0, 0, 0, 0},
{ 0, 0, 0, 0, 0},
{ 0, 0, 0, 0, 0}},
{{ 0, 0, 0, 0, 0},
{ 0, 0, 0, 0, 0},
{ 0, 0, 0, 0, 0},
{ 0, 0, 0, 0, 0},
{ 0, 0, 0, 0, 0}},
{{ 0, 0, 0, 0, 0},
{ 0, 0, 0, 0, 0},
{ 0, 0, 0, 0, 0},
{ 0, 0, 0, 0, 0},
{ 0, 0, 0, 0, 0}},
{{ 0, 0, 0, 0, 0},
{ 0, 0, 0, 0, 0},
{ 0, 0, 0, 0, 0},
{ 0, 0, 0, 0, 0},
{ 0, 0, 0, 0, 0}},
{{ 0, 0, 0, 0, 0},
{ 0, 0, 0, 0, 0},
{ 0, 0, 0, 0, 0},
{ 0, 0, 0, 0, 0},
{ 0, 0, 0, 0, 0}},
{{ 0, 0, 0, 0, 0},
{ 0, 0, 0, 0, 0},
{ 0, 0, 0, 0, 0},
{ 0, 0, 0, 0, 0},
{ 0, 0, 0, 0, 0}},
{{ 0, 0, 0, 0, 0},
{ 0, 0, 0, 0, 0},
{ 0, 0, 0, 0, 0},
{ 0, 0, 0, 0, 0},
{ 0, 0, 0, 0, 0}}},
{{{ 0, 0, 0, 0, 0},
{ 0, 0, 0, 0, 0},
{ 0, 0, 0, 0, 0},
{ 0, 0, 0, 0, 0},
{ 0, 0, 0, 0, 0}},
{{ 0, 0, 0, 0, 0},
{ 0, 0, 0, 0, 0},
{ 0, 0, 0, 0, 0},
{ 0, 0, 0, 0, 0},
{ 0, 0, 0, 0, 0}},
{{ 0, 0, 0, 0, 0},
{ 0, 0, 0, 0, 0},
{ 0, 0, 0, 0, 0},
{ 0, 0, 0, 0, 0},
{ 0, 0, 0, 0, 0}},
{{ 0, 0, 0, 0, 0},
{ 0, 0, 0, 0, 0},
{ 0, 0, 0, 0, 0},
{ 0, 0, 0, 0, 0},
{ 0, 0, 0, 0, 0}},
{{ 0, 0, 0, 0, 0},
{ 0, 0, 0, 0, 0},
{ 0, 0, 0, 0, 0},
{ 0, 0, 0, 0, 0},
{ 0, 0, 0, 0, 0}},
{{ 0, 0, 0, 0, 0},
{ 0, 0, 0, 0, 0},
{ 0, 0, 0, 0, 0},
{ 0, 0, 0, 0, 0},
{ 0, 0, 0, 0, 0}},
{{ 0, 0, 0, 0, 0},
{ 0, 0, 0, 0, 0},
{ 0, 0, 0, 0, 0},
{ 0, 0, 0, 0, 0},
{ 0, 0, 0, 0, 0}},
{{ 0, 0, 0, 0, 0},
{ 0, 0, 0, 0, 0},
{ 0, 0, 0, 0, 0},
{ 0, 0, 0, 0, 0},
{ 0, 0, 0, 0, 0}},
{{ 0, 0, 0, 0, 0},
{ 0, 0, 0, 0, 0},
{ 0, 0, 0, 0, 0},
{ 0, 0, 0, 0, 0},
{ 0, 0, 0, 0, 0}},
{{ 0, 0, 0, 0, 0},
{ 0, 0, 0, 0, 0},
{ 0, 0, 0, 0, 0},
{ 0, 0, 0, 0, 0},
{ 0, 0, 0, 0, 0}},
{{ 0, 0, 0, 0, 0},
{ 0, 0, 0, 0, 0},
{ 0, 0, 0, 0, 0},
{ 0, 0, 0, 0, 0},
{ 0, 0, 0, 0, 0}},
{{ 0, 0, 0, 0, 0},
{ 0, 0, 0, 0, 0},
{ 0, 0, 0, 0, 0},
{ 0, 0, 0, 0, 0},
{ 0, 0, 0, 0, 0}},
{{ 0, 0, 0, 0, 0},
{ 0, 0, 0, 0, 0},
{ 0, 0, 0, 0, 0},
{ 0, 0, 0, 0, 0},
{ 0, 0, 0, 0, 0}},
{{ 0, 0, 0, 0, 0},
{ 0, 0, 0, 0, 0},
{ 0, 0, 0, 0, 0},
{ 0, 0, 0, 0, 0},
{ 0, 0, 0, 0, 0}},
{{ 0, 0, 0, 0, 0},
{ 0, 0, 0, 0, 0},
{ 0, 0, 0, 0, 0},
{ 0, 0, 0, 0, 0},
{ 0, 0, 0, 0, 0}},
{{ 0, 0, 0, 0, 0},
{ 0, 0, 0, 0, 0},
{ 0, 0, 0, 0, 0},
{ 0, 0, 0, 0, 0},
{ 0, 0, 0, 0, 0}}},
{{{ 0, 0, 0, 0, 0},
{ 0, 0, 0, 0, 0},
{ 0, 0, 0, 0, 0},
{ 0, 0, 0, 0, 0},
{ 0, 0, 0, 0, 0}},
{{ 0, 0, 0, 0, 0},
{ 0, 0, 0, 0, 0},
{ 0, 0, 0, 0, 0},
{ 0, 0, 0, 0, 0},
{ 0, 0, 0, 0, 0}},
{{ 0, 0, 0, 0, 0},
{ 0, 0, 0, 0, 0},
{ 0, 0, 0, 0, 0},
{ 0, 0, 0, 0, 0},
{ 0, 0, 0, 0, 0}},
{{ 0, 0, 0, 0, 0},
{ 0, 0, 0, 0, 0},
{ 0, 0, 0, 0, 0},
{ 0, 0, 0, 0, 0},
{ 0, 0, 0, 0, 0}},
{{ 0, 0, 0, 0, 0},
{ 0, 0, 0, 0, 0},
{ 0, 0, 0, 0, 0},
{ 0, 0, 0, 0, 0},
{ 0, 0, 0, 0, 0}},
{{ 0, 0, 0, 0, 0},
{ 0, 0, 0, 0, 0},
{ 0, 0, 0, 0, 0},
{ 0, 0, 0, 0, 0},
{ 0, 0, 0, 0, 0}},
{{ 0, 0, 0, 0, 0},
{ 0, 0, 0, 0, 0},
{ 0, 0, 0, 0, 0},
{ 0, 0, 0, 0, 0},
{ 0, 0, 0, 0, 0}},
{{ 0, 0, 0, 0, 0},
{ 0, 0, 0, 0, 0},
{ 0, 0, 0, 0, 0},
{ 0, 0, 0, 0, 0},
{ 0, 0, 0, 0, 0}},
{{ 0, 0, 0, 0, 0},
{ 0, 0, 0, 0, 0},
{ 0, 0, 0, 0, 0},
{ 0, 0, 0, 0, 0},
{ 0, 0, 0, 0, 0}},
{{ 0, 0, 0, 0, 0},
{ 0, 0, 0, 0, 0},
{ 0, 0, 0, 0, 0},
{ 0, 0, 0, 0, 0},
{ 0, 0, 0, 0, 0}},
{{ 0, 0, 0, 0, 0},
{ 0, 0, 0, 0, 0},
{ 0, 0, 0, 0, 0},
{ 0, 0, 0, 0, 0},
{ 0, 0, 0, 0, 0}},
{{ 0, 0, 0, 0, 0},
{ 0, 0, 0, 0, 0},
{ 0, 0, 0, 0, 0},
{ 0, 0, 0, 0, 0},
{ 0, 0, 0, 0, 0}},
{{ 0, 0, 0, 0, 0},
{ 0, 0, 0, 0, 0},
{ 0, 0, 0, 0, 0},
{ 0, 0, 0, 0, 0},
{ 0, 0, 0, 0, 0}},
{{ 0, 0, 0, 0, 0},
{ 0, 0, 0, 0, 0},
{ 0, 0, 0, 0, 0},
{ 0, 0, 0, 0, 0},
{ 0, 0, 0, 0, 0}},
{{ 0, 0, 0, 0, 0},
{ 0, 0, 0, 0, 0},
{ 0, 0, 0, 0, 0},
{ 0, 0, 0, 0, 0},
{ 0, 0, 0, 0, 0}},
{{ 0, 0, 0, 0, 0},
{ 0, 0, 0, 0, 0},
{ 0, 0, 0, 0, 0},
{ 0, 0, 0, 0, 0},
{ 0, 0, 0, 0, 0}}},
{{{ 0, 0, 0, 0, 0},
{ 0, 0, 0, 0, 0},
{ 0, 0, 0, 0, 0},
{ 0, 0, 0, 0, 0},
{ 0, 0, 0, 0, 0}},
{{ 0, 0, 0, 0, 0},
{ 0, 0, 0, 0, 0},
{ 0, 0, 0, 0, 0},
{ 0, 0, 0, 0, 0},
{ 0, 0, 0, 0, 0}},
{{ 0, 0, 0, 0, 0},
{ 0, 0, 0, 0, 0},
{ 0, 0, 0, 0, 0},
{ 0, 0, 0, 0, 0},
{ 0, 0, 0, 0, 0}},
{{ 0, 0, 0, 0, 0},
{ 0, 0, 0, 0, 0},
{ 0, 0, 0, 0, 0},
{ 0, 0, 0, 0, 0},
{ 0, 0, 0, 0, 0}},
{{ 0, 0, 0, 0, 0},
{ 0, 0, 0, 0, 0},
{ 0, 0, 0, 0, 0},
{ 0, 0, 0, 0, 0},
{ 0, 0, 0, 0, 0}},
{{ 0, 0, 0, 0, 0},
{ 0, 0, 0, 0, 0},
{ 0, 0, 0, 0, 0},
{ 0, 0, 0, 0, 0},
{ 0, 0, 0, 0, 0}},
{{ 0, 0, 0, 0, 0},
{ 0, 0, 0, 0, 0},
{ 0, 0, 0, 0, 0},
{ 0, 0, 0, 0, 0},
{ 0, 0, 0, 0, 0}},
{{ 0, 0, 0, 0, 0},
{ 0, 0, 0, 0, 0},
{ 0, 0, 0, 0, 0},
{ 0, 0, 0, 0, 0},
{ 0, 0, 0, 0, 0}},
{{ 0, 0, 0, 0, 0},
{ 0, 0, 0, 0, 0},
{ 0, 0, 0, 0, 0},
{ 0, 0, 0, 0, 0},
{ 0, 0, 0, 0, 0}},
{{ 0, 0, 0, 0, 0},
{ 0, 0, 0, 0, 0},
{ 0, 0, 0, 0, 0},
{ 0, 0, 0, 0, 0},
{ 0, 0, 0, 0, 0}},
{{ 0, 0, 0, 0, 0},
{ 0, 0, 0, 0, 0},
{ 0, 0, 0, 0, 0},
{ 0, 0, 0, 0, 0},
{ 0, 0, 0, 0, 0}},
{{ 0, 0, 0, 0, 0},
{ 0, 0, 0, 0, 0},
{ 0, 0, 0, 0, 0},
{ 0, 0, 0, 0, 0},
{ 0, 0, 0, 0, 0}},
{{ 0, 0, 0, 0, 0},
{ 0, 0, 0, 0, 0},
{ 0, 0, 0, 0, 0},
{ 0, 0, 0, 0, 0},
{ 0, 0, 0, 0, 0}},
{{ 0, 0, 0, 0, 0},
{ 0, 0, 0, 0, 0},
{ 0, 0, 0, 0, 0},
{ 0, 0, 0, 0, 0},
{ 0, 0, 0, 0, 0}},
{{ 0, 0, 0, 0, 0},
{ 0, 0, 0, 0, 0},
{ 0, 0, 0, 0, 0},
{ 0, 0, 0, 0, 0},
{ 0, 0, 0, 0, 0}},
{{ 0, 0, 0, 0, 0},
{ 0, 0, 0, 0, 0},
{ 0, 0, 0, 0, 0},
{ 0, 0, 0, 0, 0},
{ 0, 0, 0, 0, 0}}},
{{{ 0, 0, 0, 0, 0},
{ 0, 0, 0, 0, 0},
{ 0, 0, 0, 0, 0},
{ 0, 0, 0, 0, 0},
{ 0, 0, 0, 0, 0}},
{{ 0, 0, 0, 0, 0},
{ 0, 0, 0, 0, 0},
{ 0, 0, 0, 0, 0},
{ 0, 0, 0, 0, 0},
{ 0, 0, 0, 0, 0}},
{{ 0, 0, 0, 0, 0},
{ 0, 0, 0, 0, 0},
{ 0, 0, 0, 0, 0},
{ 0, 0, 0, 0, 0},
{ 0, 0, 0, 0, 0}},
{{ 0, 0, 0, 0, 0},
{ 0, 0, 0, 0, 0},
{ 0, 0, 0, 0, 0},
{ 0, 0, 0, 0, 0},
{ 0, 0, 0, 0, 0}},
{{ 0, 0, 0, 0, 0},
{ 0, 0, 0, 0, 0},
{ 0, 0, 0, 0, 0},
{ 0, 0, 0, 0, 0},
{ 0, 0, 0, 0, 0}},
{{ 0, 0, 0, 0, 0},
{ 0, 0, 0, 0, 0},
{ 0, 0, 0, 0, 0},
{ 0, 0, 0, 0, 0},
{ 0, 0, 0, 0, 0}},
{{ 0, 0, 0, 0, 0},
{ 0, 0, 0, 0, 0},
{ 0, 0, 0, 0, 0},
{ 0, 0, 0, 0, 0},
{ 0, 0, 0, 0, 0}},
{{ 0, 0, 0, 0, 0},
{ 0, 0, 0, 0, 0},
{ 0, 0, 0, 0, 0},
{ 0, 0, 0, 0, 0},
{ 0, 0, 0, 0, 0}},
{{ 0, 0, 0, 0, 0},
{ 0, 0, 0, 0, 0},
{ 0, 0, 0, 0, 0},
{ 0, 0, 0, 0, 0},
{ 0, 0, 0, 0, 0}},
{{ 0, 0, 0, 0, 0},
{ 0, 0, 0, 0, 0},
{ 0, 0, 0, 0, 0},
{ 0, 0, 0, 0, 0},
{ 0, 0, 0, 0, 0}},
{{ 0, 0, 0, 0, 0},
{ 0, 0, 0, 0, 0},
{ 0, 0, 0, 0, 0},
{ 0, 0, 0, 0, 0},
{ 0, 0, 0, 0, 0}},
{{ 0, 0, 0, 0, 0},
{ 0, 0, 0, 0, 0},
{ 0, 0, 0, 0, 0},
{ 0, 0, 0, 0, 0},
{ 0, 0, 0, 0, 0}},
{{ 0, 0, 0, 0, 0},
{ 0, 0, 0, 0, 0},
{ 0, 0, 0, 0, 0},
{ 0, 0, 0, 0, 0},
{ 0, 0, 0, 0, 0}},
{{ 0, 0, 0, 0, 0},
{ 0, 0, 0, 0, 0},
{ 0, 0, 0, 0, 0},
{ 0, 0, 0, 0, 0},
{ 0, 0, 0, 0, 0}},
{{ 0, 0, 0, 0, 0},
{ 0, 0, 0, 0, 0},
{ 0, 0, 0, 0, 0},
{ 0, 0, 0, 0, 0},
{ 0, 0, 0, 0, 0}},
{{ 0, 0, 0, 0, 0},
{ 0, 0, 0, 0, 0},
{ 0, 0, 0, 0, 0},
{ 0, 0, 0, 0, 0},
{ 0, 0, 0, 0, 0}}},
{{{ 0, 0, 0, 0, 0},
{ 0, 0, 0, 0, 0},
{ 0, 0, 0, 0, 0},
{ 0, 0, 0, 0, 0},
{ 0, 0, 0, 0, 0}},
{{ 0, 0, 0, 0, 0},
{ 0, 0, 0, 0, 0},
{ 0, 0, 0, 0, 0},
{ 0, 0, 0, 0, 0},
{ 0, 0, 0, 0, 0}},
{{ 0, 0, 0, 0, 0},
{ 0, 0, 0, 0, 0},
{ 0, 0, 0, 0, 0},
{ 0, 0, 0, 0, 0},
{ 0, 0, 0, 0, 0}},
{{ 0, 0, 0, 0, 0},
{ 0, 0, 0, 0, 0},
{ 0, 0, 0, 0, 0},
{ 0, 0, 0, 0, 0},
{ 0, 0, 0, 0, 0}},
{{ 0, 0, 0, 0, 0},
{ 0, 0, 0, 0, 0},
{ 0, 0, 0, 0, 0},
{ 0, 0, 0, 0, 0},
{ 0, 0, 0, 0, 0}},
{{ 0, 0, 0, 0, 0},
{ 0, 0, 0, 0, 0},
{ 0, 0, 0, 0, 0},
{ 0, 0, 0, 0, 0},
{ 0, 0, 0, 0, 0}},
{{ 0, 0, 0, 0, 0},
{ 0, 0, 0, 0, 0},
{ 0, 0, 0, 0, 0},
{ 0, 0, 0, 0, 0},
{ 0, 0, 0, 0, 0}},
{{ 0, 0, 0, 0, 0},
{ 0, 0, 0, 0, 0},
{ 0, 0, 0, 0, 0},
{ 0, 0, 0, 0, 0},
{ 0, 0, 0, 0, 0}},
{{ 0, 0, 0, 0, 0},
{ 0, 0, 0, 0, 0},
{ 0, 0, 0, 0, 0},
{ 0, 0, 0, 0, 0},
{ 0, 0, 0, 0, 0}},
{{ 0, 0, 0, 0, 0},
{ 0, 0, 0, 0, 0},
{ 0, 0, 0, 0, 0},
{ 0, 0, 0, 0, 0},
{ 0, 0, 0, 0, 0}},
{{ 0, 0, 0, 0, 0},
{ 0, 0, 0, 0, 0},
{ 0, 0, 0, 0, 0},
{ 0, 0, 0, 0, 0},
{ 0, 0, 0, 0, 0}},
{{ 0, 0, 0, 0, 0},
{ 0, 0, 0, 0, 0},
{ 0, 0, 0, 0, 0},
{ 0, 0, 0, 0, 0},
{ 0, 0, 0, 0, 0}},
{{ 0, 0, 0, 0, 0},
{ 0, 0, 0, 0, 0},
{ 0, 0, 0, 0, 0},
{ 0, 0, 0, 0, 0},
{ 0, 0, 0, 0, 0}},
{{ 0, 0, 0, 0, 0},
{ 0, 0, 0, 0, 0},
{ 0, 0, 0, 0, 0},
{ 0, 0, 0, 0, 0},
{ 0, 0, 0, 0, 0}},
{{ 0, 0, 0, 0, 0},
{ 0, 0, 0, 0, 0},
{ 0, 0, 0, 0, 0},
{ 0, 0, 0, 0, 0},
{ 0, 0, 0, 0, 0}},
{{ 0, 0, 0, 0, 0},
{ 0, 0, 0, 0, 0},
{ 0, 0, 0, 0, 0},
{ 0, 0, 0, 0, 0},
{ 0, 0, 0, 0, 0}}},
{{{ 0, 0, 0, 0, 0},
{ 0, 0, 0, 0, 0},
{ 0, 0, 0, 0, 0},
{ 0, 0, 0, 0, 0},
{ 0, 0, 0, 0, 0}},
{{ 0, 0, 0, 0, 0},
{ 0, 0, 0, 0, 0},
{ 0, 0, 0, 0, 0},
{ 0, 0, 0, 0, 0},
{ 0, 0, 0, 0, 0}},
{{ 0, 0, 0, 0, 0},
{ 0, 0, 0, 0, 0},
{ 0, 0, 0, 0, 0},
{ 0, 0, 0, 0, 0},
{ 0, 0, 0, 0, 0}},
{{ 0, 0, 0, 0, 0},
{ 0, 0, 0, 0, 0},
{ 0, 0, 0, 0, 0},
{ 0, 0, 0, 0, 0},
{ 0, 0, 0, 0, 0}},
{{ 0, 0, 0, 0, 0},
{ 0, 0, 0, 0, 0},
{ 0, 0, 0, 0, 0},
{ 0, 0, 0, 0, 0},
{ 0, 0, 0, 0, 0}},
{{ 0, 0, 0, 0, 0},
{ 0, 0, 0, 0, 0},
{ 0, 0, 0, 0, 0},
{ 0, 0, 0, 0, 0},
{ 0, 0, 0, 0, 0}},
{{ 0, 0, 0, 0, 0},
{ 0, 0, 0, 0, 0},
{ 0, 0, 0, 0, 0},
{ 0, 0, 0, 0, 0},
{ 0, 0, 0, 0, 0}},
{{ 0, 0, 0, 0, 0},
{ 0, 0, 0, 0, 0},
{ 0, 0, 0, 0, 0},
{ 0, 0, 0, 0, 0},
{ 0, 0, 0, 0, 0}},
{{ 0, 0, 0, 0, 0},
{ 0, 0, 0, 0, 0},
{ 0, 0, 0, 0, 0},
{ 0, 0, 0, 0, 0},
{ 0, 0, 0, 0, 0}},
{{ 0, 0, 0, 0, 0},
{ 0, 0, 0, 0, 0},
{ 0, 0, 0, 0, 0},
{ 0, 0, 0, 0, 0},
{ 0, 0, 0, 0, 0}},
{{ 0, 0, 0, 0, 0},
{ 0, 0, 0, 0, 0},
{ 0, 0, 0, 0, 0},
{ 0, 0, 0, 0, 0},
{ 0, 0, 0, 0, 0}},
{{ 0, 0, 0, 0, 0},
{ 0, 0, 0, 0, 0},
{ 0, 0, 0, 0, 0},
{ 0, 0, 0, 0, 0},
{ 0, 0, 0, 0, 0}},
{{ 0, 0, 0, 0, 0},
{ 0, 0, 0, 0, 0},
{ 0, 0, 0, 0, 0},
{ 0, 0, 0, 0, 0},
{ 0, 0, 0, 0, 0}},
{{ 0, 0, 0, 0, 0},
{ 0, 0, 0, 0, 0},
{ 0, 0, 0, 0, 0},
{ 0, 0, 0, 0, 0},
{ 0, 0, 0, 0, 0}},
{{ 0, 0, 0, 0, 0},
{ 0, 0, 0, 0, 0},
{ 0, 0, 0, 0, 0},
{ 0, 0, 0, 0, 0},
{ 0, 0, 0, 0, 0}},
{{ 0, 0, 0, 0, 0},
{ 0, 0, 0, 0, 0},
{ 0, 0, 0, 0, 0},
{ 0, 0, 0, 0, 0},
{ 0, 0, 0, 0, 0}}},
{{{ 0, 0, 0, 0, 0},
{ 0, 0, 0, 0, 0},
{ 0, 0, 0, 0, 0},
{ 0, 0, 0, 0, 0},
{ 0, 0, 0, 0, 0}},
{{ 0, 0, 0, 0, 0},
{ 0, 0, 0, 0, 0},
{ 0, 0, 0, 0, 0},
{ 0, 0, 0, 0, 0},
{ 0, 0, 0, 0, 0}},
{{ 0, 0, 0, 0, 0},
{ 0, 0, 0, 0, 0},
{ 0, 0, 0, 0, 0},
{ 0, 0, 0, 0, 0},
{ 0, 0, 0, 0, 0}},
{{ 0, 0, 0, 0, 0},
{ 0, 0, 0, 0, 0},
{ 0, 0, 0, 0, 0},
{ 0, 0, 0, 0, 0},
{ 0, 0, 0, 0, 0}},
{{ 0, 0, 0, 0, 0},
{ 0, 0, 0, 0, 0},
{ 0, 0, 0, 0, 0},
{ 0, 0, 0, 0, 0},
{ 0, 0, 0, 0, 0}},
{{ 0, 0, 0, 0, 0},
{ 0, 0, 0, 0, 0},
{ 0, 0, 0, 0, 0},
{ 0, 0, 0, 0, 0},
{ 0, 0, 0, 0, 0}},
{{ 0, 0, 0, 0, 0},
{ 0, 0, 0, 0, 0},
{ 0, 0, 0, 0, 0},
{ 0, 0, 0, 0, 0},
{ 0, 0, 0, 0, 0}},
{{ 0, 0, 0, 0, 0},
{ 0, 0, 0, 0, 0},
{ 0, 0, 0, 0, 0},
{ 0, 0, 0, 0, 0},
{ 0, 0, 0, 0, 0}},
{{ 0, 0, 0, 0, 0},
{ 0, 0, 0, 0, 0},
{ 0, 0, 0, 0, 0},
{ 0, 0, 0, 0, 0},
{ 0, 0, 0, 0, 0}},
{{ 0, 0, 0, 0, 0},
{ 0, 0, 0, 0, 0},
{ 0, 0, 0, 0, 0},
{ 0, 0, 0, 0, 0},
{ 0, 0, 0, 0, 0}},
{{ 0, 0, 0, 0, 0},
{ 0, 0, 0, 0, 0},
{ 0, 0, 0, 0, 0},
{ 0, 0, 0, 0, 0},
{ 0, 0, 0, 0, 0}},
{{ 0, 0, 0, 0, 0},
{ 0, 0, 0, 0, 0},
{ 0, 0, 0, 0, 0},
{ 0, 0, 0, 0, 0},
{ 0, 0, 0, 0, 0}},
{{ 0, 0, 0, 0, 0},
{ 0, 0, 0, 0, 0},
{ 0, 0, 0, 0, 0},
{ 0, 0, 0, 0, 0},
{ 0, 0, 0, 0, 0}},
{{ 0, 0, 0, 0, 0},
{ 0, 0, 0, 0, 0},
{ 0, 0, 0, 0, 0},
{ 0, 0, 0, 0, 0},
{ 0, 0, 0, 0, 0}},
{{ 0, 0, 0, 0, 0},
{ 0, 0, 0, 0, 0},
{ 0, 0, 0, 0, 0},
{ 0, 0, 0, 0, 0},
{ 0, 0, 0, 0, 0}},
{{ 0, 0, 0, 0, 0},
{ 0, 0, 0, 0, 0},
{ 0, 0, 0, 0, 0},
{ 0, 0, 0, 0, 0},
{ 0, 0, 0, 0, 0}}},
{{{ 0, 0, 0, 0, 0},
{ 0, 0, 0, 0, 0},
{ 0, 0, 0, 0, 0},
{ 0, 0, 0, 0, 0},
{ 0, 0, 0, 0, 0}},
{{ 0, 0, 0, 0, 0},
{ 0, 0, 0, 0, 0},
{ 0, 0, 0, 0, 0},
{ 0, 0, 0, 0, 0},
{ 0, 0, 0, 0, 0}},
{{ 0, 0, 0, 0, 0},
{ 0, 0, 0, 0, 0},
{ 0, 0, 0, 0, 0},
{ 0, 0, 0, 0, 0},
{ 0, 0, 0, 0, 0}},
{{ 0, 0, 0, 0, 0},
{ 0, 0, 0, 0, 0},
{ 0, 0, 0, 0, 0},
{ 0, 0, 0, 0, 0},
{ 0, 0, 0, 0, 0}},
{{ 0, 0, 0, 0, 0},
{ 0, 0, 0, 0, 0},
{ 0, 0, 0, 0, 0},
{ 0, 0, 0, 0, 0},
{ 0, 0, 0, 0, 0}},
{{ 0, 0, 0, 0, 0},
{ 0, 0, 0, 0, 0},
{ 0, 0, 0, 0, 0},
{ 0, 0, 0, 0, 0},
{ 0, 0, 0, 0, 0}},
{{ 0, 0, 0, 0, 0},
{ 0, 0, 0, 0, 0},
{ 0, 0, 0, 0, 0},
{ 0, 0, 0, 0, 0},
{ 0, 0, 0, 0, 0}},
{{ 0, 0, 0, 0, 0},
{ 0, 0, 0, 0, 0},
{ 0, 0, 0, 0, 0},
{ 0, 0, 0, 0, 0},
{ 0, 0, 0, 0, 0}},
{{ 0, 0, 0, 0, 0},
{ 0, 0, 0, 0, 0},
{ 0, 0, 0, 0, 0},
{ 0, 0, 0, 0, 0},
{ 0, 0, 0, 0, 0}},
{{ 0, 0, 0, 0, 0},
{ 0, 0, 0, 0, 0},
{ 0, 0, 0, 0, 0},
{ 0, 0, 0, 0, 0},
{ 0, 0, 0, 0, 0}},
{{ 0, 0, 0, 0, 0},
{ 0, 0, 0, 0, 0},
{ 0, 0, 0, 0, 0},
{ 0, 0, 0, 0, 0},
{ 0, 0, 0, 0, 0}},
{{ 0, 0, 0, 0, 0},
{ 0, 0, 0, 0, 0},
{ 0, 0, 0, 0, 0},
{ 0, 0, 0, 0, 0},
{ 0, 0, 0, 0, 0}},
{{ 0, 0, 0, 0, 0},
{ 0, 0, 0, 0, 0},
{ 0, 0, 0, 0, 0},
{ 0, 0, 0, 0, 0},
{ 0, 0, 0, 0, 0}},
{{ 0, 0, 0, 0, 0},
{ 0, 0, 0, 0, 0},
{ 0, 0, 0, 0, 0},
{ 0, 0, 0, 0, 0},
{ 0, 0, 0, 0, 0}},
{{ 0, 0, 0, 0, 0},
{ 0, 0, 0, 0, 0},
{ 0, 0, 0, 0, 0},
{ 0, 0, 0, 0, 0},
{ 0, 0, 0, 0, 0}},
{{ 0, 0, 0, 0, 0},
{ 0, 0, 0, 0, 0},
{ 0, 0, 0, 0, 0},
{ 0, 0, 0, 0, 0},
{ 0, 0, 0, 0, 0}}},
{{{ 0, 0, 0, 0, 0},
{ 0, 0, 0, 0, 0},
{ 0, 0, 0, 0, 0},
{ 0, 0, 0, 0, 0},
{ 0, 0, 0, 0, 0}},
{{ 0, 0, 0, 0, 0},
{ 0, 0, 0, 0, 0},
{ 0, 0, 0, 0, 0},
{ 0, 0, 0, 0, 0},
{ 0, 0, 0, 0, 0}},
{{ 0, 0, 0, 0, 0},
{ 0, 0, 0, 0, 0},
{ 0, 0, 0, 0, 0},
{ 0, 0, 0, 0, 0},
{ 0, 0, 0, 0, 0}},
{{ 0, 0, 0, 0, 0},
{ 0, 0, 0, 0, 0},
{ 0, 0, 0, 0, 0},
{ 0, 0, 0, 0, 0},
{ 0, 0, 0, 0, 0}},
{{ 0, 0, 0, 0, 0},
{ 0, 0, 0, 0, 0},
{ 0, 0, 0, 0, 0},
{ 0, 0, 0, 0, 0},
{ 0, 0, 0, 0, 0}},
{{ 0, 0, 0, 0, 0},
{ 0, 0, 0, 0, 0},
{ 0, 0, 0, 0, 0},
{ 0, 0, 0, 0, 0},
{ 0, 0, 0, 0, 0}},
{{ 0, 0, 0, 0, 0},
{ 0, 0, 0, 0, 0},
{ 0, 0, 0, 0, 0},
{ 0, 0, 0, 0, 0},
{ 0, 0, 0, 0, 0}},
{{ 0, 0, 0, 0, 0},
{ 0, 0, 0, 0, 0},
{ 0, 0, 0, 0, 0},
{ 0, 0, 0, 0, 0},
{ 0, 0, 0, 0, 0}},
{{ 0, 0, 0, 0, 0},
{ 0, 0, 0, 0, 0},
{ 0, 0, 0, 0, 0},
{ 0, 0, 0, 0, 0},
{ 0, 0, 0, 0, 0}},
{{ 0, 0, 0, 0, 0},
{ 0, 0, 0, 0, 0},
{ 0, 0, 0, 0, 0},
{ 0, 0, 0, 0, 0},
{ 0, 0, 0, 0, 0}},
{{ 0, 0, 0, 0, 0},
{ 0, 0, 0, 0, 0},
{ 0, 0, 0, 0, 0},
{ 0, 0, 0, 0, 0},
{ 0, 0, 0, 0, 0}},
{{ 0, 0, 0, 0, 0},
{ 0, 0, 0, 0, 0},
{ 0, 0, 0, 0, 0},
{ 0, 0, 0, 0, 0},
{ 0, 0, 0, 0, 0}},
{{ 0, 0, 0, 0, 0},
{ 0, 0, 0, 0, 0},
{ 0, 0, 0, 0, 0},
{ 0, 0, 0, 0, 0},
{ 0, 0, 0, 0, 0}},
{{ 0, 0, 0, 0, 0},
{ 0, 0, 0, 0, 0},
{ 0, 0, 0, 0, 0},
{ 0, 0, 0, 0, 0},
{ 0, 0, 0, 0, 0}},
{{ 0, 0, 0, 0, 0},
{ 0, 0, 0, 0, 0},
{ 0, 0, 0, 0, 0},
{ 0, 0, 0, 0, 0},
{ 0, 0, 0, 0, 0}},
{{ 0, 0, 0, 0, 0},
{ 0, 0, 0, 0, 0},
{ 0, 0, 0, 0, 0},
{ 0, 0, 0, 0, 0},
{ 0, 0, 0, 0, 0}}},
{{{ 0, 0, 0, 0, 0},
{ 0, 0, 0, 0, 0},
{ 0, 0, 0, 0, 0},
{ 0, 0, 0, 0, 0},
{ 0, 0, 0, 0, 0}},
{{ 0, 0, 0, 0, 0},
{ 0, 0, 0, 0, 0},
{ 0, 0, 0, 0, 0},
{ 0, 0, 0, 0, 0},
{ 0, 0, 0, 0, 0}},
{{ 0, 0, 0, 0, 0},
{ 0, 0, 0, 0, 0},
{ 0, 0, 0, 0, 0},
{ 0, 0, 0, 0, 0},
{ 0, 0, 0, 0, 0}},
{{ 0, 0, 0, 0, 0},
{ 0, 0, 0, 0, 0},
{ 0, 0, 0, 0, 0},
{ 0, 0, 0, 0, 0},
{ 0, 0, 0, 0, 0}},
{{ 0, 0, 0, 0, 0},
{ 0, 0, 0, 0, 0},
{ 0, 0, 0, 0, 0},
{ 0, 0, 0, 0, 0},
{ 0, 0, 0, 0, 0}},
{{ 0, 0, 0, 0, 0},
{ 0, 0, 0, 0, 0},
{ 0, 0, 0, 0, 0},
{ 0, 0, 0, 0, 0},
{ 0, 0, 0, 0, 0}},
{{ 0, 0, 0, 0, 0},
{ 0, 0, 0, 0, 0},
{ 0, 0, 0, 0, 0},
{ 0, 0, 0, 0, 0},
{ 0, 0, 0, 0, 0}},
{{ 0, 0, 0, 0, 0},
{ 0, 0, 0, 0, 0},
{ 0, 0, 0, 0, 0},
{ 0, 0, 0, 0, 0},
{ 0, 0, 0, 0, 0}},
{{ 0, 0, 0, 0, 0},
{ 0, 0, 0, 0, 0},
{ 0, 0, 0, 0, 0},
{ 0, 0, 0, 0, 0},
{ 0, 0, 0, 0, 0}},
{{ 0, 0, 0, 0, 0},
{ 0, 0, 0, 0, 0},
{ 0, 0, 0, 0, 0},
{ 0, 0, 0, 0, 0},
{ 0, 0, 0, 0, 0}},
{{ 0, 0, 0, 0, 0},
{ 0, 0, 0, 0, 0},
{ 0, 0, 0, 0, 0},
{ 0, 0, 0, 0, 0},
{ 0, 0, 0, 0, 0}},
{{ 0, 0, 0, 0, 0},
{ 0, 0, 0, 0, 0},
{ 0, 0, 0, 0, 0},
{ 0, 0, 0, 0, 0},
{ 0, 0, 0, 0, 0}},
{{ 0, 0, 0, 0, 0},
{ 0, 0, 0, 0, 0},
{ 0, 0, 0, 0, 0},
{ 0, 0, 0, 0, 0},
{ 0, 0, 0, 0, 0}},
{{ 0, 0, 0, 0, 0},
{ 0, 0, 0, 0, 0},
{ 0, 0, 0, 0, 0},
{ 0, 0, 0, 0, 0},
{ 0, 0, 0, 0, 0}},
{{ 0, 0, 0, 0, 0},
{ 0, 0, 0, 0, 0},
{ 0, 0, 0, 0, 0},
{ 0, 0, 0, 0, 0},
{ 0, 0, 0, 0, 0}},
{{ 0, 0, 0, 0, 0},
{ 0, 0, 0, 0, 0},
{ 0, 0, 0, 0, 0},
{ 0, 0, 0, 0, 0},
{ 0, 0, 0, 0, 0}}},
{{{ 0, 0, 0, 0, 0},
{ 0, 0, 0, 0, 0},
{ 0, 0, 0, 0, 0},
{ 0, 0, 0, 0, 0},
{ 0, 0, 0, 0, 0}},
{{ 0, 0, 0, 0, 0},
{ 0, 0, 0, 0, 0},
{ 0, 0, 0, 0, 0},
{ 0, 0, 0, 0, 0},
{ 0, 0, 0, 0, 0}},
{{ 0, 0, 0, 0, 0},
{ 0, 0, 0, 0, 0},
{ 0, 0, 0, 0, 0},
{ 0, 0, 0, 0, 0},
{ 0, 0, 0, 0, 0}},
{{ 0, 0, 0, 0, 0},
{ 0, 0, 0, 0, 0},
{ 0, 0, 0, 0, 0},
{ 0, 0, 0, 0, 0},
{ 0, 0, 0, 0, 0}},
{{ 0, 0, 0, 0, 0},
{ 0, 0, 0, 0, 0},
{ 0, 0, 0, 0, 0},
{ 0, 0, 0, 0, 0},
{ 0, 0, 0, 0, 0}},
{{ 0, 0, 0, 0, 0},
{ 0, 0, 0, 0, 0},
{ 0, 0, 0, 0, 0},
{ 0, 0, 0, 0, 0},
{ 0, 0, 0, 0, 0}},
{{ 0, 0, 0, 0, 0},
{ 0, 0, 0, 0, 0},
{ 0, 0, 0, 0, 0},
{ 0, 0, 0, 0, 0},
{ 0, 0, 0, 0, 0}},
{{ 0, 0, 0, 0, 0},
{ 0, 0, 0, 0, 0},
{ 0, 0, 0, 0, 0},
{ 0, 0, 0, 0, 0},
{ 0, 0, 0, 0, 0}},
{{ 0, 0, 0, 0, 0},
{ 0, 0, 0, 0, 0},
{ 0, 0, 0, 0, 0},
{ 0, 0, 0, 0, 0},
{ 0, 0, 0, 0, 0}},
{{ 0, 0, 0, 0, 0},
{ 0, 0, 0, 0, 0},
{ 0, 0, 0, 0, 0},
{ 0, 0, 0, 0, 0},
{ 0, 0, 0, 0, 0}},
{{ 0, 0, 0, 0, 0},
{ 0, 0, 0, 0, 0},
{ 0, 0, 0, 0, 0},
{ 0, 0, 0, 0, 0},
{ 0, 0, 0, 0, 0}},
{{ 0, 0, 0, 0, 0},
{ 0, 0, 0, 0, 0},
{ 0, 0, 0, 0, 0},
{ 0, 0, 0, 0, 0},
{ 0, 0, 0, 0, 0}},
{{ 0, 0, 0, 0, 0},
{ 0, 0, 0, 0, 0},
{ 0, 0, 0, 0, 0},
{ 0, 0, 0, 0, 0},
{ 0, 0, 0, 0, 0}},
{{ 0, 0, 0, 0, 0},
{ 0, 0, 0, 0, 0},
{ 0, 0, 0, 0, 0},
{ 0, 0, 0, 0, 0},
{ 0, 0, 0, 0, 0}},
{{ 0, 0, 0, 0, 0},
{ 0, 0, 0, 0, 0},
{ 0, 0, 0, 0, 0},
{ 0, 0, 0, 0, 0},
{ 0, 0, 0, 0, 0}},
{{ 0, 0, 0, 0, 0},
{ 0, 0, 0, 0, 0},
{ 0, 0, 0, 0, 0},
{ 0, 0, 0, 0, 0},
{ 0, 0, 0, 0, 0}}},
{{{ 0, 0, 0, 0, 0},
{ 0, 0, 0, 0, 0},
{ 0, 0, 0, 0, 0},
{ 0, 0, 0, 0, 0},
{ 0, 0, 0, 0, 0}},
{{ 0, 0, 0, 0, 0},
{ 0, 0, 0, 0, 0},
{ 0, 0, 0, 0, 0},
{ 0, 0, 0, 0, 0},
{ 0, 0, 0, 0, 0}},
{{ 0, 0, 0, 0, 0},
{ 0, 0, 0, 0, 0},
{ 0, 0, 0, 0, 0},
{ 0, 0, 0, 0, 0},
{ 0, 0, 0, 0, 0}},
{{ 0, 0, 0, 0, 0},
{ 0, 0, 0, 0, 0},
{ 0, 0, 0, 0, 0},
{ 0, 0, 0, 0, 0},
{ 0, 0, 0, 0, 0}},
{{ 0, 0, 0, 0, 0},
{ 0, 0, 0, 0, 0},
{ 0, 0, 0, 0, 0},
{ 0, 0, 0, 0, 0},
{ 0, 0, 0, 0, 0}},
{{ 0, 0, 0, 0, 0},
{ 0, 0, 0, 0, 0},
{ 0, 0, 0, 0, 0},
{ 0, 0, 0, 0, 0},
{ 0, 0, 0, 0, 0}},
{{ 0, 0, 0, 0, 0},
{ 0, 0, 0, 0, 0},
{ 0, 0, 0, 0, 0},
{ 0, 0, 0, 0, 0},
{ 0, 0, 0, 0, 0}},
{{ 0, 0, 0, 0, 0},
{ 0, 0, 0, 0, 0},
{ 0, 0, 0, 0, 0},
{ 0, 0, 0, 0, 0},
{ 0, 0, 0, 0, 0}},
{{ 0, 0, 0, 0, 0},
{ 0, 0, 0, 0, 0},
{ 0, 0, 0, 0, 0},
{ 0, 0, 0, 0, 0},
{ 0, 0, 0, 0, 0}},
{{ 0, 0, 0, 0, 0},
{ 0, 0, 0, 0, 0},
{ 0, 0, 0, 0, 0},
{ 0, 0, 0, 0, 0},
{ 0, 0, 0, 0, 0}},
{{ 0, 0, 0, 0, 0},
{ 0, 0, 0, 0, 0},
{ 0, 0, 0, 0, 0},
{ 0, 0, 0, 0, 0},
{ 0, 0, 0, 0, 0}},
{{ 0, 0, 0, 0, 0},
{ 0, 0, 0, 0, 0},
{ 0, 0, 0, 0, 0},
{ 0, 0, 0, 0, 0},
{ 0, 0, 0, 0, 0}},
{{ 0, 0, 0, 0, 0},
{ 0, 0, 0, 0, 0},
{ 0, 0, 0, 0, 0},
{ 0, 0, 0, 0, 0},
{ 0, 0, 0, 0, 0}},
{{ 0, 0, 0, 0, 0},
{ 0, 0, 0, 0, 0},
{ 0, 0, 0, 0, 0},
{ 0, 0, 0, 0, 0},
{ 0, 0, 0, 0, 0}},
{{ 0, 0, 0, 0, 0},
{ 0, 0, 0, 0, 0},
{ 0, 0, 0, 0, 0},
{ 0, 0, 0, 0, 0},
{ 0, 0, 0, 0, 0}},
{{ 0, 0, 0, 0, 0},
{ 0, 0, 0, 0, 0},
{ 0, 0, 0, 0, 0},
{ 0, 0, 0, 0, 0},
{ 0, 0, 0, 0, 0}}},
{{{ 0, 0, 0, 0, 0},
{ 0, 0, 0, 0, 0},
{ 0, 0, 0, 0, 0},
{ 0, 0, 0, 0, 0},
{ 0, 0, 0, 0, 0}},
{{ 0, 0, 0, 0, 0},
{ 0, 0, 0, 0, 0},
{ 0, 0, 0, 0, 0},
{ 0, 0, 0, 0, 0},
{ 0, 0, 0, 0, 0}},
{{ 0, 0, 0, 0, 0},
{ 0, 0, 0, 0, 0},
{ 0, 0, 0, 0, 0},
{ 0, 0, 0, 0, 0},
{ 0, 0, 0, 0, 0}},
{{ 0, 0, 0, 0, 0},
{ 0, 0, 0, 0, 0},
{ 0, 0, 0, 0, 0},
{ 0, 0, 0, 0, 0},
{ 0, 0, 0, 0, 0}},
{{ 0, 0, 0, 0, 0},
{ 0, 0, 0, 0, 0},
{ 0, 0, 0, 0, 0},
{ 0, 0, 0, 0, 0},
{ 0, 0, 0, 0, 0}},
{{ 0, 0, 0, 0, 0},
{ 0, 0, 0, 0, 0},
{ 0, 0, 0, 0, 0},
{ 0, 0, 0, 0, 0},
{ 0, 0, 0, 0, 0}},
{{ 0, 0, 0, 0, 0},
{ 0, 0, 0, 0, 0},
{ 0, 0, 0, 0, 0},
{ 0, 0, 0, 0, 0},
{ 0, 0, 0, 0, 0}},
{{ 0, 0, 0, 0, 0},
{ 0, 0, 0, 0, 0},
{ 0, 0, 0, 0, 0},
{ 0, 0, 0, 0, 0},
{ 0, 0, 0, 0, 0}},
{{ 0, 0, 0, 0, 0},
{ 0, 0, 0, 0, 0},
{ 0, 0, 0, 0, 0},
{ 0, 0, 0, 0, 0},
{ 0, 0, 0, 0, 0}},
{{ 0, 0, 0, 0, 0},
{ 0, 0, 0, 0, 0},
{ 0, 0, 0, 0, 0},
{ 0, 0, 0, 0, 0},
{ 0, 0, 0, 0, 0}},
{{ 0, 0, 0, 0, 0},
{ 0, 0, 0, 0, 0},
{ 0, 0, 0, 0, 0},
{ 0, 0, 0, 0, 0},
{ 0, 0, 0, 0, 0}},
{{ 0, 0, 0, 0, 0},
{ 0, 0, 0, 0, 0},
{ 0, 0, 0, 0, 0},
{ 0, 0, 0, 0, 0},
{ 0, 0, 0, 0, 0}},
{{ 0, 0, 0, 0, 0},
{ 0, 0, 0, 0, 0},
{ 0, 0, 0, 0, 0},
{ 0, 0, 0, 0, 0},
{ 0, 0, 0, 0, 0}},
{{ 0, 0, 0, 0, 0},
{ 0, 0, 0, 0, 0},
{ 0, 0, 0, 0, 0},
{ 0, 0, 0, 0, 0},
{ 0, 0, 0, 0, 0}},
{{ 0, 0, 0, 0, 0},
{ 0, 0, 0, 0, 0},
{ 0, 0, 0, 0, 0},
{ 0, 0, 0, 0, 0},
{ 0, 0, 0, 0, 0}},
{{ 0, 0, 0, 0, 0},
{ 0, 0, 0, 0, 0},
{ 0, 0, 0, 0, 0},
{ 0, 0, 0, 0, 0},
{ 0, 0, 0, 0, 0}}},
{{{ 0, 0, 0, 0, 0},
{ 0, 0, 0, 0, 0},
{ 0, 0, 0, 0, 0},
{ 0, 0, 0, 0, 0},
{ 0, 0, 0, 0, 0}},
{{ 0, 0, 0, 0, 0},
{ 0, 0, 0, 0, 0},
{ 0, 0, 0, 0, 0},
{ 0, 0, 0, 0, 0},
{ 0, 0, 0, 0, 0}},
{{ 0, 0, 0, 0, 0},
{ 0, 0, 0, 0, 0},
{ 0, 0, 0, 0, 0},
{ 0, 0, 0, 0, 0},
{ 0, 0, 0, 0, 0}},
{{ 0, 0, 0, 0, 0},
{ 0, 0, 0, 0, 0},
{ 0, 0, 0, 0, 0},
{ 0, 0, 0, 0, 0},
{ 0, 0, 0, 0, 0}},
{{ 0, 0, 0, 0, 0},
{ 0, 0, 0, 0, 0},
{ 0, 0, 0, 0, 0},
{ 0, 0, 0, 0, 0},
{ 0, 0, 0, 0, 0}},
{{ 0, 0, 0, 0, 0},
{ 0, 0, 0, 0, 0},
{ 0, 0, 0, 0, 0},
{ 0, 0, 0, 0, 0},
{ 0, 0, 0, 0, 0}},
{{ 0, 0, 0, 0, 0},
{ 0, 0, 0, 0, 0},
{ 0, 0, 0, 0, 0},
{ 0, 0, 0, 0, 0},
{ 0, 0, 0, 0, 0}},
{{ 0, 0, 0, 0, 0},
{ 0, 0, 0, 0, 0},
{ 0, 0, 0, 0, 0},
{ 0, 0, 0, 0, 0},
{ 0, 0, 0, 0, 0}},
{{ 0, 0, 0, 0, 0},
{ 0, 0, 0, 0, 0},
{ 0, 0, 0, 0, 0},
{ 0, 0, 0, 0, 0},
{ 0, 0, 0, 0, 0}},
{{ 0, 0, 0, 0, 0},
{ 0, 0, 0, 0, 0},
{ 0, 0, 0, 0, 0},
{ 0, 0, 0, 0, 0},
{ 0, 0, 0, 0, 0}},
{{ 0, 0, 0, 0, 0},
{ 0, 0, 0, 0, 0},
{ 0, 0, 0, 0, 0},
{ 0, 0, 0, 0, 0},
{ 0, 0, 0, 0, 0}},
{{ 0, 0, 0, 0, 0},
{ 0, 0, 0, 0, 0},
{ 0, 0, 0, 0, 0},
{ 0, 0, 0, 0, 0},
{ 0, 0, 0, 0, 0}},
{{ 0, 0, 0, 0, 0},
{ 0, 0, 0, 0, 0},
{ 0, 0, 0, 0, 0},
{ 0, 0, 0, 0, 0},
{ 0, 0, 0, 0, 0}},
{{ 0, 0, 0, 0, 0},
{ 0, 0, 0, 0, 0},
{ 0, 0, 0, 0, 0},
{ 0, 0, 0, 0, 0},
{ 0, 0, 0, 0, 0}},
{{ 0, 0, 0, 0, 0},
{ 0, 0, 0, 0, 0},
{ 0, 0, 0, 0, 0},
{ 0, 0, 0, 0, 0},
{ 0, 0, 0, 0, 0}},
{{ 0, 0, 0, 0, 0},
{ 0, 0, 0, 0, 0},
{ 0, 0, 0, 0, 0},
{ 0, 0, 0, 0, 0},
{ 0, 0, 0, 0, 0}}},
{{{ 0, 0, 0, 0, 0},
{ 0, 0, 0, 0, 0},
{ 0, 0, 0, 0, 0},
{ 0, 0, 0, 0, 0},
{ 0, 0, 0, 0, 0}},
{{ 0, 0, 0, 0, 0},
{ 0, 0, 0, 0, 0},
{ 0, 0, 0, 0, 0},
{ 0, 0, 0, 0, 0},
{ 0, 0, 0, 0, 0}},
{{ 0, 0, 0, 0, 0},
{ 0, 0, 0, 0, 0},
{ 0, 0, 0, 0, 0},
{ 0, 0, 0, 0, 0},
{ 0, 0, 0, 0, 0}},
{{ 0, 0, 0, 0, 0},
{ 0, 0, 0, 0, 0},
{ 0, 0, 0, 0, 0},
{ 0, 0, 0, 0, 0},
{ 0, 0, 0, 0, 0}},
{{ 0, 0, 0, 0, 0},
{ 0, 0, 0, 0, 0},
{ 0, 0, 0, 0, 0},
{ 0, 0, 0, 0, 0},
{ 0, 0, 0, 0, 0}},
{{ 0, 0, 0, 0, 0},
{ 0, 0, 0, 0, 0},
{ 0, 0, 0, 0, 0},
{ 0, 0, 0, 0, 0},
{ 0, 0, 0, 0, 0}},
{{ 0, 0, 0, 0, 0},
{ 0, 0, 0, 0, 0},
{ 0, 0, 0, 0, 0},
{ 0, 0, 0, 0, 0},
{ 0, 0, 0, 0, 0}},
{{ 0, 0, 0, 0, 0},
{ 0, 0, 0, 0, 0},
{ 0, 0, 0, 0, 0},
{ 0, 0, 0, 0, 0},
{ 0, 0, 0, 0, 0}},
{{ 0, 0, 0, 0, 0},
{ 0, 0, 0, 0, 0},
{ 0, 0, 0, 0, 0},
{ 0, 0, 0, 0, 0},
{ 0, 0, 0, 0, 0}},
{{ 0, 0, 0, 0, 0},
{ 0, 0, 0, 0, 0},
{ 0, 0, 0, 0, 0},
{ 0, 0, 0, 0, 0},
{ 0, 0, 0, 0, 0}},
{{ 0, 0, 0, 0, 0},
{ 0, 0, 0, 0, 0},
{ 0, 0, 0, 0, 0},
{ 0, 0, 0, 0, 0},
{ 0, 0, 0, 0, 0}},
{{ 0, 0, 0, 0, 0},
{ 0, 0, 0, 0, 0},
{ 0, 0, 0, 0, 0},
{ 0, 0, 0, 0, 0},
{ 0, 0, 0, 0, 0}},
{{ 0, 0, 0, 0, 0},
{ 0, 0, 0, 0, 0},
{ 0, 0, 0, 0, 0},
{ 0, 0, 0, 0, 0},
{ 0, 0, 0, 0, 0}},
{{ 0, 0, 0, 0, 0},
{ 0, 0, 0, 0, 0},
{ 0, 0, 0, 0, 0},
{ 0, 0, 0, 0, 0},
{ 0, 0, 0, 0, 0}},
{{ 0, 0, 0, 0, 0},
{ 0, 0, 0, 0, 0},
{ 0, 0, 0, 0, 0},
{ 0, 0, 0, 0, 0},
{ 0, 0, 0, 0, 0}},
{{ 0, 0, 0, 0, 0},
{ 0, 0, 0, 0, 0},
{ 0, 0, 0, 0, 0},
{ 0, 0, 0, 0, 0},
{ 0, 0, 0, 0, 0}}},
{{{ 0, 0, 0, 0, 0},
{ 0, 0, 0, 0, 0},
{ 0, 0, 0, 0, 0},
{ 0, 0, 0, 0, 0},
{ 0, 0, 0, 0, 0}},
{{ 0, 0, 0, 0, 0},
{ 0, 0, 0, 0, 0},
{ 0, 0, 0, 0, 0},
{ 0, 0, 0, 0, 0},
{ 0, 0, 0, 0, 0}},
{{ 0, 0, 0, 0, 0},
{ 0, 0, 0, 0, 0},
{ 0, 0, 0, 0, 0},
{ 0, 0, 0, 0, 0},
{ 0, 0, 0, 0, 0}},
{{ 0, 0, 0, 0, 0},
{ 0, 0, 0, 0, 0},
{ 0, 0, 0, 0, 0},
{ 0, 0, 0, 0, 0},
{ 0, 0, 0, 0, 0}},
{{ 0, 0, 0, 0, 0},
{ 0, 0, 0, 0, 0},
{ 0, 0, 0, 0, 0},
{ 0, 0, 0, 0, 0},
{ 0, 0, 0, 0, 0}},
{{ 0, 0, 0, 0, 0},
{ 0, 0, 0, 0, 0},
{ 0, 0, 0, 0, 0},
{ 0, 0, 0, 0, 0},
{ 0, 0, 0, 0, 0}},
{{ 0, 0, 0, 0, 0},
{ 0, 0, 0, 0, 0},
{ 0, 0, 0, 0, 0},
{ 0, 0, 0, 0, 0},
{ 0, 0, 0, 0, 0}},
{{ 0, 0, 0, 0, 0},
{ 0, 0, 0, 0, 0},
{ 0, 0, 0, 0, 0},
{ 0, 0, 0, 0, 0},
{ 0, 0, 0, 0, 0}},
{{ 0, 0, 0, 0, 0},
{ 0, 0, 0, 0, 0},
{ 0, 0, 0, 0, 0},
{ 0, 0, 0, 0, 0},
{ 0, 0, 0, 0, 0}},
{{ 0, 0, 0, 0, 0},
{ 0, 0, 0, 0, 0},
{ 0, 0, 0, 0, 0},
{ 0, 0, 0, 0, 0},
{ 0, 0, 0, 0, 0}},
{{ 0, 0, 0, 0, 0},
{ 0, 0, 0, 0, 0},
{ 0, 0, 0, 0, 0},
{ 0, 0, 0, 0, 0},
{ 0, 0, 0, 0, 0}},
{{ 0, 0, 0, 0, 0},
{ 0, 0, 0, 0, 0},
{ 0, 0, 0, 0, 0},
{ 0, 0, 0, 0, 0},
{ 0, 0, 0, 0, 0}},
{{ 0, 0, 0, 0, 0},
{ 0, 0, 0, 0, 0},
{ 0, 0, 0, 0, 0},
{ 0, 0, 0, 0, 0},
{ 0, 0, 0, 0, 0}},
{{ 0, 0, 0, 0, 0},
{ 0, 0, 0, 0, 0},
{ 0, 0, 0, 0, 0},
{ 0, 0, 0, 0, 0},
{ 0, 0, 0, 0, 0}},
{{ 0, 0, 0, 0, 0},
{ 0, 0, 0, 0, 0},
{ 0, 0, 0, 0, 0},
{ 0, 0, 0, 0, 0},
{ 0, 0, 0, 0, 0}},
{{ 0, 0, 0, 0, 0},
{ 0, 0, 0, 0, 0},
{ 0, 0, 0, 0, 0},
{ 0, 0, 0, 0, 0},
{ 0, 0, 0, 0, 0}}},
{{{ 0, 0, 0, 0, 0},
{ 0, 0, 0, 0, 0},
{ 0, 0, 0, 0, 0},
{ 0, 0, 0, 0, 0},
{ 0, 0, 0, 0, 0}},
{{ 0, 0, 0, 0, 0},
{ 0, 0, 0, 0, 0},
{ 0, 0, 0, 0, 0},
{ 0, 0, 0, 0, 0},
{ 0, 0, 0, 0, 0}},
{{ 0, 0, 0, 0, 0},
{ 0, 0, 0, 0, 0},
{ 0, 0, 0, 0, 0},
{ 0, 0, 0, 0, 0},
{ 0, 0, 0, 0, 0}},
{{ 0, 0, 0, 0, 0},
{ 0, 0, 0, 0, 0},
{ 0, 0, 0, 0, 0},
{ 0, 0, 0, 0, 0},
{ 0, 0, 0, 0, 0}},
{{ 0, 0, 0, 0, 0},
{ 0, 0, 0, 0, 0},
{ 0, 0, 0, 0, 0},
{ 0, 0, 0, 0, 0},
{ 0, 0, 0, 0, 0}},
{{ 0, 0, 0, 0, 0},
{ 0, 0, 0, 0, 0},
{ 0, 0, 0, 0, 0},
{ 0, 0, 0, 0, 0},
{ 0, 0, 0, 0, 0}},
{{ 0, 0, 0, 0, 0},
{ 0, 0, 0, 0, 0},
{ 0, 0, 0, 0, 0},
{ 0, 0, 0, 0, 0},
{ 0, 0, 0, 0, 0}},
{{ 0, 0, 0, 0, 0},
{ 0, 0, 0, 0, 0},
{ 0, 0, 0, 0, 0},
{ 0, 0, 0, 0, 0},
{ 0, 0, 0, 0, 0}},
{{ 0, 0, 0, 0, 0},
{ 0, 0, 0, 0, 0},
{ 0, 0, 0, 0, 0},
{ 0, 0, 0, 0, 0},
{ 0, 0, 0, 0, 0}},
{{ 0, 0, 0, 0, 0},
{ 0, 0, 0, 0, 0},
{ 0, 0, 0, 0, 0},
{ 0, 0, 0, 0, 0},
{ 0, 0, 0, 0, 0}},
{{ 0, 0, 0, 0, 0},
{ 0, 0, 0, 0, 0},
{ 0, 0, 0, 0, 0},
{ 0, 0, 0, 0, 0},
{ 0, 0, 0, 0, 0}},
{{ 0, 0, 0, 0, 0},
{ 0, 0, 0, 0, 0},
{ 0, 0, 0, 0, 0},
{ 0, 0, 0, 0, 0},
{ 0, 0, 0, 0, 0}},
{{ 0, 0, 0, 0, 0},
{ 0, 0, 0, 0, 0},
{ 0, 0, 0, 0, 0},
{ 0, 0, 0, 0, 0},
{ 0, 0, 0, 0, 0}},
{{ 0, 0, 0, 0, 0},
{ 0, 0, 0, 0, 0},
{ 0, 0, 0, 0, 0},
{ 0, 0, 0, 0, 0},
{ 0, 0, 0, 0, 0}},
{{ 0, 0, 0, 0, 0},
{ 0, 0, 0, 0, 0},
{ 0, 0, 0, 0, 0},
{ 0, 0, 0, 0, 0},
{ 0, 0, 0, 0, 0}},
{{ 0, 0, 0, 0, 0},
{ 0, 0, 0, 0, 0},
{ 0, 0, 0, 0, 0},
{ 0, 0, 0, 0, 0},
{ 0, 0, 0, 0, 0}}},
{{{ 0, 0, 0, 0, 0},
{ 0, 0, 0, 0, 0},
{ 0, 0, 0, 0, 0},
{ 0, 0, 0, 0, 0},
{ 0, 0, 0, 0, 0}},
{{ 0, 0, 0, 0, 0},
{ 0, 0, 0, 0, 0},
{ 0, 0, 0, 0, 0},
{ 0, 0, 0, 0, 0},
{ 0, 0, 0, 0, 0}},
{{ 0, 0, 0, 0, 0},
{ 0, 0, 0, 0, 0},
{ 0, 0, 0, 0, 0},
{ 0, 0, 0, 0, 0},
{ 0, 0, 0, 0, 0}},
{{ 0, 0, 0, 0, 0},
{ 0, 0, 0, 0, 0},
{ 0, 0, 0, 0, 0},
{ 0, 0, 0, 0, 0},
{ 0, 0, 0, 0, 0}},
{{ 0, 0, 0, 0, 0},
{ 0, 0, 0, 0, 0},
{ 0, 0, 0, 0, 0},
{ 0, 0, 0, 0, 0},
{ 0, 0, 0, 0, 0}},
{{ 0, 0, 0, 0, 0},
{ 0, 0, 0, 0, 0},
{ 0, 0, 0, 0, 0},
{ 0, 0, 0, 0, 0},
{ 0, 0, 0, 0, 0}},
{{ 0, 0, 0, 0, 0},
{ 0, 0, 0, 0, 0},
{ 0, 0, 0, 0, 0},
{ 0, 0, 0, 0, 0},
{ 0, 0, 0, 0, 0}},
{{ 0, 0, 0, 0, 0},
{ 0, 0, 0, 0, 0},
{ 0, 0, 0, 0, 0},
{ 0, 0, 0, 0, 0},
{ 0, 0, 0, 0, 0}},
{{ 0, 0, 0, 0, 0},
{ 0, 0, 0, 0, 0},
{ 0, 0, 0, 0, 0},
{ 0, 0, 0, 0, 0},
{ 0, 0, 0, 0, 0}},
{{ 0, 0, 0, 0, 0},
{ 0, 0, 0, 0, 0},
{ 0, 0, 0, 0, 0},
{ 0, 0, 0, 0, 0},
{ 0, 0, 0, 0, 0}},
{{ 0, 0, 0, 0, 0},
{ 0, 0, 0, 0, 0},
{ 0, 0, 0, 0, 0},
{ 0, 0, 0, 0, 0},
{ 0, 0, 0, 0, 0}},
{{ 0, 0, 0, 0, 0},
{ 0, 0, 0, 0, 0},
{ 0, 0, 0, 0, 0},
{ 0, 0, 0, 0, 0},
{ 0, 0, 0, 0, 0}},
{{ 0, 0, 0, 0, 0},
{ 0, 0, 0, 0, 0},
{ 0, 0, 0, 0, 0},
{ 0, 0, 0, 0, 0},
{ 0, 0, 0, 0, 0}},
{{ 0, 0, 0, 0, 0},
{ 0, 0, 0, 0, 0},
{ 0, 0, 0, 0, 0},
{ 0, 0, 0, 0, 0},
{ 0, 0, 0, 0, 0}},
{{ 0, 0, 0, 0, 0},
{ 0, 0, 0, 0, 0},
{ 0, 0, 0, 0, 0},
{ 0, 0, 0, 0, 0},
{ 0, 0, 0, 0, 0}},
{{ 0, 0, 0, 0, 0},
{ 0, 0, 0, 0, 0},
{ 0, 0, 0, 0, 0},
{ 0, 0, 0, 0, 0},
{ 0, 0, 0, 0, 0}}},
{{{ 0, 0, 0, 0, 0},
{ 0, 0, 0, 0, 0},
{ 0, 0, 0, 0, 0},
{ 0, 0, 0, 0, 0},
{ 0, 0, 0, 0, 0}},
{{ 0, 0, 0, 0, 0},
{ 0, 0, 0, 0, 0},
{ 0, 0, 0, 0, 0},
{ 0, 0, 0, 0, 0},
{ 0, 0, 0, 0, 0}},
{{ 0, 0, 0, 0, 0},
{ 0, 0, 0, 0, 0},
{ 0, 0, 0, 0, 0},
{ 0, 0, 0, 0, 0},
{ 0, 0, 0, 0, 0}},
{{ 0, 0, 0, 0, 0},
{ 0, 0, 0, 0, 0},
{ 0, 0, 0, 0, 0},
{ 0, 0, 0, 0, 0},
{ 0, 0, 0, 0, 0}},
{{ 0, 0, 0, 0, 0},
{ 0, 0, 0, 0, 0},
{ 0, 0, 0, 0, 0},
{ 0, 0, 0, 0, 0},
{ 0, 0, 0, 0, 0}},
{{ 0, 0, 0, 0, 0},
{ 0, 0, 0, 0, 0},
{ 0, 0, 0, 0, 0},
{ 0, 0, 0, 0, 0},
{ 0, 0, 0, 0, 0}},
{{ 0, 0, 0, 0, 0},
{ 0, 0, 0, 0, 0},
{ 0, 0, 0, 0, 0},
{ 0, 0, 0, 0, 0},
{ 0, 0, 0, 0, 0}},
{{ 0, 0, 0, 0, 0},
{ 0, 0, 0, 0, 0},
{ 0, 0, 0, 0, 0},
{ 0, 0, 0, 0, 0},
{ 0, 0, 0, 0, 0}},
{{ 0, 0, 0, 0, 0},
{ 0, 0, 0, 0, 0},
{ 0, 0, 0, 0, 0},
{ 0, 0, 0, 0, 0},
{ 0, 0, 0, 0, 0}},
{{ 0, 0, 0, 0, 0},
{ 0, 0, 0, 0, 0},
{ 0, 0, 0, 0, 0},
{ 0, 0, 0, 0, 0},
{ 0, 0, 0, 0, 0}},
{{ 0, 0, 0, 0, 0},
{ 0, 0, 0, 0, 0},
{ 0, 0, 0, 0, 0},
{ 0, 0, 0, 0, 0},
{ 0, 0, 0, 0, 0}},
{{ 0, 0, 0, 0, 0},
{ 0, 0, 0, 0, 0},
