weights[120][16][5][5] = {{{{ -0.26494598388671875, -0.3554571568965912, 0.05313776433467865, -0.21486671268939972, -0.10555955767631531},
{ -0.37656763195991516, -0.16933539509773254, 0.02170231007039547, -0.0877365842461586, -0.08788569271564484},
{ -0.1903718113899231, -0.09534130990505219, -0.17585350573062897, 0.009920971468091011, 0.2511824667453766},
{ -0.25168219208717346, -0.1585131138563156, -0.11031483113765717, 0.052223216742277145, 0.19502955675125122},
{ -0.16122715175151825, -0.08724339306354523, -0.2899229824542999, -0.13003405928611755, 0.2015375792980194}},
{{ 0.16345280408859253, 0.17045006155967712, 0.05882740020751953, 0.04185717925429344, -0.0802006796002388},
{ 0.039432886987924576, -0.043667104095220566, -0.1638256013393402, -0.12268815189599991, 0.08981455117464066},
{ 0.16628846526145935, 0.04091274365782738, 0.12534299492835999, 0.3194163143634796, 0.2042437344789505},
{ 0.2650288939476013, 0.007869895547628403, 0.010453252121806145, -0.31748825311660767, -0.31445571780204773},
{ 0.09330176562070847, 0.10727399587631226, -0.02207811549305916, -0.027866167947649956, -0.19511541724205017}},
{{ -0.05530674383044243, -0.054972998797893524, -0.02928280644118786, -0.04486581310629845, -0.10549435019493103},
{ 0.11187389492988586, 0.09041719883680344, 0.04440853372216225, 0.1682172417640686, 0.23601727187633514},
{ -0.08506482094526291, -0.006627124268561602, -0.028811493888497353, 0.05724768713116646, -0.2205687165260315},
{ -0.004421845078468323, -0.2482149600982666, -0.05647503212094307, 0.13128291070461273, -0.016281109303236008},
{ -0.060408785939216614, 0.09338797628879547, -0.046623293310403824, -0.06269969791173935, -0.15547682344913483}},
{{ -0.028971554711461067, -0.2304830104112625, -0.1342228651046753, -0.05439190939068794, -0.1268925964832306},
{ -0.14648735523223877, -0.12872649729251862, -0.12017739564180374, -0.03841632604598999, 0.3232094645500183},
{ -0.0033233724534511566, 0.0837484672665596, -0.006568822078406811, 0.05460254102945328, -0.3558012843132019},
{ 0.09310813993215561, 0.02148071490228176, 0.05634636804461479, 0.13091403245925903, -0.016868574544787407},
{ 0.19067949056625366, -0.03604261577129364, 0.041266173124313354, 0.20629259943962097, -0.03716115653514862}},
{{ -0.16414235532283783, -0.16881656646728516, -0.3590669333934784, -0.2503224015235901, 0.012396042235195637},
{ -0.03307339921593666, 0.08911685645580292, -0.13481822609901428, -0.17426009476184845, -0.22205282747745514},
{ -0.001957878703251481, 0.16922089457511902, 0.15138575434684753, -0.5379617214202881, -0.23776781558990479},
{ -0.11813495308160782, -0.1025366559624672, -0.03873469680547714, -0.018975879997015, 0.06324709951877594},
{ 0.05256403237581253, 0.020913569256663322, 0.3452065587043762, 0.16935057938098907, 0.2843250036239624}},
{{ -0.1690508872270584, 0.23042593896389008, -0.14257492125034332, -0.11206702142953873, -0.086128830909729},
{ -0.2934930622577667, 0.057634785771369934, -0.1486055850982666, -0.07304336130619049, -0.3499774932861328},
{ 0.004155904520303011, -0.11993888765573502, -0.05823540687561035, 0.06041881814599037, 0.0845528170466423},
{ 0.04295546934008598, -0.12571173906326294, 0.024079320952296257, 0.07806873321533203, 0.043254658579826355},
{ 0.052886608988046646, -0.12429504841566086, -0.2557995915412903, 0.14463166892528534, 0.11226297169923782}},
{{ 0.008959491737186909, 0.020363401621580124, 0.12622565031051636, 0.12907761335372925, 0.2561708688735962},
{ 0.03585507720708847, 0.048427075147628784, -0.07882263511419296, 0.054886311292648315, 0.21325762569904327},
{ 0.11962021142244339, 0.01491907611489296, -0.03232039883732796, 0.055399339646101, -0.018761398270726204},
{ 0.2623170018196106, -0.01592029444873333, -0.21647818386554718, -0.169854998588562, -0.10092449188232422},
{ 0.1873663365840912, 0.0795954167842865, -0.008909224532544613, -0.1177063137292862, -0.09002858400344849}},
{{ 0.08184588700532913, 0.1088680773973465, 0.15241439640522003, 0.10233470052480698, 0.15833939611911774},
{ 0.1631462424993515, -0.14454594254493713, 0.021302595734596252, 0.19062569737434387, 0.17805595695972443},
{ 0.035375598818063736, 0.04352624714374542, -0.09374409168958664, -0.04110204428434372, 0.00015699618961662054},
{ -0.1737048327922821, 0.09871983528137207, -0.06650146096944809, 0.03130433335900307, -0.24438370764255524},
{ 0.2727118730545044, -0.07688698917627335, -0.25428351759910583, 0.11383944749832153, 0.043373893946409225}},
{{ -0.13959990441799164, -0.026879919692873955, 0.027470000088214874, 0.006537768989801407, 0.06909441947937012},
{ 0.04270084574818611, 0.22710347175598145, 0.040400851517915726, 0.21264640986919403, 0.27155303955078125},
{ 0.06892985850572586, -0.1959557831287384, 0.14875328540802002, 0.061295781284570694, -0.28761908411979675},
{ -0.006639572791755199, -0.03701058030128479, -0.03715706244111061, 0.10680052638053894, 0.0238327719271183},
{ -0.34462976455688477, -0.11943633109331131, -0.10532822459936142, -0.07869596034288406, -0.29336217045783997}},
{{ 0.08645785599946976, 0.006816603243350983, 0.13378053903579712, 0.21622395515441895, 0.21837279200553894},
{ 0.15073613822460175, -0.008589313365519047, 0.03120068833231926, -0.21294239163398743, 0.17291735112667084},
{ 0.2486291229724884, 0.27066826820373535, 0.10803302377462387, 0.10914012789726257, 0.06825421005487442},
{ 0.1981613039970398, 0.1937628984451294, 0.03264934569597244, 0.04160149022936821, -0.12778709828853607},
{ -0.05906393378973007, -0.07861926406621933, -0.003016457427293062, -0.19324898719787598, -0.43272942304611206}},
{{ -0.2231462299823761, -0.27966299653053284, -0.0263756662607193, 0.009730448946356773, -0.13763099908828735},
{ -0.34207549691200256, -0.15087483823299408, -0.03935611993074417, 0.13049016892910004, -0.06283338367938995},
{ -0.2822788655757904, -0.0732032060623169, -0.07485353201627731, 0.10151119530200958, -0.0920180156826973},
{ -0.05238166078925133, -0.15793514251708984, -0.03220672532916069, 0.04598141834139824, 0.052009984850883484},
{ 0.12438146024942398, -0.08823397010564804, -0.19593700766563416, 0.04491056129336357, 0.08635523915290833}},
{{ 0.2096625119447708, -0.09970720112323761, -0.08744242042303085, -0.18905340135097504, -0.04121502488851547},
{ -0.029611073434352875, -0.03904353082180023, -0.004317102953791618, 0.08456718921661377, 0.18861916661262512},
{ -0.06788238883018494, -0.06166508421301842, 0.0391768142580986, 0.12714120745658875, 0.20586392283439636},
{ 0.008173862472176552, 0.09464084357023239, -0.12157468497753143, -0.2815973460674286, -0.05930208042263985},
{ -0.14992888271808624, 0.05676538497209549, -0.1452505737543106, 0.036704931408166885, 0.2947022020816803}},
{{ -0.07322461158037186, 0.0778893381357193, 0.07045219838619232, 0.15425926446914673, 0.4161553382873535},
{ 0.1788244992494583, -0.07745818793773651, -0.07082972675561905, -0.2782110869884491, -0.4278707206249237},
{ -0.02962254174053669, -0.24521152675151825, 0.01372025441378355, -0.08925928175449371, -0.13853572309017181},
{ -0.13424305617809296, -0.3188769519329071, -0.043365124613046646, 0.05870958790183067, 0.1621318757534027},
{ -0.09983859211206436, -0.006520571652799845, 0.051915090531110764, 0.006678178906440735, -0.14671050012111664}},
{{ -0.045362457633018494, 0.17622625827789307, -0.1000412255525589, -0.21697866916656494, -0.050050314515829086},
{ -0.14477947354316711, 0.030934657901525497, -0.017955871298909187, 0.08126377314329147, -0.16823796927928925},
{ -0.010351471602916718, -0.11320629715919495, -0.001912599545903504, -0.014225941151380539, 0.09165528416633606},
{ 0.06613023579120636, -0.06296999007463455, -0.13613803684711456, -0.1944262683391571, -0.15011873841285706},
{ -0.029128393158316612, -0.02305249124765396, -0.24558016657829285, -0.19468922913074493, -0.16289879381656647}},
{{ 0.01010910701006651, 0.06750946491956711, 0.03891358524560928, 0.036180853843688965, 0.02504073642194271},
{ 0.1275199055671692, 0.15783075988292694, 0.09073011577129364, 0.12975341081619263, 0.3121150732040405},
{ -0.0005334641900844872, 0.16899816691875458, 0.17225904762744904, 0.17102403938770294, -0.008869636803865433},
{ 0.1478293389081955, 0.08988609164953232, -0.21484524011611938, -0.4301007390022278, -0.371772825717926},
{ -0.11356990039348602, 0.057816848158836365, -0.024733876809477806, -0.08776459097862244, -0.28650254011154175}},
{{ -0.03345301374793053, 0.042860548943281174, 0.07432594150304794, 0.03090789169073105, -0.006912584416568279},
{ -0.131425142288208, 0.021149320527911186, -0.02823888696730137, 0.06274133175611496, 0.009158778004348278},
{ 0.13520614802837372, -0.04065627604722977, -0.38651221990585327, 0.05738900974392891, -0.028460023924708366},
{ 0.5176914930343628, 0.3553297519683838, -0.055104874074459076, 0.004482812713831663, -0.09517268091440201},
{ 0.09234901517629623, -0.033416491001844406, -0.1314883679151535, -0.11018981039524078, 0.09912494570016861}}},
{{{ -0.08380899578332901, -0.4206830859184265, 0.2775057554244995, 0.2607407569885254, 0.037519022822380066},
{ -0.0706658661365509, -0.043167561292648315, -0.10522271692752838, 0.18196387588977814, 0.10145067423582077},
{ -0.32029294967651367, -0.06083853915333748, -0.14211241900920868, -0.014355544000864029, 0.055729299783706665},
{ -0.45094525814056396, 0.07875258475542068, -0.03533224016427994, 0.04991266503930092, 0.00044095993507653475},
{ -0.01887589693069458, -0.07499057054519653, -0.3404887616634369, -0.08282376080751419, -0.14354479312896729}},
{{ 0.3003479242324829, -0.0897306352853775, 0.0019455710425972939, -0.02520713023841381, -0.24089887738227844},
{ 0.413794606924057, -0.1299951821565628, -0.1687173843383789, -0.0748322531580925, -0.20947284996509552},
{ 0.18893904983997345, -0.019887492060661316, 0.11461450904607773, 0.27571335434913635, 0.14625920355319977},
{ 0.10646332800388336, 0.18751655519008636, 0.029595058411359787, -0.05778069049119949, -0.01937008649110794},
{ -0.0905829519033432, 0.014211133122444153, -0.026619432494044304, -0.034744054079055786, -0.0202102642506361}},
{{ 0.2116946578025818, 0.09765593707561493, 0.05947169288992882, -0.12287212163209915, -0.34277114272117615},
{ -0.1089792400598526, -0.1312517672777176, 0.04371761530637741, 0.08538501709699631, -0.13868583738803864},
{ -0.09276336431503296, -0.05999455228447914, -0.018093205988407135, -0.12088767439126968, -0.08002334833145142},
{ -0.17952169477939606, -0.17569755017757416, -0.2009868323802948, 0.09775658696889877, 0.03896820917725563},
{ 0.16141414642333984, 0.27075886726379395, 0.12226229906082153, 0.16218575835227966, 0.0543968640267849}},
{{ 0.017646202817559242, -0.11736713349819183, -0.07533132284879684, -0.14681607484817505, -0.422297865152359},
{ -0.00245860917493701, 0.03635675460100174, 0.2038133442401886, 0.1641656905412674, 0.2151685208082199},
{ -0.027548305690288544, 0.04387306049466133, 0.14957153797149658, 0.18195393681526184, -0.04167519509792328},
{ -0.10979573428630829, -0.14690549671649933, 0.08053477853536606, 0.0617159940302372, 0.12651501595973969},
{ -0.12179779261350632, -0.31124743819236755, 0.12206840515136719, 0.07495895773172379, 0.07226724922657013}},
{{ -0.032810211181640625, -0.2729283571243286, -0.6465091705322266, -0.41655853390693665, -0.0484713539481163},
{ 0.08679696172475815, 0.04914701730012894, 0.13375769555568695, 0.03364138677716255, 0.22243604063987732},
{ 0.16306380927562714, 0.04561339318752289, -0.09277815371751785, -0.003663536859676242, -0.01476343534886837},
{ 0.20092186331748962, -0.16837695240974426, -0.09845636039972305, -0.15686404705047607, -0.10803092271089554},
{ 0.17684754729270935, 0.011573863215744495, -0.07073476165533066, -0.2677053213119507, -0.14417292177677155}},
{{ -0.21981117129325867, -0.04405197873711586, 0.1696198731660843, 0.18492138385772705, 0.034245774149894714},
{ -0.49290037155151367, -0.22575916349887848, 0.08745422214269638, 0.2556372582912445, -0.15684577822685242},
{ -0.18635627627372742, -0.15363667905330658, -0.14362499117851257, -0.002581749577075243, 0.04181612282991409},
{ 0.04255416989326477, 0.08252400159835815, -0.09887189418077469, 0.027744675055146217, -0.03339272737503052},
{ 0.16079804301261902, 0.07399143278598785, 0.1990683674812317, 0.05403238534927368, 0.26619094610214233}},
{{ 0.001725903945043683, -0.04087170213460922, 0.01942969113588333, -0.022842802107334137, -6.255941116251051e-05},
{ 0.06473486870527267, -0.09855592995882034, 0.04974234849214554, -0.09734316170215607, 0.055873408913612366},
{ 0.0855792835354805, -0.14660795032978058, -0.274334192276001, -0.26247331500053406, 0.11160805821418762},
{ -0.02517375908792019, -0.14929555356502533, 0.23371711373329163, -0.030558662489056587, -0.04356503114104271},
{ 0.06280812621116638, -0.08457551896572113, 0.10618086159229279, -0.1051495373249054, -0.09852370619773865}},
{{ 0.09382706135511398, 0.13272586464881897, -0.008759324438869953, -0.2468271553516388, -0.26407334208488464},
{ 0.06610911339521408, 0.1860663741827011, -0.1808810532093048, -0.028513889759778976, -0.016034478321671486},
{ 0.02443140186369419, 0.17059649527072906, 0.15830601751804352, 0.13939040899276733, 0.12319149076938629},
{ -0.2008599191904068, 0.12955725193023682, 0.04631328955292702, 0.10403542220592499, -0.07383649796247482},
{ 0.22580507397651672, 0.21106772124767303, 0.218541219830513, -0.06927765905857086, 0.11715095490217209}},
{{ -0.06366901844739914, 0.13892339169979095, 0.14789392054080963, 0.0548052154481411, -0.32961201667785645},
{ -0.28956538438796997, -0.012822410091757774, 0.023546410724520683, -0.24946019053459167, -0.10539382696151733},
{ 0.053806811571121216, -0.024638578295707703, 0.013148562051355839, -0.19956259429454803, -0.06374520808458328},
{ 0.12238959223031998, -0.1524958610534668, -0.03470718115568161, -0.040366169065237045, 0.14983360469341278},
{ 0.056807246059179306, -0.044129177927970886, 0.16529004275798798, 0.008687392808496952, 0.1532248705625534}},
{{ 0.0034555806778371334, 0.12769092619419098, 0.021866092458367348, -0.26349547505378723, -0.38662025332450867},
{ -0.0028416337445378304, 0.05191008374094963, -0.09771109372377396, -0.04001139476895332, -0.12445978075265884},
{ -0.044841352850198746, 0.16289524734020233, 0.12755359709262848, 0.07500246912240982, 0.12419147789478302},
{ -0.04765114188194275, 0.14406709372997284, 0.04169108718633652, 0.13756945729255676, 0.16074238717556},
{ 0.015136750414967537, -0.08196963369846344, -0.06542184203863144, -0.21433943510055542, 0.058431100100278854}},
{{ 0.06920960545539856, -0.27430015802383423, -0.19715416431427002, -0.019436044618487358, -0.17048710584640503},
{ -0.14935730397701263, 0.08841627836227417, -0.09972585737705231, 0.1615544706583023, 0.14133577048778534},
{ -0.2343369424343109, 0.054374344646930695, -0.23855720460414886, 0.04563464969396591, 0.06283363699913025},
{ 0.024153420701622963, -0.11650145798921585, -0.1945078819990158, -0.11046954244375229, 0.10333157330751419},
{ 0.045929476618766785, -0.1949608325958252, -0.10397392511367798, -0.09850752353668213, 0.029972271993756294}},
{{ 0.10901584476232529, -0.030918266624212265, -0.11576291918754578, -0.13741357624530792, -0.0621386393904686},
{ -0.16721761226654053, -0.07238833606243134, -0.024478012695908546, 0.026628760620951653, -0.08943144232034683},
{ -0.05411514639854431, 0.19927725195884705, 0.1460825651884079, 0.034495383501052856, -0.04444602131843567},
{ -0.1209738552570343, -0.08190949261188507, -0.04573725908994675, -0.008468909189105034, 0.17781098186969757},
{ 0.1769556850194931, 0.01299272570759058, 0.19074863195419312, 0.21465125679969788, -0.005128628574311733}},
{{ -0.09872283041477203, 0.11091149598360062, 0.08300850540399551, 0.08330885320901871, -0.04496651887893677},
{ 0.2196117490530014, 0.047229569405317307, 0.10643819719552994, -0.12373938411474228, -0.16191092133522034},
{ -0.2876836657524109, -0.26719608902931213, 0.011633150279521942, 0.05094120278954506, -0.1609770655632019},
{ -0.2125798761844635, -0.10245734453201294, 0.16941334307193756, -0.058107342571020126, -0.08122249692678452},
{ -0.09599406272172928, 0.004850889090448618, 0.09634681791067123, 0.2013184130191803, 0.17785002291202545}},
{{ -0.14933228492736816, 0.00907448772341013, 0.07716114073991776, 0.09329475462436676, -0.28617560863494873},
{ -0.10906043648719788, -0.22845663130283356, -0.09834155440330505, 0.09518176317214966, -0.09327137470245361},
{ -0.1400141417980194, 0.11275561898946762, 0.08291406184434891, 0.04261317104101181, -0.047565825283527374},
{ 0.10791357606649399, -0.018264245241880417, 0.011769452132284641, -0.07300876826047897, 0.2037498503923416},
{ 0.16938433051109314, 0.006032363977283239, -0.13811272382736206, -0.16600126028060913, 0.07342701405286789}},
{{ 0.1471802145242691, 0.1429441124200821, 0.09202562272548676, -0.18289129436016083, -0.4705817997455597},
{ 0.030977021902799606, 0.11608269810676575, -0.050877392292022705, -0.13911618292331696, -0.39342236518859863},
{ -0.05539160966873169, -0.027882734313607216, -0.015407024882733822, -0.11997446417808533, -0.06637203693389893},
{ -0.25031355023384094, 0.029602371156215668, 0.2177339494228363, 0.03614852949976921, 0.017221970483660698},
{ 0.023068567737936974, 0.03230355307459831, 0.04218050837516785, 0.043531786650419235, -0.03162979334592819}},
{{ -0.07295460999011993, 0.0034185503609478474, -0.015031357295811176, 0.013157210312783718, -0.04547135904431343},
{ -0.006198451388627291, -0.0095708342269063, -0.0822969451546669, 0.13570265471935272, -0.08173368126153946},
{ 0.2013423591852188, 0.03743179515004158, -0.04538893327116966, -0.21405866742134094, -0.19382831454277039},
{ 0.23032553493976593, 0.3880802392959595, 0.03771255910396576, 0.08176302909851074, 0.07642592489719391},
{ 0.23860323429107666, 0.2725111246109009, 0.10150185972452164, 0.07977235317230225, 0.18101727962493896}}},
{{{ -0.027103442698717117, 0.004409452434629202, 0.3708225190639496, -0.25932425260543823, -0.20366743206977844},
{ -0.205183207988739, 0.006637237034738064, 0.18216462433338165, -0.26804596185684204, -0.19546324014663696},
{ 0.1368369460105896, 0.2568091154098511, 0.13131989538669586, -0.16951194405555725, -0.1037713959813118},
{ 0.20359309017658234, -0.034964945167303085, 0.04517968371510506, -0.10911422967910767, -0.07756713777780533},
{ -0.07117338478565216, -0.07413092255592346, -0.2779857814311981, 0.024677088484168053, 0.1552458107471466}},
{{ -0.04616888239979744, -0.18755817413330078, 0.1445993036031723, 0.11156078428030014, 0.11603755503892899},
{ 0.021073326468467712, -0.0007913142326287925, 0.12140991538763046, -0.13812728226184845, -0.1379639208316803},
{ -0.06610651314258575, 0.033857982605695724, -0.10930801928043365, -0.026326775550842285, 0.0696650967001915},
{ 0.035411812365055084, -0.19689343869686127, -0.29393962025642395, -0.16793295741081238, 0.08783552050590515},
{ -0.16739407181739807, -0.15655970573425293, -0.08385390043258667, -0.009577450342476368, -0.10804674029350281}},
{{ -0.05072834715247154, -0.2576548159122467, 0.09527374058961868, -0.42645230889320374, -0.21167844533920288},
{ 0.012556021101772785, 0.3535803556442261, -0.1653514802455902, 0.18930014967918396, 0.18747559189796448},
{ -0.07779949903488159, 0.12354107201099396, 0.25897452235221863, -0.42441627383232117, -0.021947994828224182},
{ -0.16141711175441742, -0.20852239429950714, -0.047583699226379395, 0.03300028294324875, 0.07776321470737457},
{ -0.3659393787384033, -0.1357479840517044, -0.23129339516162872, -0.06756920367479324, 0.01596074365079403}},
{{ -0.2609434127807617, -0.14173784852027893, 0.08687824755907059, -0.029281971976161003, -0.46143853664398193},
{ -0.21634648740291595, 0.09631554782390594, -0.07488483935594559, -0.4095407724380493, 0.07186142355203629},
{ -0.053279370069503784, -0.18028025329113007, -0.34509292244911194, -0.1949428766965866, -0.024593975394964218},
{ 0.15341642498970032, -0.11902004480361938, -0.0663769468665123, -0.15779940783977509, 0.132433220744133},
{ 0.03817493095993996, -0.20385731756687164, -0.09621722251176834, -0.004215745255351067, 0.030287092551589012}},
{{ -0.27307435870170593, 0.029511209577322006, -0.07637340575456619, 0.23952196538448334, -0.2873077392578125},
{ -0.13403788208961487, 0.010048365220427513, -0.18148572742938995, 0.06420347094535828, -0.30299192667007446},
{ -0.14474132657051086, 0.01586473360657692, 0.09851241111755371, 0.28387317061424255, -0.11820115894079208},
{ -0.24225927889347076, 0.05371447280049324, 0.35451751947402954, 0.3036062717437744, -0.027171650901436806},
{ -0.19734130799770355, 0.04283057525753975, 0.2667190134525299, -0.019273484125733376, -0.0035831034183502197}},
{{ 0.03404240310192108, -0.045629844069480896, -0.23323801159858704, -0.25527259707450867, 0.07831048965454102},
{ -0.13371792435646057, 0.46853107213974, -0.028005633503198624, -0.16704656183719635, 0.1722036451101303},
{ -0.21376650035381317, 0.3127971589565277, 0.12785932421684265, 0.028444256633520126, 0.21631212532520294},
{ -0.15825845301151276, 0.09271525591611862, 0.1195652186870575, 0.07189030200242996, -0.03188059851527214},
{ -0.4426552653312683, -0.16560806334018707, -0.04876735433936119, 0.19331203401088715, 0.15621571242809296}},
{{ 0.018785972148180008, 0.014991886913776398, -0.24924114346504211, -0.09812218695878983, -0.14918437600135803},
{ 0.025160444900393486, -0.06679229438304901, -0.04816601797938347, 0.14021381735801697, -0.12548816204071045},
{ -0.06076515465974808, -0.06790556758642197, 0.3023269772529602, 0.23266054689884186, -0.16621056199073792},
{ -0.25419214367866516, -0.2508842647075653, -0.0027323553804308176, 0.17529164254665375, -0.06968233734369278},
{ -0.16838498413562775, -0.1607714146375656, -0.12529736757278442, -0.21632538735866547, -0.09007792174816132}},
{{ -0.06174522265791893, 0.06446767598390579, 0.371286541223526, 0.24083097279071808, 0.19958201050758362},
{ -0.06544420123100281, 0.10846539586782455, 0.33650869131088257, 0.10117683559656143, 0.11682232469320297},
{ -0.03721902519464493, -0.08650236576795578, -0.19405759871006012, 0.061730969697237015, -0.05258664861321449},
{ -0.08003471046686172, -0.04195709526538849, -0.10555589944124222, -0.002358523430302739, -0.22482281923294067},
{ 0.07466983795166016, 0.01493962574750185, 0.05440489202737808, -0.06964757293462753, -0.07915956526994705}},
{{ 0.2777426838874817, -0.2851993441581726, -0.10449564456939697, -0.15686650574207306, -0.21611256897449493},
{ 0.18055646121501923, 0.22711145877838135, 0.28776711225509644, 0.18702760338783264, 0.15593835711479187},
{ 0.13590511679649353, 0.13227221369743347, 0.08024592697620392, -0.07923990488052368, -0.21264876425266266},
{ -0.02654361166059971, -0.07058293372392654, -0.15342669188976288, -0.07575255632400513, 0.008445573039352894},
{ -0.18904809653759003, -0.15549102425575256, -0.1898629516363144, -0.06823189556598663, -0.14263148605823517}},
{{ 0.0953838974237442, -0.2428613156080246, -0.2209630012512207, -0.017468523234128952, -0.029532311484217644},
{ -0.14004679024219513, -0.030147619545459747, 0.3545856773853302, -0.036262642592191696, 0.07819244265556335},
{ -0.17670564353466034, -0.07803183794021606, 0.12223643809556961, -0.026954777538776398, -0.13687926530838013},
{ -0.3252727687358856, -0.18536598980426788, 0.051141850650310516, 0.2521025836467743, -0.06894459575414658},
{ -0.4180525243282318, -0.2718961536884308, -0.10717298835515976, -0.05384470522403717, 0.06849900633096695}},
{{ 0.18191008269786835, 0.13050080835819244, 0.3160647749900818, -0.18417495489120483, -0.2582835555076599},
{ -0.03153223544359207, 0.20269961655139923, 0.07740367949008942, -0.15544289350509644, 0.05467359721660614},
{ 0.008353135548532009, -0.00875197071582079, -0.07148002088069916, -0.21750882267951965, 0.23416119813919067},
{ 0.11703360825777054, 0.08809667080640793, -0.013152755796909332, -0.0828518271446228, 0.2428380846977234},
{ -0.09870736300945282, -0.3760078251361847, -0.11630081385374069, 0.1289966106414795, 0.17421528697013855}},
{{ -0.2435941845178604, -0.0344759076833725, -0.06149515509605408, -0.1451392024755478, 0.23118391633033752},
{ -0.03460037335753441, -0.07341429591178894, -0.031335778534412384, -0.10225261002779007, 0.27355825901031494},
{ 0.10317344218492508, -0.011840609833598137, -0.08691412955522537, 0.09531329572200775, 0.07400587201118469},
{ 0.023189008235931396, -0.08393358439207077, -0.24246621131896973, -0.051771245896816254, 0.0452946275472641},
{ -0.1620544046163559, -0.27736982703208923, -0.015948915854096413, 0.08895180374383926, 0.0671258196234703}},
{{ 0.21286924183368683, 0.09393206983804703, 0.03945010527968407, 0.11452788859605789, 0.2821820378303528},
{ 0.045366641134023666, -0.2680940330028534, 0.12888175249099731, 0.1981389820575714, 0.20357194542884827},
{ 0.10629738867282867, 0.10474369674921036, 0.3391081392765045, 0.2618635892868042, 0.39459750056266785},
{ -0.02981170266866684, -0.07516922801733017, 0.13400551676750183, 0.08763565868139267, -0.003948976285755634},
{ -0.18612244725227356, -0.06489575654268265, 0.12557965517044067, 0.2151075154542923, -0.12611526250839233}},
{{ -0.07899743318557739, -0.049315210431814194, -0.11712713539600372, -0.0734182819724083, 0.23973865807056427},
{ -0.24272774159908295, 0.21682345867156982, 0.17143751680850983, 0.26207685470581055, 0.28252118825912476},
{ -0.04819535091519356, 0.04182060807943344, -0.07200131565332413, 0.06080010160803795, 0.015990011394023895},
{ -0.32490456104278564, -0.04256569221615791, 0.1732952892780304, 0.27350467443466187, -0.08613429218530655},
{ -0.48244693875312805, -0.18861958384513855, -0.059096235781908035, 0.3014501929283142, 0.08182068169116974}},
{{ 0.12620173394680023, -0.04077509418129921, -0.20053298771381378, -0.10238387435674667, -0.07304742187261581},
{ -0.08267849683761597, -0.06690557301044464, -0.034614816308021545, 0.0004932568408548832, -0.05965818092226982},
{ -0.1977921575307846, 0.03413021191954613, -0.11014455556869507, 0.005751894786953926, -0.2907044589519501},
{ -0.1704784482717514, -0.1450328528881073, -0.041495807468891144, -0.10955692827701569, -0.06409011781215668},
{ -0.3010292649269104, -0.2395770400762558, 0.014353075064718723, -0.014484187588095665, -0.2198798954486847}},
{{ 0.03178563341498375, -0.054783113300800323, -0.0010605172719806433, -0.18466658890247345, -0.297876238822937},
{ 0.04635753855109215, 0.14732640981674194, 0.10925990343093872, -0.014656121842563152, -0.06838269531726837},
{ -0.2824256718158722, -0.28798967599868774, 0.14593766629695892, 0.3315114378929138, 0.1561976820230484},
{ -0.03789180517196655, -0.11206451803445816, 0.0602620393037796, 0.14841683208942413, 0.039933208376169205},
{ -0.2763880789279938, 0.010528229176998138, -0.12723544239997864, -0.10976777225732803, -0.05010942742228508}}},
{{{ 0.026981567963957787, -0.09915877133607864, 0.08822957426309586, -0.00575709342956543, 0.11455868929624557},
{ -0.302306592464447, -0.182209312915802, -0.06460664421319962, -0.18641173839569092, 0.005054006353020668},
{ 0.054982464760541916, 0.06848865747451782, 0.18095090985298157, -0.016583899036049843, -0.03670024871826172},
{ 0.0021531349048018456, -0.17103415727615356, -0.07285478711128235, 0.33241507411003113, -0.051556311547756195},
{ -0.09195733070373535, -0.17962205410003662, -0.18197645246982574, 0.06252133846282959, -0.1784645915031433}},
{{ 0.17780061066150665, -0.03180317580699921, -0.06179412454366684, -0.15125489234924316, -0.38370397686958313},
{ 0.0051340279169380665, -0.16564543545246124, 0.03610284626483917, -0.24750490486621857, -0.2853403389453888},
{ -0.1486213654279709, 0.13201060891151428, 0.17434532940387726, 0.13863056898117065, 0.0725455954670906},
{ -0.263428658246994, -0.2148721069097519, -0.1775170862674713, 0.007507560774683952, 0.1634543538093567},
{ -0.1846335381269455, -0.03529513627290726, 0.06899090111255646, 0.08791118860244751, 0.06994040310382843}},
{{ -0.09340091794729233, -0.252458393573761, -0.13512927293777466, 0.021089520305395126, -0.08154219388961792},
{ -0.052611708641052246, 0.046987708657979965, 0.16655965149402618, 0.09649794548749924, -0.06171289086341858},
{ -0.03123498149216175, -0.0978614091873169, 0.11053986847400665, 0.141360342502594, 0.02434619702398777},
{ -0.1878044605255127, -0.03550051525235176, 0.17915081977844238, 0.03713485598564148, -0.09203106164932251},
{ 0.2550499439239502, -0.03736235946416855, 0.047163527458906174, 0.03314334154129028, -0.3265925943851471}},
{{ -0.1655844748020172, -0.15537607669830322, -0.12925906479358673, -0.2538284361362457, -0.03855191171169281},
{ 0.04055654630064964, 0.10770031809806824, 0.09076803177595139, 0.18402433395385742, 0.006677142810076475},
{ -0.033933039754629135, 0.021274810656905174, 0.15354016423225403, 0.14582380652427673, 0.01297562662512064},
{ -0.15050233900547028, 0.011004935950040817, 0.007287998218089342, 0.007272775750607252, 0.03418513387441635},
{ -0.008735951036214828, -0.3853403627872467, -0.06966207921504974, -0.0685935690999031, -0.07658460736274719}},
{{ -0.30725333094596863, -0.12473476678133011, -0.1546533703804016, 0.22868919372558594, 0.005567845888435841},
{ -0.09846286475658417, 0.08471783250570297, 0.25599002838134766, -0.01258061546832323, 0.04069966450333595},
{ 0.1455267369747162, 0.27305516600608826, -0.04145774245262146, 0.2218753695487976, -0.11753761023283005},
{ 0.040863681584596634, -0.13039278984069824, -0.13420143723487854, 0.08622007817029953, 0.16685844957828522},
{ 0.07181065529584885, 0.06862729042768478, -0.041391246020793915, 0.028104839846491814, 0.138126939535141}},
{{ -0.22838535904884338, 0.10435226559638977, 0.26783469319343567, 0.03457809239625931, 0.11501147598028183},
{ -0.22649909555912018, -0.4305727481842041, -0.204612597823143, 0.08079306036233902, 0.05405491963028908},
{ -0.4732666611671448, -0.22045442461967468, 0.13963499665260315, 0.06232348829507828, 0.1277126967906952},
{ -0.11020343750715256, -0.11603926867246628, 0.20247270166873932, -0.04604494944214821, -0.037785764783620834},
{ -0.027328919619321823, -0.025827061384916306, 0.027682403102517128, -0.2791367769241333, -0.2810513377189636}},
{{ 0.26505032181739807, 0.3421291410923004, -0.04788688197731972, -0.4054180085659027, -0.33509361743927},
{ 0.055634431540966034, 0.12505072355270386, -0.1433672308921814, 0.17669926583766937, 0.22122159600257874},
{ 0.15918375551700592, 0.3257971405982971, -0.19585853815078735, -0.21231892704963684, -0.13479329645633698},
{ 0.12899036705493927, 0.21795403957366943, 0.12830610573291779, -0.20618939399719238, -0.18192821741104126},
{ 0.12906669080257416, 0.0009496615384705365, 0.10908053815364838, -0.2811432480812073, -0.510640561580658}},
{{ 0.011379309929907322, 0.06859907507896423, 0.09093578904867172, -0.01661565899848938, -0.3633173108100891},
{ -0.06794025748968124, 0.020344413816928864, 0.04911226034164429, 0.20264875888824463, 0.03734190762042999},
{ -0.008394608274102211, 0.14413760602474213, -0.04861481115221977, 0.021018365398049355, 0.05512615293264389},
{ -0.16651560366153717, -0.16401100158691406, -0.15004098415374756, -0.02086101658642292, 0.050029102712869644},
{ 0.21611371636390686, -0.1753786951303482, -0.01763952523469925, 0.11371246725320816, 0.14105822145938873}},
{{ -0.19892148673534393, -0.26669877767562866, -0.29014667868614197, -0.033626358956098557, -0.009606698527932167},
{ 0.07611819356679916, 0.016296489164233208, 0.2649134397506714, -0.0005590634536929429, -0.14148032665252686},
{ -0.04728404060006142, 0.004234231077134609, -0.00378210237249732, -0.08669061213731766, -0.04310369864106178},
{ -0.005730499513447285, -0.09044207632541656, -0.09177904576063156, -0.09608472883701324, -0.14022040367126465},
{ 0.1398627758026123, 0.04503605142235756, 0.10391166806221008, -0.1789923757314682, -0.18403629958629608}},
{{ 0.047936100512742996, 0.30977192521095276, 0.2707706391811371, -0.16149140894412994, -0.48510152101516724},
{ 0.049281489104032516, -0.0480075441300869, -0.3350481390953064, -0.08421529084444046, -0.1332181841135025},
{ -0.14926177263259888, 0.018054280430078506, -0.11920436471700668, -0.09227002412080765, -0.01713891327381134},
{ -0.05468088388442993, -0.10340581089258194, 0.02411174215376377, -0.2163115292787552, -0.11685438454151154},
{ -0.005895798094570637, 0.16773152351379395, 0.040692660957574844, -0.25534242391586304, -0.16228771209716797}},
{{ -0.045576512813568115, -0.2506331503391266, 0.02248544804751873, 0.12434274703264236, -0.05914435163140297},
{ -0.029995109885931015, -0.17067107558250427, 0.05518241971731186, 0.12448932975530624, 0.20717865228652954},
{ -0.009669485501945019, 0.06634972244501114, -0.018810508772730827, -0.09991646558046341, 0.08182861655950546},
{ -0.1206779032945633, 0.043433357030153275, 0.0380900613963604, -0.02324914000928402, 0.036204587668180466},
{ -0.217355415225029, -0.19823822379112244, 0.019072620198130608, -0.10506103187799454, -0.15229666233062744}},
{{ -0.06040970981121063, -0.43444621562957764, -0.10471738874912262, -0.04023335129022598, -0.13331471383571625},
{ -0.4015544354915619, -0.30166366696357727, -0.002404663944616914, 0.03720103204250336, 0.05642364174127579},
{ -0.14897768199443817, 0.0395144484937191, 0.3534286618232727, 0.18964995443820953, -0.038533393293619156},
{ -0.3200482726097107, -0.2335861474275589, 0.11135394126176834, 0.055874668061733246, 0.03321223706007004},
{ 0.04683375731110573, 0.08978814631700516, -0.08943823724985123, 0.10604334622621536, 0.03665284812450409}},
{{ 0.06589709222316742, 0.2872602343559265, 0.012835756875574589, 0.15577445924282074, 0.23495936393737793},
{ 0.00428092572838068, 0.2212955504655838, -0.1151963546872139, 0.1617565006017685, 0.1591501384973526},
{ 0.07779008895158768, -0.08263590186834335, -0.13736017048358917, -0.10075127333402634, 0.06589304655790329},
{ -0.17509804666042328, -0.35254982113838196, -0.09418882429599762, -0.0457305982708931, 0.031044907867908478},
{ 0.012503297068178654, -0.101862832903862, -0.08521653711795807, -0.23334762454032898, -0.07687342166900635}},
{{ -0.07803577929735184, 0.11434642970561981, 0.06494186818599701, 0.2213955968618393, 0.2004062980413437},
{ -0.37898319959640503, -0.14892643690109253, -0.10545218735933304, 0.0009508291259407997, -0.043134961277246475},
{ -0.4243634343147278, -0.01973843388259411, 0.18664242327213287, 0.1102917492389679, 0.32703351974487305},
{ -0.06435537338256836, 0.009228847920894623, -0.02335192821919918, -0.11361606419086456, -0.2709122598171234},
{ 0.1881413459777832, 0.03180944174528122, -0.25382739305496216, -0.2817972004413605, -0.25026893615722656}},
{{ 0.1659216731786728, 0.553939700126648, 0.22252853214740753, -0.15996739268302917, -0.5611186027526855},
{ 0.07467002421617508, 0.10341543704271317, 0.1340726763010025, -0.05987638607621193, -0.2592264413833618},
{ 0.13267642259597778, 0.21130940318107605, -0.00930285919457674, -0.3184792399406433, -0.36414965987205505},
{ -0.36113908886909485, -0.18866591155529022, -0.16297100484371185, -0.10004263371229172, -0.109183669090271},
{ 0.2834209203720093, 0.13748882710933685, 0.08646231144666672, -0.07416455447673798, -0.2442835569381714}},
{{ -0.10648361593484879, -0.09644176065921783, -0.04899922385811806, 0.11877084523439407, -0.02034563571214676},
{ 0.446938693523407, 0.2150537073612213, -0.06573830544948578, 0.04709586128592491, 0.30782800912857056},
{ -0.01579376682639122, -0.02533639781177044, -0.03622366487979889, -0.14637041091918945, -0.014374332502484322},
{ 0.10979338735342026, 0.09713075309991837, -0.05615910142660141, 0.0029852245934307575, -0.1925899237394333},
{ -0.014262496493756771, 0.17218787968158722, 0.034487225115299225, 0.12827344238758087, -0.21202287077903748}}},
{{{ -0.06314592808485031, -0.042338889092206955, -0.05026102811098099, -0.00040374111267738044, -0.018002772703766823},
{ 0.009183261543512344, -0.024974055588245392, 0.04124399647116661, -0.008183169178664684, 0.027598140761256218},
{ 0.026784906163811684, -0.042402591556310654, -0.0335785448551178, 0.016268134117126465, 0.03338893502950668},
{ -0.05648668855428696, -0.013017012737691402, -0.019223053008317947, 0.03322388604283333, 0.027687054127454758},
{ 0.022573107853531837, 0.013225669972598553, -0.018507475033402443, 0.03228805586695671, -0.03724417835474014}},
{{ 0.0024712085723876953, -0.013155855238437653, -0.0364752896130085, -0.02369433082640171, 0.012122996151447296},
{ -0.018307823687791824, -0.04696807265281677, -0.020191552117466927, 0.008635301142930984, -0.03498256951570511},
{ 0.016363292932510376, -0.05613047257065773, -0.013194767758250237, -0.05425127595663071, -0.058885496109724045},
{ -0.020037615671753883, 0.03153705596923828, 0.03342708945274353, 0.004133544396609068, 0.024943983182311058},
{ -0.041136275976896286, 0.014337516389787197, 0.016700180247426033, -0.06161695718765259, -0.052139125764369965}},
{{ 0.007754555903375149, -0.009226100519299507, -0.047688450664281845, -0.053292416036129, 0.022401293739676476},
{ -0.008376901037991047, -0.013952043838799, -0.06217603012919426, 0.030033785849809647, -0.046880122274160385},
{ 0.008507505990564823, -0.019845474511384964, -0.012213782407343388, 0.010708521120250225, -0.02715560793876648},
{ -0.027612684294581413, 0.02603960782289505, -0.05214715003967285, 0.00842511747032404, -0.02671772800385952},
{ -0.01670657843351364, 0.01968143880367279, -0.0053873369470238686, -0.06038330867886543, 0.03098270483314991}},
{{ -0.03855682536959648, 0.029494617134332657, -0.02950369007885456, 0.03493563458323479, 0.0009273792384192348},
{ -0.016254989430308342, 0.005276305601000786, -0.0015548542141914368, -0.03842739760875702, 0.013553792610764503},
{ 0.018605198711156845, -0.020074600353837013, 0.033216819167137146, -0.010668845847249031, -0.04021511971950531},
{ -0.04103785380721092, 0.019811933860182762, -0.03408325836062431, 0.01773369126021862, -0.048569679260253906},
{ -0.01205598097294569, -0.0483473539352417, 0.0038890293799340725, 0.026757577434182167, 0.019675593823194504}},
{{ -0.031001875177025795, -0.04690553620457649, -0.023690009489655495, -0.04270508512854576, 0.033954255282878876},
{ -0.02688315510749817, 0.019332673400640488, 0.02633785828948021, 0.004277236759662628, -0.04387528449296951},
{ -0.019511748105287552, -0.028670333325862885, 0.0183809082955122, -0.004690200090408325, -0.01631183922290802},
{ 0.030649395659565926, -0.001916192239150405, 0.00933479331433773, -0.016095459461212158, 0.018878813832998276},
{ -0.006624444853514433, -0.02389039658010006, -0.004209982231259346, -0.03935723751783371, -0.011984171345829964}},
{{ 0.009088369086384773, -0.06066169589757919, -0.04040326178073883, 0.01748189702630043, -0.012398793362081051},
{ -0.015463870018720627, -0.008734771981835365, -0.03628784790635109, 0.02749834768474102, -0.018782146275043488},
{ -0.018205493688583374, 0.012530702166259289, -0.055448099970817566, -0.023068353533744812, -0.008794079534709454},
{ -0.01551712304353714, 0.0272127203643322, -0.056527744978666306, -0.028258515521883965, -0.03484601527452469},
{ 0.03276127204298973, 0.0061317621730268, -0.05107371136546135, 0.005543363746255636, -0.014864434488117695}},
{{ 0.031928278505802155, 0.013750039041042328, -0.04303637146949768, 0.030801260843873024, -0.008942771703004837},
{ -0.025218406692147255, 0.0011104613076895475, 0.03583632409572601, 0.0012522463221102953, -0.062067098915576935},
{ -0.029599621891975403, 0.032762933522462845, -0.03138067200779915, -0.03785787150263786, -0.0536770299077034},
{ -0.041146907955408096, -0.04055533930659294, -0.0013444495853036642, 0.0062231821939349174, 0.03389507532119751},
{ 0.0328134261071682, 0.0007387995719909668, 0.026964794844388962, 0.014860142022371292, -0.05690861493349075}},
{{ 0.011428065598011017, -0.048029862344264984, 0.024778153747320175, -0.03557951748371124, -0.0034489529207348824},
{ -0.014372672885656357, 0.009355852380394936, -0.006065236404538155, -0.05010867118835449, 0.006412711925804615},
{ 0.015671854838728905, -0.0398700125515461, -0.04627476632595062, -0.04789170250296593, -0.038174476474523544},
{ -0.019835377112030983, -0.010092885233461857, -0.014185800217092037, -0.02707108110189438, 0.01718137599527836},
{ 0.002298566047102213, -0.04285293072462082, -0.027033166959881783, -0.043243408203125, -0.03148236870765686}},
{{ -0.061008621007204056, -0.005108596757054329, -0.0525871142745018, 0.005496219731867313, 0.020433643832802773},
{ -0.05097315460443497, -0.0401659719645977, -0.05334325507283211, -0.0004918784252367914, -0.0041460213251411915},
{ -0.03958245366811752, 0.01637328788638115, 0.006901955232024193, -0.05901683494448662, -0.01648920774459839},
{ -0.035235244780778885, -0.02247907593846321, 0.01400554645806551, -0.019074799492955208, -0.03472568467259407},
{ 0.021804295480251312, -0.059538714587688446, -0.031011011451482773, 0.005482928361743689, 0.044194456189870834}},
{{ 0.034685466438531876, -0.025588508695364, 0.0028529774863272905, -0.04391157254576683, -0.009729016572237015},
{ -0.02938595600426197, 0.0003533931158017367, -0.046597450971603394, -0.0029983599670231342, 0.02583174780011177},
{ 0.02527483180165291, -0.02224653959274292, 0.031871672719717026, -0.06103255972266197, -0.0279984213411808},
{ 0.018955741077661514, 0.012821320444345474, 0.01004184503108263, -0.046940647065639496, 0.01695043221116066},
{ -0.04692623019218445, -0.03428391367197037, -0.0034004077315330505, -0.06240639463067055, -0.061361927539110184}},
{{ -0.04438662528991699, 0.026529677212238312, -0.0028220033273100853, -0.029787136241793633, -0.015885397791862488},
{ -0.057387158274650574, -0.04722253233194351, -0.03486895561218262, -0.06221681833267212, 0.01905343122780323},
{ -0.01749654859304428, -0.013497211039066315, -0.04305728152394295, -0.005568144377321005, -0.02134537510573864},
{ -0.03403938561677933, 0.03205803409218788, 0.042145486921072006, -0.049487631767988205, 0.01449714694172144},
{ -0.008118845522403717, -0.00047205016016960144, 0.007437051739543676, -0.022965338081121445, 0.0424821712076664}},
{{ 0.016922103241086006, -0.046301309019327164, -0.04427248239517212, -0.06338297575712204, 0.0021797402296215296},
{ -0.051401536911726, -0.04190894961357117, -0.032048359513282776, -0.06326647847890854, -0.05453362688422203},
{ 0.03417019546031952, 0.014113015495240688, 0.030460771173238754, -0.038098979741334915, -0.0205075740814209},
{ -0.03131174296140671, -0.012846722267568111, -0.0497237965464592, -0.006508560385555029, -0.03204493969678879},
{ -0.005787352100014687, 0.03200121223926544, -0.005401136353611946, 0.02263464778661728, -0.03561045601963997}},
{{ -0.007056187838315964, -0.030873924493789673, -0.00554734468460083, -0.019889844581484795, -0.028389418497681618},
{ -0.062143560498952866, -0.03238660469651222, -0.0071502267383039, -0.008796025067567825, -0.04656725749373436},
{ 0.0237151887267828, 0.023231206461787224, -0.04398972541093826, 0.005082763731479645, 0.033200446516275406},
{ -0.0613134428858757, -0.058026429265737534, 0.013895130716264248, -0.0009903088212013245, 0.0021167276427149773},
{ -0.034613482654094696, -0.004780580289661884, 0.019316870719194412, -0.012232374399900436, -0.029970426112413406}},
{{ -0.06145665422081947, -0.0215634535998106, 0.01783481240272522, -0.061097823083400726, -0.0038623325526714325},
{ 0.022605478763580322, -0.028115250170230865, -0.03232099860906601, -0.028927821666002274, -0.02025785483419895},
{ -0.007816408760845661, -0.061981502920389175, 0.0052579306066036224, -0.026474639773368835, -0.02013588324189186},
{ -0.016099190339446068, 0.014094486832618713, -0.044905249029397964, -0.05934124439954758, -0.049856968224048615},
{ -0.05032460764050484, -0.03818507492542267, 0.02564842626452446, -0.05248939245939255, -0.04298941418528557}},
{{ -0.054606784135103226, -0.03896384313702583, -0.015229277312755585, -0.030488282442092896, 0.0005285032093524933},
{ 0.003049419494345784, -0.022354653105139732, 0.007726854644715786, 0.011473380029201508, 0.04830038920044899},
{ -0.016371021047234535, 0.029498443007469177, 0.0235819760710001, 0.01009625755250454, 0.014564274810254574},
{ -0.04730811342597008, -0.04732998088002205, 0.007509374991059303, 0.004349870607256889, 0.03143805265426636},
{ -0.006510037928819656, -0.009191446006298065, 0.020683402195572853, -0.01215940248221159, 0.03334676846861839}},
{{ -0.03934948518872261, -0.03025159239768982, -0.011685501784086227, 0.012821745127439499, -0.05767831206321716},
{ -0.013995803892612457, 0.036311957985162735, -0.0034026959910988808, 0.021502526476979256, -0.03078371472656727},
{ -0.045221615582704544, -0.03413540869951248, -0.028111523017287254, -0.051417022943496704, 0.010934955440461636},
{ -0.00030954997055232525, -0.03199122101068497, 0.045829836279153824, 0.00040743660065345466, 0.004801769740879536},
{ -0.034848734736442566, 0.020875152200460434, -0.04909617453813553, 0.022624077275395393, -0.040372345596551895}}},
{{{ -0.4661710858345032, -0.877930223941803, -0.09089938551187515, 0.06732818484306335, -0.010221011005342007},
{ 0.0280739888548851, -0.11192557215690613, -0.21522708237171173, 0.03736833482980728, -0.03855684772133827},
{ -0.048282768577337265, -0.12478283047676086, -0.2460857480764389, -0.16053541004657745, -0.08723035454750061},
{ -0.27396687865257263, -0.27671295404434204, -0.015163674019277096, 0.183737650513649, -0.01770791970193386},
{ 0.14611008763313293, 0.08855168521404266, -0.0735236331820488, -0.0638432502746582, -0.006902965251356363}},
{{ 0.11986472457647324, -0.010069523938000202, 0.05013318359851837, 0.11387723684310913, -0.16704551875591278},
{ -0.10291096568107605, 0.0024235802702605724, -0.06259014457464218, -0.04315914958715439, -0.5728727579116821},
{ -0.18238402903079987, -0.09366662055253983, 0.006283712573349476, 0.10553518682718277, -0.12202075868844986},
{ -0.19877000153064728, 0.18322449922561646, 0.20198146998882294, -0.07984322309494019, -0.15039794147014618},
{ -0.06668278574943542, 0.04676445573568344, -0.04825069010257721, -0.09296990185976028, -0.1479499489068985}},
{{ 0.016468742862343788, 0.1743561327457428, 0.20082111656665802, 0.21894775331020355, -0.32527032494544983},
{ -0.09934499859809875, -0.033041492104530334, -0.15366749465465546, -0.025405794382095337, -0.11911885440349579},
{ 0.13005419075489044, -0.28248167037963867, -0.034842606633901596, -0.09910446405410767, 0.12734082341194153},
{ 0.026833515614271164, 0.04186927527189255, -0.07683994621038437, -0.16436120867729187, -0.0441892109811306},
{ 0.2323511689901352, -0.0072825588285923, 0.1830722987651825, 0.14777827262878418, 0.07350369542837143}},
{{ 0.11551203578710556, 0.14419524371623993, 0.16832582652568817, 0.08003786206245422, -0.49807313084602356},
{ 0.1252405047416687, 0.1371520608663559, 0.16644926369190216, 0.05201375484466553, 0.046991169452667236},
{ -0.00479998579248786, -0.14558318257331848, 0.39616236090660095, 0.4463004171848297, 0.2152460664510727},
{ 0.01561197079718113, -0.12089431285858154, 0.367192804813385, 0.13920874893665314, 0.1724412739276886},
{ -0.030118530616164207, -0.16041018068790436, 0.07196149230003357, 0.21283785998821259, 0.09030916541814804}},
{{ 0.244036003947258, 0.22102965414524078, -0.049778588116168976, -0.41837823390960693, -0.36474159359931946},
{ 0.20991219580173492, 0.11249688267707825, -0.0268176831305027, -0.17171478271484375, 0.08008940517902374},
{ 0.13829489052295685, -0.1405894160270691, 0.007350769825279713, 0.057732149958610535, 0.3845142424106598},
{ 0.16825127601623535, -0.02075960673391819, -0.030443869531154633, -0.007722342386841774, 0.06753752380609512},
{ 0.08311189711093903, -0.06763055175542831, -0.16175870597362518, -0.0365731343626976, -0.002932442119345069}},
{{ -0.6311236619949341, -0.46078094840049744, 0.12335354089736938, 0.07246026396751404, -0.09742280095815659},
{ -0.14105142652988434, -0.1626404970884323, 0.2151770144701004, 0.16830584406852722, -0.002909210044890642},
{ 0.11046958714723587, -0.024852676317095757, -0.07575082033872604, -0.22363202273845673, -0.027205297723412514},
{ -0.062312256544828415, -0.007733323145657778, -0.17585811018943787, -0.09009003639221191, 0.05662131682038307},
{ 0.31174129247665405, 0.35834428668022156, 0.19546157121658325, 0.23342768847942352, 0.30327367782592773}},
{{ 0.002115152543410659, -0.07107388973236084, -0.02791419066488743, 0.030667785555124283, -0.08639147132635117},
{ -0.11407347023487091, -0.03903407230973244, 0.11180479824542999, -0.2544691562652588, 0.033776745200157166},
{ -0.08833609521389008, 0.22675296664237976, -0.33988091349601746, -0.5690426230430603, -0.2981153726577759},
{ 0.07252202928066254, -0.03004791960120201, -0.20798225700855255, 0.2448183000087738, -0.18970997631549835},
{ -0.07085821032524109, -0.3741498291492462, -0.13807342946529388, -0.17934377491474152, -0.2496998906135559}},
{{ 0.09453672170639038, 0.22908726334571838, 0.07953604310750961, -0.567412793636322, -0.403987854719162},
{ 0.02529030665755272, -0.08844655007123947, -0.24117307364940643, -0.030971255153417587, -0.317465603351593},
{ 0.056157488375902176, 0.010708783753216267, -0.031458981335163116, 0.12074745446443558, 0.11411378532648087},
{ 0.0022625995334237814, -0.11314743757247925, 0.13780337572097778, 0.07930207997560501, -0.012894893065094948},
{ 0.3745986223220825, 0.3372192680835724, 0.2354358732700348, 0.05354679003357887, -0.004324572626501322}},
{{ -0.373928427696228, 0.20347541570663452, 0.17969469726085663, 0.11221127212047577, -0.1683020442724228},
{ -0.26552191376686096, 0.41774922609329224, -0.08528675884008408, -0.17567650973796844, 0.06275127828121185},
{ 0.2205246239900589, -0.17077744007110596, 0.09269014000892639, 0.0019263274734839797, -0.007411854341626167},
{ 0.3163171410560608, 0.14925134181976318, -0.15585146844387054, -0.08706582337617874, -0.007731548044830561},
{ 0.2014501988887787, -0.09753471612930298, 0.14554771780967712, 0.10775087773799896, 0.21428143978118896}},
{{ -0.35834431648254395, -0.16684727370738983, -0.11628769338130951, -0.06236958131194115, 0.08359315246343613},
{ -0.29364436864852905, 0.15107402205467224, 0.27786463499069214, -0.22813837230205536, -0.17612223327159882},
{ -0.013843524269759655, 0.17202548682689667, -0.005189078859984875, -0.27032431960105896, -0.3092235326766968},
{ 0.02812400832772255, 0.07153113186359406, -0.1715216487646103, 0.00779235502704978, 0.1775728017091751},
{ 0.010771977715194225, -0.06585100293159485, 0.03742220252752304, -0.22574345767498016, 0.12074559926986694}},
{{ -0.22338703274726868, -0.14547032117843628, -0.38673028349876404, -0.13709719479084015, -0.4933443069458008},
{ -0.02977212890982628, 0.097044438123703, -0.1319444328546524, 0.015481915324926376, 0.05343279242515564},
{ 0.017803043127059937, -0.19919270277023315, -0.047206975519657135, 0.02398931048810482, 0.11849553883075714},
{ 0.17939604818820953, -0.034352608025074005, 0.08143720030784607, -0.10489245504140854, 0.01623539999127388},
{ 0.32409238815307617, -0.12000194936990738, -0.057052645832300186, -0.12065812945365906, -0.06364185363054276}},
{{ 0.1236589327454567, 0.17657725512981415, 0.17621783912181854, -0.1579529047012329, -0.18210868537425995},
{ 0.05256154388189316, 0.08424771577119827, 0.22463206946849823, -0.24081900715827942, -0.489880234003067},
{ 0.05359316244721413, 0.024520449340343475, 0.012777204625308514, 0.017835291102528572, 0.18055613338947296},
{ -0.16973018646240234, 0.06397855281829834, 0.15383076667785645, 0.09059175848960876, -0.11797221004962921},
{ 0.27155643701553345, -0.0770420953631401, -0.013140256516635418, 0.1199684739112854, -0.029491737484931946}},
{{ -0.04364596679806709, -0.03098256327211857, -0.2665657699108124, -0.1323431432247162, -0.25852587819099426},
{ -0.022563928738236427, -0.2570625841617584, 0.027573350816965103, 0.1813962608575821, -0.02878475748002529},
{ 0.053057264536619186, 0.14515352249145508, -0.1223985031247139, -0.056766070425510406, -0.21032632887363434},
{ 0.19015003740787506, -0.011017484590411186, 0.0037622274830937386, -0.10089439153671265, -0.14986805617809296},
{ 0.006107000168412924, -0.12647362053394318, -0.0659257248044014, 0.13013862073421478, 0.3058414161205292}},
{{ -0.3738834261894226, -0.09332747757434845, -0.003854816546663642, 0.006602380890399218, 0.041785746812820435},
{ 0.048132266849279404, 0.10864432156085968, -0.07501155883073807, -0.19070224463939667, -0.29006990790367126},
{ 0.0006795206572860479, 0.07370737195014954, -0.27163347601890564, -0.2655513286590576, 0.06252383440732956},
{ 0.05482224375009537, -0.11893029510974884, -0.07464411109685898, 0.02504500187933445, 0.258248507976532},
{ 0.11693127453327179, 0.13991905748844147, 0.009054766967892647, 0.18434582650661469, 0.21466484665870667}},
{{ -0.1104663833975792, 0.07396544516086578, 0.1770767718553543, 0.11767154186964035, 0.1763354241847992},
{ -0.20505227148532867, 0.05286892503499985, -0.09040596336126328, -0.2662326991558075, -0.36897751688957214},
{ -0.046628255397081375, 0.16005262732505798, 0.014397479593753815, -0.3725730776786804, -0.5593346953392029},
{ -0.07111423462629318, -0.0008511043270118535, -0.03852131590247154, -0.1379489153623581, 0.04224507510662079},
{ 0.11664573848247528, 0.05396488681435585, 0.003531814320012927, -0.0018088038777932525, -0.07092662155628204}},
{{ -0.13698172569274902, 0.08585170656442642, -0.02206265926361084, 0.05093376338481903, -0.02225438691675663},
{ -0.1735985279083252, -0.25137993693351746, -0.011636501178145409, 0.06416716426610947, 0.014710609801113605},
{ -0.0468602329492569, -0.1542440801858902, -0.2025536447763443, -0.21975302696228027, -0.2552792429924011},
{ -0.09090856462717056, 0.28123095631599426, -0.013564050197601318, -0.5130362510681152, -0.17536410689353943},
{ 0.051735203713178635, 0.1781763732433319, -0.028033370152115822, -0.08259362727403641, 0.4240396022796631}}},
{{{ 0.2638629078865051, 0.006037168204784393, -0.15868565440177917, -0.1674182265996933, -0.12841294705867767},
{ 0.23293934762477875, 0.1981355845928192, -0.00531263230368495, -0.19483481347560883, 0.20574669539928436},
{ 0.29138675332069397, 0.16994516551494598, -0.03817122429609299, 0.15002723038196564, 0.10614319890737534},
{ 0.023324348032474518, -0.23323628306388855, -0.0058883135206997395, 0.024574818089604378, -0.02973964996635914},
{ -0.0978126972913742, -0.09614760428667068, 0.12834365665912628, -0.003919932525604963, -0.3158900737762451}},
{{ -0.24947796761989594, -0.24115721881389618, 0.05795028433203697, 0.016498751938343048, 0.13516713678836823},
{ -0.26248347759246826, -0.067728690803051, 0.10531280934810638, 0.05697351321578026, 0.08507043123245239},
{ -0.39882922172546387, -0.07415130734443665, 0.047104910016059875, 0.018148148432374, -0.17662636935710907},
{ -0.28343573212623596, -0.056450631469488144, 0.05729801952838898, 0.3831762969493866, 0.33166155219078064},
{ -0.02018824592232704, 0.11995742470026016, 0.09630367904901505, 0.20722001791000366, 0.07171866297721863}},
{{ -0.16361427307128906, -0.19994190335273743, 0.17796297371387482, 0.1759154051542282, 0.05911239981651306},
{ 0.06953378021717072, -0.05817755311727524, -0.06334293633699417, 0.1616329699754715, -0.0021761180832982063},
{ 0.0600263848900795, -0.17814677953720093, -0.30010440945625305, 0.3249213397502899, 0.19610777497291565},
{ -0.043941255658864975, -0.32119831442832947, 0.1360248327255249, -0.055679164826869965, -0.010352356359362602},
{ -0.03067735768854618, 0.044594112783670425, 0.06109363213181496, 0.17730391025543213, -0.036720160394907}},
{{ -0.18245407938957214, -0.11543596535921097, 0.18651776015758514, -0.08456866443157196, -0.07949209958314896},
{ 0.1563289314508438, -0.10700453817844391, 0.07296062260866165, -0.060989901423454285, -0.3523157835006714},
{ -0.04096995294094086, -0.09760134667158127, -0.10343322902917862, 0.011719089932739735, -0.06909094005823135},
{ -0.0722789615392685, -0.07089006155729294, 0.051210951060056686, 0.12419145554304123, 0.23986786603927612},
{ -0.18818430602550507, 0.17269068956375122, 0.1151820719242096, -0.08186984807252884, 0.04173082113265991}},
{{ -0.05898023396730423, 0.13948562741279602, 0.01166220661252737, -0.261653333902359, -0.40395399928092957},
{ 0.13350115716457367, 0.23980478942394257, -0.020982835441827774, -0.19429515302181244, -0.48581838607788086},
{ 0.0340091846883297, -0.21065129339694977, 0.112205371260643, -0.14241613447666168, 0.10308360308408737},
{ -0.22335387766361237, -0.3674721121788025, -0.13675273954868317, 0.016102684661746025, 0.22786159813404083},
{ -0.25879746675491333, -0.15444724261760712, -0.2939378321170807, 0.25552937388420105, 0.2376355677843094}},
{{ 0.12566134333610535, -0.45749738812446594, 0.09673050045967102, 0.03193512186408043, 0.2259153127670288},
{ 0.123976930975914, 0.09881217777729034, -0.07099156081676483, 0.2336954027414322, 0.15958958864212036},
{ -0.050551120191812515, 0.2299002856016159, -0.2522362768650055, 0.24464455246925354, 0.111026331782341},
{ 0.11750117689371109, -0.07084701955318451, -0.04053474962711334, -0.10189168155193329, -0.1963149607181549},
{ 0.3477354347705841, -0.02521466463804245, 0.12892119586467743, -0.441353440284729, -0.4576738774776459}},
{{ -0.11022445559501648, -0.07427363097667694, -0.11517921090126038, -0.0337851382791996, 0.13792145252227783},
{ -0.18863914906978607, 0.011139294132590294, 0.10074993222951889, 0.16412068903446198, -0.1338108330965042},
{ -0.09426227957010269, -0.07422874122858047, -0.08076993376016617, 0.10004595667123795, -0.1519511193037033},
{ -0.028302280232310295, 0.175836980342865, 0.07154697924852371, 0.03842374309897423, -0.8402578830718994},
{ 0.09875307232141495, 0.03698703274130821, 0.014947283081710339, -0.17350496351718903, -0.4219869077205658}},
{{ -0.02007387951016426, 0.209351047873497, 0.1587602198123932, 0.10263734310865402, -0.055208683013916016},
{ -0.17648804187774658, -0.25617721676826477, -0.04762006178498268, 0.24112354218959808, 0.028541607782244682},
{ -0.4236012399196625, -0.15192319452762604, -0.17395099997520447, 0.010636058636009693, -0.013181796297430992},
{ 0.04402618482708931, -0.10751419514417648, 0.11611342430114746, 0.029208887368440628, 0.1685752421617508},
{ 0.07850044965744019, -0.067841537296772, 0.11841374635696411, 0.20511005818843842, -0.11602228134870529}},
{{ -0.22480802237987518, -0.05379524827003479, 0.00347576173953712, 0.044684454798698425, 0.19347040355205536},
{ -0.1366083025932312, 0.23645435273647308, 0.10587792843580246, 0.213357076048851, 0.1093640848994255},
{ -0.0886877179145813, 0.13120345771312714, 0.06717047840356827, 0.10017917305231094, 0.07677632570266724},
{ -0.03342363238334656, -0.0892530158162117, -0.16379506886005402, -0.23318541049957275, -0.2768716812133789},
{ 0.09360336512327194, 0.2025124430656433, 0.022893516346812248, -0.19271622598171234, 0.03832729160785675}},
{{ 0.016662925481796265, -0.1314781904220581, -0.04056906700134277, 0.07708096504211426, 0.10552264004945755},
{ -0.20999988913536072, -0.2802411615848541, -0.20670948922634125, 0.085934579372406, 0.33080434799194336},
{ -0.2651790380477905, -0.02031971700489521, -0.013148961588740349, -0.25121238827705383, -0.45210400223731995},
{ 0.06015470623970032, -0.059949710965156555, -0.02391338348388672, -0.026760417968034744, 0.10851134359836578},
{ 0.03807896748185158, 0.002123609883710742, 0.08375321328639984, 0.05775702744722366, -0.5182121992111206}},
{{ 0.22951346635818481, -0.12798362970352173, 0.0021935799159109592, -0.4362112581729889, -0.16967791318893433},
{ 0.13089333474636078, 0.1957317441701889, -0.002062214305624366, -0.37553685903549194, -0.09674955904483795},
{ 0.013825665228068829, 0.09376880526542664, -0.22857561707496643, 0.14748720824718475, 0.12798380851745605},
{ -0.020309170708060265, -0.0670824721455574, 0.2175491452217102, 0.07592818886041641, -0.1156725361943245},
{ -0.13551761209964752, -0.0037440534215420485, 0.045580290257930756, -0.08879357576370239, -0.20428813993930817}},
{{ -0.08840576559305191, 0.08319223672151566, 0.04005758836865425, 0.08642514795064926, 0.0677032321691513},
{ -0.22621653974056244, 0.033879365772008896, 0.10698214173316956, 0.27838173508644104, -0.09953474998474121},
{ 0.018742447718977928, -0.21299780905246735, 0.25036805868148804, -0.019720785319805145, -0.013533521443605423},
{ -0.021270066499710083, -0.4491659998893738, 0.10185908526182175, 0.024086227640509605, 0.07248126715421677},
{ -0.5240383148193359, -0.11608915030956268, 0.05501208454370499, 0.16301964223384857, 0.020031103864312172}},
{{ 0.013063237071037292, 0.05308094620704651, -0.1530475914478302, -0.25365281105041504, -0.419112890958786},
{ -0.16060301661491394, -0.10022027790546417, 0.12362903356552124, -0.07888121157884598, 0.1249232068657875},
{ 0.10912585258483887, -0.25418606400489807, -0.2605815827846527, -0.013879646547138691, 0.43222296237945557},
{ 0.2054215669631958, -0.04016626998782158, 0.047578707337379456, 0.003859875490888953, -0.14015063643455505},
{ 0.07005555182695389, -0.05602676048874855, -0.18422651290893555, -0.5931650996208191, -0.1470373272895813}},
{{ 0.06630413979291916, -0.19249457120895386, -0.1004762053489685, 0.1780516654253006, 0.40974462032318115},
{ 0.033711887896060944, -0.184538796544075, -0.1840217560529709, 0.006764205172657967, 0.21412213146686554},
{ 0.04150869697332382, 0.10272641479969025, -0.3019024729728699, -0.0040214778855443, -0.07066603004932404},
{ 0.10066534578800201, 0.09273215383291245, 0.1318456381559372, -0.1965211033821106, -0.2733655273914337},
{ 0.07111986726522446, 0.028647348284721375, 0.3181152641773224, -0.12330025434494019, -0.5570076704025269}},
{{ -0.15746937692165375, -0.05200214311480522, -0.06257233023643494, 0.17875143885612488, 0.3528909683227539},
{ -0.3203345835208893, -0.10577259212732315, -0.10674548894166946, 0.0027167985681444407, 0.02678917720913887},
{ -0.1605844497680664, -0.19841812551021576, -0.09782549738883972, -0.10795173794031143, -0.14086554944515228},
{ 0.02160278894007206, 0.03919593244791031, 0.09540089219808578, -0.00961621105670929, -0.40678492188453674},
{ -0.023969626054167747, 0.032825686037540436, -0.020691700279712677, -0.04068869352340698, -0.16660861670970917}},
{{ -0.22233465313911438, -0.22031329572200775, -0.02833511121571064, 0.1277296245098114, 0.052212636917829514},
{ -0.0935397818684578, 0.09738492965698242, 0.28295087814331055, 0.32825568318367004, 0.37658682465553284},
{ -0.3474048376083374, -0.2930646538734436, -0.015088031068444252, 0.14717911183834076, 0.20238563418388367},
{ -0.18989640474319458, -0.13198256492614746, -0.022494450211524963, -0.07074145972728729, -0.05556180328130722},
{ 0.06396091729402542, 0.16217654943466187, 0.1050662249326706, -0.1271064430475235, -0.555908203125}}},
{{{ -0.3029450476169586, -0.2275809496641159, -0.3821146488189697, -0.18669447302818298, -0.030068423599004745},
{ 0.03532052040100098, -0.02397843822836876, 0.0815165713429451, -0.09969548881053925, -0.03870275616645813},
{ 0.03198547661304474, -0.21996566653251648, 0.01890052855014801, 0.07872616499662399, 0.012264355085790157},
{ -0.17562788724899292, -0.006793503649532795, 0.03483950346708298, 0.21882985532283783, 0.12210327386856079},
{ 0.16129514575004578, 0.08856236189603806, -0.08017116039991379, -0.07136258482933044, 0.12625165283679962}},
{{ -0.1659718155860901, 0.1380116492509842, -0.1283154934644699, 0.0017601771978661418, -0.00952597614377737},
{ -0.017014969140291214, -0.05606438219547272, -0.1296246498823166, 0.027179282158613205, -0.10820019245147705},
{ -0.04817593842744827, -0.03597377985715866, 0.11444317549467087, 0.1477527916431427, -0.04971562698483467},
{ -0.017961254343390465, 0.08971305191516876, 0.027383306995034218, -0.2694527208805084, -0.338296502828598},
{ -0.30878081917762756, -0.08909440040588379, -0.004525215830653906, 0.06866218149662018, -0.010051573626697063}},
{{ 0.07695016264915466, 0.1372578740119934, -0.01202932558953762, -0.12547698616981506, -0.11692134290933609},
{ -0.12086809426546097, -0.12652060389518738, 0.1306474506855011, 0.0497601144015789, 0.14190053939819336},
{ -0.168731689453125, -0.0027524596080183983, 0.08726755529642105, -0.09682361036539078, 0.10816610604524612},
{ 0.15385301411151886, 0.059099048376083374, 0.04265020042657852, -0.10986321419477463, -0.015807760879397392},
{ -0.10653013736009598, -0.20983323454856873, 0.02437996305525303, 0.18581229448318481, 0.30469411611557007}},
{{ 0.1664268523454666, 0.1851685345172882, -0.2236262857913971, -0.0626349225640297, -0.08768928796052933},
{ 0.03956257924437523, -0.33259493112564087, -0.3949262797832489, 0.3002570867538452, 0.09535228461027145},
{ -0.3756580352783203, -0.17251548171043396, 0.15499310195446014, 0.19928304851055145, 0.01735222339630127},
{ 0.07100104540586472, 0.17030836641788483, 0.0965176373720169, 0.014958526939153671, -0.1089099869132042},
{ -0.06324449181556702, -0.1697363704442978, 0.1469530165195465, 0.36563432216644287, 0.1969810277223587}},
{{ 0.2258656769990921, -0.010967109352350235, -0.2064177393913269, -0.3662155866622925, -0.4452909827232361},
{ -0.12434639036655426, -0.1915373057126999, -0.2713772654533386, -0.09464864432811737, -0.007467964198440313},
{ -0.037726908922195435, 0.04250933602452278, -0.2709994912147522, -0.30829644203186035, 0.07434643805027008},
{ 0.030347075313329697, 0.07768911123275757, 0.224711075425148, 0.006808161269873381, -0.06259612739086151},
{ -0.05271640047430992, 0.09623852372169495, 0.06565438210964203, -0.017670270055532455, 0.0728633925318718}},
{{ -0.04996664449572563, -0.1256704032421112, -0.0429021455347538, -0.1528995782136917, -0.19720032811164856},
{ 0.07504958659410477, -0.008400628343224525, 0.27691081166267395, -0.1453658640384674, -0.04800326004624367},
{ 0.4271933436393738, -0.05925225466489792, 0.2708047926425934, 0.020850904285907745, 0.06488063186407089},
{ -0.40904706716537476, 0.021197231486439705, 0.09587261080741882, 0.2705479860305786, 0.1414584219455719},
{ -0.004530988167971373, 0.12441611289978027, -0.20436900854110718, 0.09532486647367477, 0.104388527572155}},
{{ 0.1376333087682724, 0.009633312933146954, -0.029181256890296936, -0.09320448338985443, 0.1105620265007019},
{ -0.02955661714076996, -0.19361703097820282, -0.22600023448467255, -0.2216799408197403, 0.12652528285980225},
{ -0.17714564502239227, 0.15539409220218658, -0.1704046130180359, -0.16581426560878754, -0.31840214133262634},
{ 0.2752004563808441, 0.1745423972606659, -0.3172956705093384, 0.03949010372161865, -0.19916218519210815},
{ -0.3655067980289459, 0.1642911732196808, -0.010437344200909138, -0.05899180471897125, -0.08332540094852448}},
{{ 0.09767284244298935, 0.1751248687505722, -0.014428245835006237, -0.3464392423629761, -0.34982234239578247},
{ -0.03456636518239975, -0.1368868350982666, -0.2470480501651764, 0.31098121404647827, -0.11505959182977676},
{ -0.16974277794361115, -0.09673123806715012, 0.008219181559979916, -0.08259985595941544, -0.18807511031627655},
{ 0.08590952306985855, -0.004590597935020924, 0.12213508784770966, 0.20227523148059845, -0.3244026005268097},
{ 0.41637787222862244, 0.22083088755607605, -0.13325072824954987, 0.16140875220298767, -0.04214023798704147}},
{{ -0.3148875832557678, 0.23481999337673187, 0.1317485272884369, 0.015347805805504322, -0.05568613111972809},
{ -0.2629334032535553, 0.19830739498138428, -0.15819840133190155, -0.1803404986858368, 0.1219959408044815},
{ -0.0657263994216919, -0.10125932097434998, -0.0784820020198822, -0.11334463953971863, -0.05337006226181984},
{ -0.023375747725367546, -0.08842526376247406, -0.012870348058640957, -0.09413619339466095, -0.1466945856809616},
{ -0.142604261636734, 0.05473855510354042, -0.049503523856401443, 0.2173285186290741, 0.07793314009904861}},
{{ 0.02757578343153, -0.07011624425649643, -0.15165306627750397, -0.08541130274534225, 0.12841734290122986},
{ -0.024575477465987206, 0.20222164690494537, 0.3214615285396576, -0.3001049757003784, 0.10450119525194168},
{ 0.27379462122917175, 0.3487299382686615, 0.05474110692739487, 0.012271161191165447, -0.05857441946864128},
{ -0.11288678646087646, -0.01738666743040085, -0.19670452177524567, -0.006031523458659649, -0.31158336997032166},
{ -0.011656860820949078, 0.0751744881272316, 0.13421879708766937, 0.006257760804146528, -0.20039337873458862}},
{{ 0.04489736631512642, -0.08457230031490326, -0.19290709495544434, -0.12898890674114227, -0.0074729910120368},
{ 0.11450503766536713, -0.4346754252910614, -0.1310030072927475, 0.04732787236571312, 0.1440393626689911},
{ -0.27055424451828003, -0.46068066358566284, 0.10027550905942917, 0.16353335976600647, -0.20124976336956024},
{ -0.1872812956571579, 0.15534906089305878, 0.03952541574835777, -0.10678721964359283, -0.14152586460113525},
{ 0.08514486253261566, -0.02918395958840847, -0.1581684798002243, 0.028358452022075653, 0.07706017792224884}},
{{ 0.19749076664447784, 0.2114371806383133, 0.06526905298233032, -0.19844457507133484, -0.03353506326675415},
{ 0.33972132205963135, 0.14882704615592957, -0.07745923101902008, 0.07181499153375626, -0.5389161705970764},
{ -0.06350092589855194, -0.18900147080421448, -0.16457746922969818, 0.05633817985653877, 0.2818755805492401},
{ 0.10085408389568329, 0.07034371793270111, -0.06558443605899811, -0.3447335660457611, -0.20085853338241577},
{ 0.21904206275939941, -0.08319376409053802, -0.10312142968177795, -0.04880137741565704, 0.23505385220050812}},
{{ -0.46070724725723267, -0.3993396759033203, -0.31227147579193115, -0.0961289256811142, -0.2348233312368393},
{ -0.23730269074440002, -0.1105521097779274, -0.11499930173158646, -0.054340910166502, -0.13845844566822052},
{ 0.1898978054523468, 0.3341820240020752, 0.03792678937315941, -0.01854652538895607, -0.004665949381887913},
{ 0.28571817278862, 0.11602544039487839, -0.039722785353660583, 0.17210577428340912, 0.13826949894428253},
{ -0.0889037549495697, -0.34357956051826477, -0.3171328902244568, 0.038027629256248474, -0.1837557703256607}},
{{ 0.11334357410669327, 0.22745540738105774, 0.12157683074474335, -0.022840462625026703, -0.12449569255113602},
{ 0.34730443358421326, 0.42806917428970337, 0.15912143886089325, -0.05131141468882561, -0.17601469159126282},
{ 0.1508369743824005, -0.1734476089477539, 0.0938454195857048, 0.05861306190490723, 0.23619146645069122},
{ -0.24034172296524048, -0.09856618195772171, 0.048942532390356064, -0.11734062433242798, -0.11052967607975006},
{ 0.10435241460800171, 0.07272063940763474, 0.06292926520109177, 0.01873065158724785, -0.0573284886777401}},
{{ 0.0416230745613575, 0.2198624461889267, 0.08779247850179672, -0.06269294768571854, -0.02561301179230213},
{ 0.012737823650240898, -0.03665252402424812, -0.2472412884235382, -0.12073025107383728, 0.09251464903354645},
{ 0.24337168037891388, 0.306967556476593, 0.08980918675661087, -0.02184072509407997, -0.2690759599208832},
{ 0.023218931630253792, 0.027314424514770508, -0.14379127323627472, 0.09369179606437683, -0.11379759013652802},
{ 0.024147409945726395, 0.061618007719516754, 0.04937940463423729, 0.24224036931991577, -0.02030630223453045}},
{{ 0.0034801489673554897, 0.08576630800962448, 0.023025084286928177, 0.05199575051665306, 0.05701892077922821},
{ -0.3544008433818817, -0.32766735553741455, -0.0587882399559021, -0.055031515657901764, 0.01799272932112217},
{ 0.002096354030072689, -0.05272423103451729, -0.16433891654014587, -0.05510593205690384, -0.10703568160533905},
{ 0.10283420979976654, 0.25511032342910767, -0.03941623866558075, 0.011509445495903492, 0.1201506033539772},
{ -0.27050328254699707, -0.15742835402488708, 0.005895799025893211, 0.030155468732118607, 0.06737232208251953}}},
{{{ 0.14318206906318665, 0.675241231918335, 0.09272830188274384, 0.1425110548734665, 0.16751015186309814},
{ 0.13486678898334503, 0.0015278615755960345, -0.11793271452188492, 0.140083447098732, -0.03103184513747692},
{ -0.2105560302734375, -0.40229979157447815, -0.17224441468715668, -0.011295117437839508, -0.010281337425112724},
{ 0.31433066725730896, 0.3691934049129486, 0.010449208319187164, -0.03010520152747631, -0.01930173859000206},
{ 0.1778024435043335, 0.18622726202011108, -0.042786117643117905, -0.05066020041704178, 0.025177033618092537}},
{{ -0.4428331255912781, -0.4727064371109009, -0.35740628838539124, -0.5048624873161316, -0.03459525853395462},
{ -0.6029998064041138, -0.2846354842185974, -0.016148608177900314, -0.44248005747795105, -0.21710683405399323},
{ 0.20569345355033875, 0.04367316886782646, -0.10977949947118759, 0.26004400849342346, 0.06802571564912796},
{ 0.20847490429878235, 0.055126745253801346, 0.12191127240657806, 0.03891580551862717, 0.11544165760278702},
{ 0.08864925801753998, 0.12348511070013046, -0.020437557250261307, -0.09961750358343124, -0.059278786182403564}},
{{ -0.3522419035434723, -0.4078308343887329, -0.21849729120731354, -0.07447820901870728, 0.06656911224126816},
{ -0.1691892445087433, 0.08315079659223557, 0.08089708536863327, -0.25693339109420776, -0.1550770252943039},
{ 0.2045266032218933, 0.2082781046628952, -0.0003720355744007975, 0.3084680140018463, 0.15128931403160095},
{ -0.020342620089650154, 0.13251353800296783, 0.15257921814918518, 0.17956064641475677, 0.027645833790302277},
{ -0.0952381044626236, -0.11566050350666046, -0.3418363034725189, -0.19969192147254944, -0.1254771649837494}},
{{ -0.09153041243553162, -0.12299749255180359, -0.1374029815196991, -0.058715902268886566, 0.26848214864730835},
{ -0.015751319006085396, 0.14121630787849426, 0.06299419701099396, -0.13161976635456085, -0.05697346478700638},
{ 0.09049379080533981, 0.15390315651893616, -0.44947654008865356, -0.20699883997440338, -0.12675166130065918},
{ -0.04167938977479935, -0.17282584309577942, -0.07884346693754196, -0.09385516494512558, -0.15033048391342163},
{ 0.3159613609313965, 0.08105669170618057, -0.14721663296222687, 0.1553003340959549, 0.0107344351708889}},
{{ -0.00891056191176176, 0.08454755693674088, 0.03200405836105347, 0.22298988699913025, 0.29847028851509094},
{ 0.005793197546154261, -0.09849120676517487, 0.06005140766501427, 0.24070627987384796, 0.20448952913284302},
{ 0.04485127702355385, 0.09668435156345367, -0.05616998299956322, 0.3321540653705597, -0.0936228483915329},
{ 0.13177677989006042, -0.007482084445655346, -0.11777057498693466, -0.009282206185162067, -0.08288619667291641},
{ 0.0028011256363242865, 0.05292887985706329, 0.032054636627435684, -0.17994800209999084, -0.07922457903623581}},
{{ 0.26601120829582214, 0.3522959351539612, -0.02281583659350872, 0.05441264063119888, 0.19241982698440552},
{ 0.10199221223592758, 0.3444008231163025, -0.24360841512680054, -0.0071495892480015755, -0.17784930765628815},
{ -0.0713471919298172, 0.18126969039440155, -0.20870600640773773, 0.0515500009059906, -0.02049488201737404},
{ -0.0877513736486435, 0.05429890379309654, -0.09611799567937851, 0.003552140900865197, 0.06450183689594269},
{ -0.4507524371147156, -0.10024838149547577, -0.06518250703811646, 0.07102075964212418, -0.026054367423057556}},
{{ -0.4746316373348236, -0.3382863700389862, -0.1897350698709488, -0.36474502086639404, -0.2745458781719208},
{ -0.11703386157751083, -0.3361770808696747, -0.1967853158712387, -0.4662262499332428, -0.1506253480911255},
{ 0.18606938421726227, 0.09849396347999573, 0.2989629805088043, 0.08246510475873947, 0.4277178943157196},
{ 0.24479377269744873, 0.11221921443939209, 0.23451468348503113, -0.02674991637468338, 0.20685170590877533},
{ -0.0844053402543068, -0.1814052015542984, -0.11146180331707001, -0.2973891794681549, -0.3188917636871338}},
{{ -0.08492002636194229, -0.07655966281890869, -0.17280620336532593, 0.000351626833435148, 0.07013608515262604},
{ -0.08811397850513458, 0.02511546202003956, 0.3339715301990509, -0.1642434448003769, 0.031374700367450714},
{ -0.026593295857310295, -0.14515767991542816, 0.15474605560302734, 0.07441920787096024, 0.1443147212266922},
{ 0.03164379671216011, -0.18412083387374878, -0.08805697411298752, -0.09801062941551208, -0.08727087080478668},
{ 0.003799611935392022, 0.15420880913734436, -0.02902722917497158, -0.1002420112490654, 0.11934050917625427}},
{{ -0.16901175677776337, -0.4061550796031952, -0.38552325963974, -0.3938714265823364, -0.17654456198215485},
{ 0.005776302423328161, -0.16808447241783142, 0.09117018431425095, -0.029650628566741943, -0.12137371301651001},
{ 0.006654313765466213, 0.2924833297729492, -0.024328798055648804, 0.32474637031555176, 0.06858652085065842},
{ -0.010828150436282158, 0.18114876747131348, 0.08594511449337006, 0.22102582454681396, 0.08694412559270859},
{ -0.04604772850871086, 0.169594869017601, -0.29265862703323364, -0.2881954312324524, -0.3562544584274292}},
{{ -0.5946892499923706, -0.36629071831703186, -0.1974143534898758, -0.46229663491249084, -0.3534720838069916},
{ 0.22369253635406494, 0.008518350310623646, -0.23745542764663696, -0.02792835235595703, 0.08157580345869064},
{ 0.155349463224411, 0.072590671479702, 0.3415806293487549, -0.12523601949214935, 0.2093687206506729},
{ 0.08471847325563431, 0.054471734911203384, 0.08168422430753708, 0.03700680285692215, 0.06250900775194168},
{ 0.00406548660248518, -0.1687057763338089, -0.24378325045108795, 0.1607905924320221, 0.18245737254619598}},
{{ 0.24995265901088715, 0.13417042791843414, 0.14059944450855255, 0.13405980169773102, 0.48315665125846863},
{ -0.09165295213460922, 0.0629604235291481, -0.10723132640123367, -0.016497386619448662, 0.02532827854156494},
{ -0.08434902131557465, 0.06958367675542831, -0.06192263960838318, -0.12355531007051468, -0.10852479189634323},
{ -0.1355544626712799, -0.12158843874931335, -0.13003668189048767, -0.0075714667327702045, -0.05085839703679085},
{ -0.0087156156077981, -0.0013692703796550632, -0.01820346526801586, 0.06428318470716476, -0.004215118940919638}},
{{ -0.19266393780708313, -0.2730295956134796, -0.5001727938652039, -0.15394185483455658, -0.38428056240081787},
{ 0.09237582236528397, 0.1059809997677803, -0.016343560069799423, 0.05705537274479866, 0.17866739630699158},
{ 0.1979338675737381, 0.1794818490743637, -0.02039283886551857, -0.09832688421010971, -0.01947484165430069},
{ 0.020730100572109222, -0.1386210322380066, -0.15263770520687103, 0.11855978518724442, 0.04349037632346153},
{ 0.00710939709097147, -0.0732870101928711, -0.016035303473472595, -0.02998209372162819, -0.35625818371772766}},
{{ 0.20598331093788147, 0.052335236221551895, -0.0934593603014946, 0.17466185986995697, 0.0052353572100400925},
{ 0.04951564595103264, 0.16751499474048615, -0.5604019165039062, -0.08450280129909515, -0.24715812504291534},
{ -0.19771122932434082, 0.16116318106651306, -0.0788726955652237, -0.23972684144973755, 0.08792775869369507},
{ -0.0923364907503128, 0.3247826397418976, 0.07177713513374329, -0.07504116743803024, -0.01970713771879673},
{ -0.25704219937324524, 0.014831574633717537, 0.19957739114761353, 0.03900551423430443, 0.23399290442466736}},
{{ 0.22443296015262604, -0.22101840376853943, -0.12553103268146515, 0.02225687727332115, -0.46973302960395813},
{ 0.015933934599161148, 0.04818994179368019, 0.053956951946020126, -0.2783006429672241, 0.023853721097111702},
{ 0.03273039683699608, 0.05194942653179169, 0.21321530640125275, 0.17842990159988403, 0.14597034454345703},
{ -0.03274145349860191, -0.023266110569238663, 0.11151113361120224, 0.124557264149189, 0.19063226878643036},
{ -0.10425929725170135, -0.23728573322296143, -0.15636765956878662, -0.07231295108795166, 0.05900100991129875}},
{{ 0.10627055168151855, -0.6482725143432617, -0.5053906440734863, -0.3979061245918274, -0.27475208044052124},
{ -0.14036256074905396, -0.1827276200056076, -0.02844625897705555, -0.3034197986125946, -0.38994941115379333},
{ 0.4183017611503601, 0.2380877137184143, 0.08668241649866104, 0.1434483379125595, 0.5811588764190674},
{ 0.1819401979446411, 0.10722719132900238, 0.16755209863185883, 0.3670476973056793, 0.21171177923679352},
{ -0.007948789745569229, -0.11689089238643646, -0.2228298783302307, -0.32536864280700684, -0.15946127474308014}},
{{ -0.07383385300636292, -0.1685805767774582, -0.12616486847400665, -0.23874275386333466, -0.036500588059425354},
{ 0.3367939591407776, 0.2094396948814392, -0.2028193324804306, -0.12719888985157013, -0.1463092565536499},
{ 0.1957637220621109, 0.20767106115818024, 0.11976881325244904, -0.06790968775749207, -0.1416584998369217},
{ 0.2961810529232025, -0.14496013522148132, 0.07472273707389832, -0.09674850851297379, -0.17101885378360748},
{ -0.12131756544113159, -0.28067174553871155, -0.1942974328994751, -0.16168969869613647, -0.05368105322122574}}},
{{{ -0.0013166740536689758, 0.013656232506036758, 0.014546085149049759, -0.013852089643478394, -0.04647492244839668},
{ -0.010138796642422676, 0.02345382608473301, -0.01056964136660099, -0.05903887376189232, -0.030288681387901306},
{ -0.06463363021612167, -0.005617469549179077, -0.04687606543302536, -0.00689393887296319, 0.013371405191719532},
{ -0.05441577360033989, -0.05879110470414162, -0.056582335382699966, -0.06438691169023514, 0.00996888242661953},
{ -0.03862200304865837, -0.06158606335520744, -0.07704097777605057, -0.029675813391804695, -0.07252246886491776}},
{{ -0.06324107199907303, 0.02016567811369896, -0.012844436801970005, -0.011482525616884232, 0.0041372221894562244},
{ -0.020905418321490288, 0.008113600313663483, -0.04354279488325119, 0.008046350441873074, -0.06788184493780136},
{ -0.0296948179602623, -0.0625169649720192, -0.06382715702056885, -0.029274964705109596, -0.030198315158486366},
{ -0.035737331956624985, -0.03334615379571915, -0.0446823351085186, -0.04568547010421753, 0.03403928130865097},
{ -0.017556775361299515, -0.04973287507891655, -0.04997533559799194, -0.060699138790369034, -0.01621752418577671}},
{{ 0.010432206094264984, -0.042642418295145035, 0.023745335638523102, -0.03297288343310356, -0.01637970097362995},
{ -0.013752897270023823, -0.07189437001943588, -0.03509390354156494, -0.021464290097355843, -0.0034158083144575357},
{ -0.04469043388962746, -0.02132990024983883, -0.01636255346238613, -0.02582758106291294, -0.025059495121240616},
{ -0.07211276143789291, 0.003474209224805236, -0.05113154277205467, -0.023361219093203545, -0.009563134051859379},
{ -0.04607580229640007, -0.054370611906051636, -0.08435667306184769, -0.0005426213028840721, -0.03530158847570419}},
{{ -0.00530635379254818, -0.027487950399518013, -0.03718378022313118, -0.01766781136393547, 0.035651590675115585},
{ -0.05980171635746956, -0.029040368273854256, -0.007975833490490913, -0.027671588584780693, -0.025776522234082222},
{ -0.03029356338083744, 0.009388240054249763, -0.024123545736074448, -0.03968789055943489, -0.06638191640377045},
{ 0.012383212335407734, -0.051268912851810455, -0.007411621045321226, -0.03283119201660156, -0.052628617733716965},
{ -0.014692560769617558, -0.0573832206428051, 0.02467271313071251, 0.0041136606596410275, -0.037074558436870575}},
{{ -0.0677793100476265, 0.029944345355033875, 0.04068521782755852, 0.004543116316199303, -0.0363878533244133},
{ -0.022272519767284393, -0.026996735483407974, -0.018991202116012573, -0.07867955416440964, -0.0353262834250927},
{ -0.013851100578904152, -0.0003786284360103309, 0.011891968548297882, -0.012459100224077702, 0.025309165939688683},
{ -0.03923051804304123, 0.0031777326948940754, -0.03060765005648136, -0.053164511919021606, -0.04885239154100418},
{ -0.06466258317232132, -0.04447115957736969, -0.01809760183095932, 0.04620257392525673, -0.022446077316999435}},
{{ 0.0007661159615963697, -0.028490552678704262, -0.05520894378423691, -0.02167373336851597, 0.011303741484880447},
{ 0.00862032175064087, -0.0183708555996418, -0.019762050360441208, -0.043978702276945114, -0.009408095851540565},
{ 0.03545326367020607, -0.020834906026721, 0.0111690703779459, -0.06281156837940216, 0.04032202437520027},
{ 0.018783781677484512, -0.015344868414103985, -0.017437173053622246, -0.04895396530628204, -0.04257487505674362},
{ -0.05390642210841179, -0.0005268236272968352, 0.04250311851501465, 0.01433798298239708, -0.025557877495884895}},
{{ -0.02404128946363926, -0.03563329949975014, -0.06898628175258636, -0.05153604969382286, 0.011355476453900337},
{ -0.020601939409971237, -0.045167647302150726, -0.03614858165383339, 0.016049232333898544, -0.03123415820300579},
{ -0.02197161689400673, 0.02074749581515789, 0.014665290713310242, 0.010107254609465599, 0.0023850060533732176},
{ -0.029764628037810326, 0.03157658129930496, 0.038205575197935104, 0.016443884000182152, 0.008693770505487919},
{ -0.021085085347294807, -0.026585962623357773, -0.0021372989285737276, 0.008140050806105137, -0.05305248126387596}},
{{ -0.03553568571805954, -0.08047965914011002, -0.049216270446777344, -0.0034479631576687098, -0.02720220945775509},
{ -0.05198654532432556, -0.038522034883499146, -0.006807115860283375, -0.03438403829932213, -0.014386194758117199},
{ -0.026859086006879807, -0.029272694140672684, -0.03325273469090462, -0.02894832380115986, -0.026381822302937508},
{ -0.05280449986457825, -0.07525566220283508, -0.046491481363773346, 0.012759296223521233, 0.04289408400654793},
{ -0.007355765905231237, 0.0032182654831558466, -0.013700821436941624, -0.04582619294524193, -0.03972909227013588}},
{{ -0.019713906571269035, -0.07569581270217896, 0.0010007389355450869, 0.0058737038634717464, -0.038976747542619705},
{ -0.016524646431207657, -0.05010062828660011, 0.02028612792491913, 5.838662400492467e-05, -0.0483352392911911},
{ 0.03698358312249184, -0.037294283509254456, 0.036088887602090836, -0.04838846996426582, -0.020688844844698906},
{ 0.03474491462111473, -0.005810609553009272, 0.012116529047489166, -0.005765669047832489, 0.0003680773079395294},
{ 0.036696575582027435, -0.0516178160905838, -0.051150646060705185, -0.028455564752221107, -0.05937127396464348}},
{{ -0.05410502478480339, -0.00209677848033607, 0.03159946948289871, 0.010297955945134163, -0.0368998646736145},
{ -0.0009384675067849457, -0.05364177003502846, -0.021813981235027313, -0.0030600843019783497, 0.029704906046390533},
{ -0.017170341685414314, -0.026320302858948708, -0.04386712983250618, -0.033958565443754196, -0.02960021235048771},
{ 0.005765723995864391, -0.03281054645776749, 0.0019054780714213848, -0.04439270868897438, -0.012212907895445824},
{ -0.0441439189016819, -0.055449891835451126, -0.00911423284560442, -0.05064985156059265, -0.003105467651039362}},
{{ -0.03327459469437599, -0.06038600206375122, 0.0033319296780973673, 0.025392387062311172, 0.009107875637710094},
{ -0.027941513806581497, 0.021712463349103928, -0.05747399851679802, -0.04668876528739929, 0.04197700694203377},
{ -0.024690039455890656, -0.02483867108821869, -0.03446100652217865, 0.006759132258594036, 0.014377729967236519},
{ -0.039617814123630524, -0.03604569286108017, -0.046537477523088455, -0.0032471006270498037, 0.012203475460410118},
{ -0.019112272188067436, -0.026472769677639008, -0.017007391899824142, -0.047682665288448334, 0.0042087663896381855}},
{{ -0.0817403718829155, -0.040646158158779144, -0.006208771839737892, -0.050101347267627716, 0.014556813053786755},
{ 0.027339927852153778, -0.045721933245658875, 0.013341750018298626, -0.009238825179636478, 0.04084089398384094},
{ -0.05312015861272812, 0.025713130831718445, -0.0245781559497118, 0.036146003752946854, -0.03150824457406998},
{ 0.0024659745395183563, -0.022277314215898514, 0.025017384439706802, 0.01743251644074917, 0.021943001076579094},
{ -0.016527825966477394, -0.07311059534549713, -0.005423424765467644, 0.011079004034399986, 0.03724679723381996}},
{{ -0.06406135857105255, -0.0010119802318513393, 0.02248780056834221, -0.009047560393810272, 0.027292292565107346},
{ -0.03723224252462387, -0.02936205267906189, -0.032762862741947174, -0.0061574093997478485, 0.04894581064581871},
{ -0.004288569558411837, -0.07585164904594421, -0.03822873532772064, 0.031849298626184464, -0.02139696478843689},
{ -0.04157315939664841, 0.018940754234790802, 0.006575383245944977, 0.00989268533885479, -0.036121200770139694},
{ -0.08253959566354752, 0.02933865413069725, -0.009808935225009918, 0.045142438262701035, 0.03549035266041756}},
{{ -0.04415399953722954, -0.01798637956380844, 0.010817395523190498, -0.023900620639324188, 0.03891872614622116},
{ -0.02449106052517891, -0.05028147995471954, -0.08044746518135071, 0.006601850967854261, -0.05558028072118759},
{ 0.029394149780273438, -0.023516077548265457, -0.04221883788704872, -0.027463316917419434, 0.04314644634723663},
{ -0.06719324737787247, -0.06975805759429932, 0.024049872532486916, -0.030288416892290115, -0.0244040098041296},
{ -0.004940371494740248, -0.05549196898937225, -0.003998883068561554, -0.02628697082400322, 0.03245607018470764}},
{{ 0.02025042660534382, -0.02265295200049877, -0.05214444547891617, -0.0030197915621101856, 0.007555800955742598},
{ 0.00021703913807868958, 0.015078377909958363, -0.03238673135638237, 0.0175752155482769, -0.014891088008880615},
{ -0.03836462274193764, -0.03763599693775177, -0.0321800597012043, -0.007660400588065386, 0.037717368453741074},
{ 0.0015907527413219213, -0.02103024162352085, 0.04481673613190651, 0.03377300873398781, 0.018024537712335587},
{ -0.024083150550723076, -0.05782925710082054, -0.05933592468500137, -0.034671325236558914, -0.06654242426156998}},
{{ 0.011540882289409637, -0.05138710141181946, -0.07989999651908875, -0.05784070864319801, -0.0061174966394901276},
{ 0.03314999118447304, -0.04802892357110977, -0.06696322560310364, -0.024295324459671974, -0.04451052471995354},
{ -0.06616657972335815, 0.007889079861342907, -0.04762055352330208, -0.032287370413541794, -0.014931662939488888},
{ 0.010891609825193882, -0.07812350243330002, 0.0019044193904846907, 0.0009569822577759624, 0.008987274952232838},
{ 0.043217677623033524, -0.04757613316178322, -0.04283827170729637, -0.046397291123867035, 0.033321820199489594}}},
{{{ -0.2577384412288666, -0.730627179145813, -0.08078813552856445, 0.26402589678764343, -0.13028134405612946},
{ 0.12402643263339996, 0.13181233406066895, -0.4538666009902954, 0.09833487868309021, -0.10824111104011536},
{ 0.14295533299446106, 0.16633689403533936, -0.3083829879760742, 0.18170377612113953, 0.03308696672320366},
{ -0.39497682452201843, -0.31161564588546753, -0.2096484899520874, 0.11357258260250092, -0.006191100459545851},
{ 0.12471827864646912, 0.04520958289504051, -0.09690431505441666, 0.2926331162452698, 0.031466931104660034}},
{{ 0.27986079454421997, 0.23969927430152893, 0.05120961740612984, 0.26983368396759033, -0.09110052138566971},
{ 0.02405255287885666, -0.009017041884362698, -0.12961828708648682, 0.07918860763311386, -0.20952612161636353},
{ -0.05526118725538254, -0.16431035101413727, -0.02126665785908699, 0.08908204734325409, 0.03709293156862259},
{ -0.14014077186584473, 0.13318130373954773, 0.030936576426029205, -0.10943055152893066, 0.018807856366038322},
{ 0.25554242730140686, 0.1677820086479187, -0.0873963013291359, -0.3286508321762085, -0.1207856833934784}},
{{ 0.019041048362851143, 0.19856536388397217, 0.21909193694591522, 0.14814524352550507, -0.23471899330615997},
{ -0.156981959939003, 0.024237340316176414, -0.014643032103776932, 0.004427338484674692, 0.0677812248468399},
{ -0.01417773962020874, -0.37682095170021057, 0.11746180057525635, 0.06520315259695053, 0.15908457338809967},
{ 0.10236535966396332, 0.1564868837594986, -0.1474263221025467, -0.052764736115932465, -0.17083024978637695},
{ 0.027790101245045662, -0.11837521195411682, -0.09133333712816238, -0.3141912519931793, -0.23126840591430664}},
{{ 0.18443799018859863, 0.02124565839767456, 0.11942974478006363, 0.10033008456230164, -0.1937081664800644},
{ 0.08223994076251984, 0.13209198415279388, 0.15042787790298462, -0.001327288686297834, 0.2667103409767151},
{ 0.06328791379928589, -0.15074515342712402, 0.21430332958698273, -0.03864558786153793, 0.10478370636701584},
{ -0.2132607251405716, -0.016615962609648705, 0.016386011615395546, 0.0042403568513691425, 0.05439183861017227},
{ -0.19375208020210266, -0.0305124893784523, -0.12099219113588333, 0.05437930300831795, -0.3950742781162262}},
{{ 0.0914912074804306, -0.03195613622665405, -0.2120361626148224, -0.412956565618515, -0.14090485870838165},
{ 0.1822332888841629, 0.19026899337768555, -0.003194201737642288, -0.11692581325769424, 0.09134262800216675},
{ 0.0323634035885334, -0.3001914918422699, 0.18813154101371765, -0.012579360976815224, 0.23363158106803894},
{ 0.08080803602933884, -0.2633199989795685, -0.08755411952733994, -0.22627174854278564, 0.06964626163244247},
{ 0.06157708913087845, 0.2320263534784317, -0.07865563780069351, -0.09571513533592224, -0.05973048135638237}},
{{ -0.410754531621933, -0.4432761073112488, 0.22733443975448608, 0.06124275550246239, -0.12025225907564163},
{ -0.08431215584278107, -0.20876996219158173, 0.25475946068763733, 0.1310001015663147, 0.03994876518845558},
{ 0.01530403085052967, -0.06125318259000778, 0.031916700303554535, -0.017602398991584778, -0.17466649413108826},
{ 0.03525415435433388, -0.1272401213645935, -0.29696470499038696, 0.0983942523598671, -0.10488318651914597},
{ 0.06198634207248688, -0.09091823548078537, 0.03074449673295021, 0.30953943729400635, 0.2806553244590759}},
{{ -0.07577309757471085, -0.1144782081246376, -0.009258152917027473, 0.17327505350112915, -0.03594573587179184},
{ -0.12239423394203186, 0.16164784133434296, 0.18101555109024048, -0.033816296607255936, -0.061642054468393326},
{ -0.38980698585510254, -0.02591192163527012, -0.1567143201828003, -0.06670361012220383, -0.08319567143917084},
{ 0.06790288537740707, -0.10425800085067749, -0.3003736734390259, -0.23703515529632568, 0.06024893745779991},
{ 0.0942242220044136, 0.08773305267095566, -0.025201579555869102, -0.21511314809322357, 0.13209925591945648}},
{{ 0.1785677671432495, 0.2551368176937103, -0.08129505068063736, -0.36432725191116333, -0.2978546619415283},
{ -0.019607549533247948, -0.05193766579031944, -0.07848456501960754, 0.1694057732820511, -0.1325026899576187},
{ 0.22694148123264313, 0.14683395624160767, -0.1898183822631836, 0.08332687616348267, 0.09066624194383621},
{ -0.1007666364312172, 0.15562358498573303, 0.21762199699878693, 0.07710395753383636, 0.1398010551929474},
{ -0.12715671956539154, -0.011147315613925457, -0.10769450664520264, -0.06651058793067932, -0.014807228930294514}},
{{ -0.16679686307907104, 0.10096736997365952, 0.1853240430355072, 0.09061364829540253, -0.07830433547496796},
{ -0.007585335988551378, 0.264424592256546, -0.08934498578310013, -0.16180120408535004, 0.08883495628833771},
{ 0.3036348223686218, -0.3596174418926239, 0.07633578777313232, 0.14203423261642456, 0.050642963498830795},
{ 0.2200927436351776, 0.1332472711801529, 0.02965303510427475, -0.12140214443206787, -0.11847913265228271},
{ -0.00877769198268652, -0.24698558449745178, -0.07506109029054642, -0.15702497959136963, 0.026473738253116608}},
{{ -0.17440836131572723, -0.30087798833847046, -0.15606360137462616, -0.010922369547188282, -0.1550694853067398},
{ -0.13692516088485718, 0.21495452523231506, 0.17311732470989227, -0.04074765741825104, -0.08616863191127777},
{ -0.13886196911334991, 0.08415265381336212, -0.024301093071699142, 0.019476979970932007, -0.05703640729188919},
{ 0.15551722049713135, 0.08271865546703339, -0.1932097226381302, -0.3079471290111542, 0.05546707287430763},
{ -0.041714973747730255, -0.03789147734642029, 0.02362651377916336, -0.2918262183666229, 0.07195110619068146}},
{{ -0.17544181644916534, -0.2229263186454773, -0.3814571499824524, -0.07903654873371124, -0.46239766478538513},
{ -0.050100114196538925, 0.08282122761011124, 0.07671074569225311, 0.15816552937030792, -0.10488836467266083},
{ 0.037582557648420334, -0.05167263746261597, -0.25681987404823303, 0.09664294868707657, -0.07338890433311462},
{ -0.0059904432855546474, -0.12057458609342575, -0.046872399747371674, 0.1167341023683548, 0.11669351160526276},
{ 0.10516516119241714, -0.0787336453795433, 0.05608534440398216, 0.06743036210536957, -0.05775107443332672}},
{{ 0.33305710554122925, 0.2046637088060379, 0.10311877727508545, -0.16516518592834473, -0.278160035610199},
{ -0.09131025522947311, -0.061664000153541565, 0.11052289605140686, -0.28969934582710266, -0.11237776279449463},
{ -0.051381707191467285, -0.036776140332221985, -0.017616892233490944, 0.15355876088142395, 0.1965840607881546},
{ -0.016725748777389526, 0.08535447716712952, -0.09373824298381805, -0.1817951500415802, 0.011409377679228783},
{ 0.26059722900390625, -0.14112667739391327, -0.0164505448192358, -0.006837180349975824, -0.07789427787065506}},
{{ -0.1406489759683609, -0.0653604194521904, -0.15297552943229675, 0.08646203577518463, 0.09466471523046494},
{ -0.09063706547021866, -0.504845142364502, -0.036061402410268784, -0.023534836247563362, -0.2134149968624115},
{ 0.012584535405039787, -0.11931417137384415, -0.038978662341833115, -0.14001435041427612, -0.46425020694732666},
{ -0.17918464541435242, -0.160507932305336, 0.09453447163105011, -0.0862923264503479, 0.05705516040325165},
{ -0.055530793964862823, -0.02764502912759781, -0.024235956370830536, -0.09465864300727844, 0.13065050542354584}},
{{ -0.1250019371509552, -0.06356149166822433, 0.14483144879341125, -0.07764741033315659, -0.22592613101005554},
{ 0.017640963196754456, 0.10849498957395554, 0.05087507143616676, -0.0620342455804348, -0.11913444846868515},
{ -0.07470744848251343, -0.007120604161173105, -0.051103830337524414, -0.15690872073173523, -0.307521790266037},
{ 0.06231579929590225, -0.1490124613046646, -0.17702096700668335, -0.028782689943909645, 0.1937110871076584},
{ -0.02129627950489521, -0.13812272250652313, -0.019235847517848015, 0.17318148910999298, 0.42989015579223633}},
{{ -0.1704058051109314, -0.10942746698856354, 0.19875381886959076, 0.1365678310394287, 0.021354591473937035},
{ -0.08905360847711563, 0.14906971156597137, -0.010921025648713112, -0.11377009004354477, -0.31707659363746643},
{ -0.280646413564682, -0.15019278228282928, 0.04858648031949997, -0.04717852920293808, -0.5104456543922424},
{ -0.0676480233669281, 0.003940257243812084, -0.02970530278980732, -0.32024532556533813, -0.200936958193779},
{ 0.16700975596904755, 0.07046141475439072, -0.09209062904119492, -0.04285963997244835, 0.07035081833600998}},
{{ -0.023248793557286263, 0.10817963629961014, 0.012043890543282032, 0.1007940024137497, -0.04956614971160889},
{ -0.18712876737117767, -0.17199955880641937, 0.12403344362974167, 0.2169085592031479, -0.034886397421360016},
{ -0.10719726234674454, -0.14014595746994019, -0.27083078026771545, -0.023177897557616234, 0.08294859528541565},
{ -0.05385187640786171, 0.2051400989294052, 0.03511686250567436, -0.6217803359031677, -0.22583572566509247},
{ -0.11466048657894135, 0.04281270131468773, 0.014400651678442955, -0.051152195781469345, -0.16619086265563965}}},
{{{ 0.02930053137242794, -0.0777905061841011, -0.03097083419561386, 0.020612195134162903, -0.04413127526640892},
{ -0.04689314588904381, -0.05057508870959282, -0.058168236166238785, -0.003205550368875265, -0.04619960859417915},
{ -0.02149071730673313, -0.01033965777605772, -0.038596175611019135, -0.061394404619932175, -0.08577371388673782},
{ 0.02462831139564514, 0.014787587337195873, -0.015619300305843353, -0.07585697621107101, -0.04763229563832283},
{ 0.03594940900802612, 0.03364365175366402, -0.0011650945525616407, 0.03728864714503288, -0.022596579045057297}},
{{ -0.04750123620033264, 0.021507998928427696, 0.03203961253166199, -0.014929968863725662, -0.031899694353342056},
{ -0.01937101222574711, -0.05107749626040459, -0.05687806010246277, -0.022617435082793236, 0.011910606175661087},
{ -0.03348545357584953, 0.01579122617840767, 0.03701348230242729, -0.017427891492843628, -0.01895935833454132},
{ -0.03824887424707413, -0.010590278543531895, -0.05253008008003235, 0.024496717378497124, 0.03356470540165901},
{ -0.022308770567178726, 0.012503321282565594, -0.03133699297904968, -0.005322169978171587, 0.006623740773648024}},
{{ -0.041144244372844696, -0.04106932505965233, 0.011265857145190239, -0.020601805299520493, -0.042242225259542465},
{ -0.022475071251392365, -0.03156149014830589, -0.024397166445851326, -0.04486513137817383, -0.02185760624706745},
{ 0.02187328413128853, -0.02872077003121376, 0.014523801393806934, -0.047892458736896515, -0.038442809134721756},
{ -0.0015693667810410261, 0.009804941713809967, -0.0529480017721653, -0.015589224174618721, -0.029350705444812775},
{ -0.047626644372940063, -0.07123070955276489, 0.01736375130712986, -0.031758081167936325, 0.028265072032809258}},
{{ -0.041349221020936966, 0.00037338436231948435, -0.03673907369375229, 0.009456433355808258, 0.008186902850866318},
