biases[120] = { -0.08732578158378601,
 -0.11792363971471786,
 -0.08795900642871857,
 0.018793683499097824,
 0.009357262402772903,
 0.028020372614264488,
 0.028170093894004822,
 0.06971853226423264,
 0.03353599086403847,
 -0.04138459265232086,
 -0.046577248722314835,
 -0.041190918534994125,
 -0.04967448115348816,
 -0.030335376039147377,
 -0.04831375554203987,
 -0.024272939190268517,
 -0.031026208773255348,
 -0.05447027459740639,
 -0.06484413146972656,
 -0.07380656152963638,
 -0.015788527205586433,
 -0.03307047486305237,
 -0.07793471217155457,
 -0.07683694362640381,
 0.012393859215080738,
 0.024806978181004524,
 -0.07058901339769363,
 0.11868953704833984,
 0.007159877102822065,
 0.11214704811573029,
 0.06123324856162071,
 0.04772699251770973,
 -0.14871078729629517,
 -0.025586577132344246,
 0.0016558968927711248,
 0.17380978167057037,
 -0.0026003392413258553,
 0.028292519971728325,
 -0.0147251533344388,
 -0.014731488190591335,
 0.006025894079357386,
 0.08269412070512772,
 -0.04925800487399101,
 0.008064838126301765,
 -0.04372132942080498,
 0.011394343338906765,
 -0.016266047954559326,
 0.013198193162679672,
 -0.10866334289312363,
 -0.037547316402196884,
 0.016972169280052185,
 0.23799854516983032,
 -0.018146028742194176,
 0.03402252495288849,
 -0.12081258744001389,
 -0.09364062547683716,
 -0.005646708887070417,
 -0.10573413968086243,
 -0.03968028351664543,
 -0.0821337029337883,
 -0.03745109960436821,
 -0.052623994648456573,
 -0.012165302410721779,
 -0.010068446397781372,
 0.008244992233812809,
 -0.06293968856334686,
 0.04138028621673584,
 -0.03365485370159149,
 0.022758761420845985,
 -0.02506045065820217,
 -0.17425768077373505,
 -0.0313703678548336,
 -0.009053903631865978,
 -0.13721531629562378,
 -0.11543169617652893,
 0.060622718185186386,
 0.01703754812479019,
 0.032996766269207,
 -0.10030832886695862,
 0.006291639059782028,
 -0.074636310338974,
 -0.07294629514217377,
 -0.058909568935632706,
 0.20947928726673126,
 -0.12250998616218567,
 0.0652955025434494,
 0.0839926078915596,
 0.03343113511800766,
 -0.0045491536147892475,
 -0.04653022438287735,
 0.04850446805357933,
 -0.013994325883686543,
 -0.10137012600898743,
 0.0010701074497774243,
 0.07380606979131699,
 -0.05948708951473236,
 0.057805150747299194,
 -0.06262477487325668,
 -0.05295981839299202,
 -0.0003258650831412524,
 -0.05211666598916054,
 -0.05753854662179947,
 -0.009672543033957481,
 -0.036195408552885056,
 0.03659089654684067,
 0.012495748698711395,
 0.0055322591215372086,
 -0.04104921221733093,
 -0.057171911001205444,
 0.11518053710460663,
 -0.029262900352478027,
 0.020907878875732422,
 -0.15857729315757751,
 -0.037394892424345016,
 -0.07829860597848892,
 -0.010185619816184044,
 -0.10056506842374802,
 -0.07398922741413116,
 -0.009863978251814842,
 0.02480940707027912};