weights[84][120] = {{ -0.006550421938300133, -0.05796392634510994, -0.008288227021694183, 0.03809897229075432, 0.029845647513866425, -0.10897540301084518, -0.10545220226049423, 0.02164328843355179, 0.055833812803030014, -0.08423017710447311, -0.011098919436335564, -0.04074100777506828, -0.02112535759806633, -0.06532149016857147, 0.07676291465759277, 0.022781310603022575, -0.10440295189619064, -0.09346137195825577, 0.012019824236631393, 0.044650573283433914, 0.04004770517349243, -0.08490319550037384, 0.05541212111711502, -0.09034977853298187, 0.019153431057929993, -0.07289024442434311, -0.01884659007191658, -0.02740873023867607, -0.0661659687757492, -0.06329970806837082, -0.031274404376745224, -0.010455220937728882, 0.010578066110610962, 0.035403285175561905, -0.0192820243537426, -0.08466042578220367, -0.07997633516788483, 0.06920312345027924, -0.08603503555059433, 0.046057313680648804, -0.05320948734879494, -0.08211246877908707, 0.014400407671928406, 0.06936585903167725, -0.08220413327217102, 0.0034018182195723057, -0.09083886444568634, -0.031036492437124252, -0.07303949445486069, -0.07710475474596024, -0.07073686271905899, -0.07877884805202484, -0.07307358831167221, -0.02736346237361431, -0.12064328044652939, -0.06837184727191925, -0.04553455859422684, 0.026845425367355347, -0.03904165327548981, -0.0011905529536306858, 0.014493493363261223, -0.10541131347417831, -0.015496626496315002, -0.0909990668296814, 0.015329026617109776, -0.019891589879989624, 0.01063322089612484, 0.014964263886213303, 0.08093200623989105, -0.009102657437324524, -0.07169796526432037, 0.030381180346012115, -0.007184803485870361, 0.0019671472255140543, 0.009020909667015076, -0.06094181165099144, 0.052631914615631104, -0.1186816617846489, 0.043636247515678406, 0.044454291462898254, 0.05960945785045624, -0.10123305767774582, 0.05148010328412056, 0.04414266347885132, -0.048981111496686935, -0.11431241035461426, -0.04536363482475281, -0.028777483850717545, -0.09461484104394913, -0.005655363202095032, -0.07106637209653854, -0.08275716751813889, 0.05929822474718094, -0.016656849533319473, -0.07885175198316574, 0.08284801244735718, -0.036298882216215134, -0.0015912114176899195, 0.011239275336265564, -0.07542029023170471, -0.03852929547429085, 0.0019456298323348165, -0.03375326097011566, 0.006524195428937674, -0.0385051928460598, 0.01931973546743393, 0.029886413365602493, -0.03915994241833687, -0.012296810746192932, -0.09293723851442337, -0.10304084420204163, 0.020834118127822876, 0.02448182925581932, 0.03089803457260132, -0.0916583463549614, 0.059097349643707275, -0.12432412803173065, -0.10487435013055801, 0.026319054886698723, -0.08146955072879791},
{ 0.029970958828926086, -0.14722709357738495, -0.20490716397762299, -0.1905834823846817, -0.048116542398929596, -0.14541803300380707, 0.2955626845359802, 0.11345082521438599, 0.1165863573551178, -0.022259268909692764, -0.2693595886230469, -0.061029575765132904, -0.05805930495262146, -0.13781502842903137, -0.05055849999189377, -0.21159060299396515, -0.29552575945854187, -0.1424541026353836, -0.134821355342865, 0.10318047553300858, 0.0740351751446724, 0.14288541674613953, 0.05423779413104057, -0.013012624345719814, -0.2789367437362671, 0.27384719252586365, 0.10303176939487457, 0.107434943318367, 0.37754926085472107, -0.05650533735752106, -0.23487789928913116, -0.2398335188627243, -0.30541548132896423, -0.01830267906188965, 0.14992161095142365, 0.14162474870681763, -0.3687828779220581, 0.003531265538185835, -0.40400072932243347, -0.06687263399362564, -0.05502903833985329, 0.14765793085098267, 0.08780430257320404, -0.22147417068481445, -0.03856959566473961, -0.05292448401451111, 0.09212970733642578, -0.05973559245467186, 0.07919895648956299, 0.1442951261997223, 0.004529386758804321, 0.07697873562574387, 0.05845095217227936, 0.12723857164382935, -0.22466528415679932, 0.18704578280448914, 0.05132780969142914, 0.0814255028963089, 0.11069463193416595, -0.12408466637134552, 0.18519362807273865, 0.1189386323094368, -0.001545699662528932, -0.12083349376916885, 0.16043375432491302, -0.01266772486269474, 0.08268053084611893, -0.1025589182972908, 0.066831074655056, 0.11913547664880753, -0.011244868859648705, -0.19814267754554749, 0.06214158236980438, -0.3343104124069214, 0.04154525697231293, 0.04725078120827675, 0.06700058281421661, 0.01197205763310194, 0.07457209378480911, -0.07930877804756165, -0.008688155561685562, 0.10873356461524963, 0.017716888338327408, 0.09330576658248901, -0.09084765613079071, 0.030541185289621353, 0.12963978946208954, 0.19441889226436615, 0.01396082155406475, -0.04816318675875664, 0.07042455673217773, -0.01841701567173004, -0.02067769505083561, 0.27395883202552795, -0.07090084999799728, -0.07154089212417603, 0.14276635646820068, 0.052796870470047, -0.04346662387251854, -0.062259841710329056, -0.23941746354103088, -0.019983146339654922, 0.009857633151113987, 0.231500506401062, 0.19923900067806244, 0.3560419976711273, 0.13677258789539337, -0.060140322893857956, 0.036115095019340515, 0.232966348528862, -0.006337342318147421, 0.09104790538549423, 0.18473725020885468, 0.027628466486930847, -0.4038788080215454, 0.08826296776533127, 0.05763764679431915, 0.10372710973024368, 0.09111782908439636, 0.24984033405780792},
{ -0.295868456363678, 0.10562252253293991, -0.01251719519495964, -0.0332181453704834, -0.08989694714546204, 0.11442060768604279, -0.144648015499115, -0.056804507970809937, 0.09675344824790955, 0.010843705385923386, 0.05642135813832283, 0.046976689249277115, 0.20706504583358765, 0.19236798584461212, 0.0019811997190117836, -0.06880916655063629, 0.16824600100517273, -0.1640274077653885, 0.2633934020996094, 0.04545527324080467, 0.015772182494401932, -0.010000071488320827, -0.2816570997238159, 0.008579479530453682, 0.09158932417631149, -0.09998015314340591, -0.26526394486427307, 0.18046684563159943, -0.09030213207006454, 0.1259463131427765, 0.17363028228282928, 0.15672728419303894, 0.1789102554321289, 0.13252781331539154, 0.22023038566112518, -0.06838707625865936, -0.17326989769935608, 0.008823830634355545, -0.25517743825912476, -0.032370489090681076, -0.059831686317920685, -0.22697025537490845, 0.11168500036001205, 0.1840306669473648, -0.06476427614688873, -0.13567835092544556, -0.030098512768745422, -0.36001360416412354, 0.23245161771774292, -0.10604429244995117, 0.0933164730668068, 0.10035774856805801, 0.002745742676779628, 0.21611493825912476, 0.12172024697065353, 0.011060941033065319, 0.0875617265701294, -0.09599269926548004, 0.013289770111441612, -0.14385375380516052, -0.11033264547586441, -0.25583913922309875, 0.026874998584389687, -0.07104504108428955, -0.06169934570789337, -0.07406743615865707, -0.35749274492263794, 0.024157283827662468, -0.016970843076705933, 0.0593688040971756, -0.020248398184776306, 0.12933818995952606, -0.0453324057161808, 0.13770191371440887, -0.044838711619377136, -0.3007422983646393, 0.08166104555130005, -0.18964071571826935, 0.04987578094005585, -0.08395064622163773, 0.022271236404776573, -0.3231707215309143, -0.3551832139492035, 0.21849237382411957, 0.2258913516998291, 0.10750250518321991, -0.033691149204969406, -0.1193665862083435, -0.22688430547714233, 0.0054269530810415745, -0.17768645286560059, -0.015429741702973843, 0.021010274067521095, 0.06088022515177727, 0.1407983899116516, -0.0433381162583828, -0.2042725682258606, 0.2582157850265503, 0.0038625106681138277, 0.07476966828107834, -0.014284901320934296, -0.019006676971912384, 0.07123427093029022, -0.429397851228714, -0.017440233379602432, 0.24600908160209656, -0.056459736078977585, -0.08713173866271973, -0.02031688578426838, -0.06709761172533035, 0.06966275721788406, 0.04657192528247833, -0.024034537374973297, -0.015899019315838814, 0.3468029201030731, -0.003502098610624671, -0.11354396492242813, -0.08974096924066544, 0.1440182328224182, 0.26278579235076904},
{ -0.024663103744387627, -0.04017961397767067, 0.04389260336756706, -0.09622825682163239, -0.061335690319538116, -0.3049204349517822, -0.24979738891124725, -0.04557295888662338, -0.047688063234090805, -0.025495652109384537, -0.14054980874061584, -0.026758484542369843, -0.26211509108543396, 0.029605677351355553, -0.0930241271853447, -0.08621563017368317, 0.20140515267848969, -0.17310047149658203, 0.19370219111442566, -0.12667988240718842, 0.32695093750953674, 0.04485788196325302, -0.17260417342185974, -0.06956306099891663, -0.06528569757938385, -0.1267784684896469, -0.022471992298960686, 0.1974080353975296, -0.05741390213370323, -0.12936539947986603, -0.00476266723126173, 0.07778888195753098, 0.272872656583786, -0.009871232323348522, -0.1799452155828476, -0.025053050369024277, 0.03622317686676979, -0.02348879911005497, 0.01907307095825672, 0.016177857294678688, 0.015490323305130005, -0.011011271737515926, 0.16270577907562256, 0.24705219268798828, -0.017318502068519592, 0.029357830062508583, 0.000185993398190476, -0.023869244381785393, -0.13547073304653168, -0.29140064120292664, -0.02641166001558304, 0.13753044605255127, -0.07025556266307831, 0.10047518461942673, -0.003054703352972865, 0.05643763020634651, -0.029563818126916885, 0.011259142309427261, -0.17574165761470795, 0.046624500304460526, 0.0926172137260437, -0.1990213543176651, 0.07951724529266357, 0.5366322994232178, -0.1550784707069397, 0.04256954789161682, -0.2093641310930252, -0.06402808427810669, 0.03427046537399292, -0.0680229440331459, -0.12175258994102478, -0.12060774117708206, 0.004634660668671131, -0.01889524608850479, -0.11858336627483368, 0.02405356802046299, -0.021189812570810318, -0.1998288631439209, -0.055913046002388, -0.04982158541679382, -0.014853437431156635, -0.1350589096546173, -0.020162362605333328, 0.1385202556848526, -0.1705477386713028, -0.06244577839970589, -0.29159554839134216, -0.1077137440443039, -0.1816680133342743, -0.04116150736808777, -0.11804238706827164, -0.08865039050579071, 0.10433828830718994, -0.19664639234542847, -0.02006896585226059, 0.057800035923719406, -0.023886874318122864, -0.2247004508972168, 0.04453408718109131, 0.047701556235551834, 0.08365029841661453, -0.06954458355903625, 0.04723416268825531, -0.1806662678718567, -0.17883418500423431, 0.029540320858359337, -0.015541361644864082, -0.02480272948741913, 0.056359559297561646, 0.2115485519170761, -0.09127219766378403, -0.05833173915743828, -0.004094293806701899, 0.07267452776432037, -0.02446160651743412, 0.0671369805932045, -0.04580280929803848, 0.014668846502900124, 0.02567075751721859, 0.13722097873687744},
{ -0.2167760580778122, -0.07205358147621155, 0.1878061592578888, 0.0479155033826828, -0.04753881320357323, -0.04096711426973343, 0.12430194020271301, -0.2522597908973694, -0.08985472470521927, -0.0020774155855178833, -0.33253610134124756, -0.1005031168460846, -0.09006787091493607, 0.2034999132156372, -0.008208341896533966, -0.12343834340572357, -0.1449560523033142, -0.2335437536239624, -0.28869426250457764, -0.13236269354820251, -0.01020148303359747, -0.1590002328157425, -0.09277228266000748, -0.030511923134326935, 0.046724583953619, -0.08507771790027618, 0.0669393464922905, 0.045531950891017914, -0.14743457734584808, -0.0472838468849659, 0.0675438717007637, -0.02870558202266693, 0.06781444698572159, -0.1585756540298462, -0.1527707427740097, -0.11204510927200317, -0.31198811531066895, 0.05977010726928711, -0.3174174129962921, 0.0012531355023384094, 0.027143843472003937, -0.20799188315868378, 0.17135314643383026, -0.20251880586147308, 0.0059119462966918945, -0.21738669276237488, 0.05358876287937164, -0.1578274369239807, -0.024130867794156075, -0.06824209541082382, -0.015000708401203156, -0.04169078543782234, -0.001552976667881012, 0.17501597106456757, 0.09537345170974731, -0.06864769011735916, -0.06685301661491394, 0.07762964069843292, -0.09233543276786804, 0.0061785075813531876, 0.042500995099544525, -0.06624037027359009, -0.03165343031287193, 0.008579175919294357, 0.15607284009456635, -0.021653354167938232, -0.12767978012561798, -0.1950015127658844, -0.011004343628883362, -0.08501050621271133, -0.040338192135095596, -0.3895631432533264, 0.0065252408385276794, 0.027276547625660896, -0.10709642618894577, -0.014345185831189156, -0.01918066293001175, -0.014293094165623188, 0.014644413255155087, -0.019781015813350677, 0.04116882383823395, -0.1546403169631958, -0.12913456559181213, -0.09406445920467377, 0.0964462161064148, -0.11712077260017395, -0.2044222205877304, 0.25605690479278564, -0.07404758781194687, 0.06153206527233124, 0.10240507125854492, 0.01598747819662094, 0.08435945212841034, -0.10017907619476318, -0.1530034840106964, -0.017674103379249573, 0.10797794908285141, 0.037800662219524384, -0.01588999480009079, -0.01559524517506361, -0.12234217673540115, -0.18643710017204285, -0.027316272258758545, 0.009542714804410934, -0.06414829194545746, 0.061256293207407, -0.014889265410602093, 0.0011297091841697693, 0.03642299771308899, 0.08920841664075851, 0.0726228877902031, -0.020340323448181152, -0.06256464123725891, 0.0470409095287323, -0.15624050796031952, 0.07792959362268448, -0.025741279125213623, 0.010849294252693653, -0.11927224695682526, 0.036690808832645416},
{ 0.11473757028579712, 0.0728139728307724, -0.08924288302659988, -0.23430638015270233, -0.0420040488243103, 0.22750823199748993, -0.07885667681694031, 0.278511643409729, -0.042742833495140076, 0.0797252207994461, 0.18022489547729492, 0.038814861327409744, 0.1697784811258316, -0.09304603934288025, 0.0577852837741375, -0.057156581431627274, 0.21915921568870544, 0.1818961501121521, 0.17419502139091492, 0.20735928416252136, -0.0870499387383461, 0.10929053276777267, -0.08003834635019302, 0.017199194058775902, 0.3503929674625397, -0.10489439964294434, 0.23361770808696747, -0.06016283854842186, 0.10665103048086166, 0.12676715850830078, 0.10701610893011093, 0.25079071521759033, -0.19052323698997498, -0.1830199956893921, 0.14556534588336945, 0.015655208379030228, 0.23862533271312714, -0.03245290368795395, 0.20893840491771698, 0.05453755334019661, -0.01264440082013607, -0.17462122440338135, -0.20258736610412598, -0.2586073577404022, -0.0013051347341388464, 0.049981992691755295, -0.04415075108408928, 0.2432529330253601, 0.10516676306724548, 0.10925816744565964, 0.0710379034280777, -0.05092402547597885, 0.00011853614705614746, -0.10513651371002197, -0.10007935762405396, 0.20246678590774536, 0.0035158894024789333, 0.037804845720529556, -0.02719363011419773, 0.1303095817565918, 0.019033998250961304, -0.2830391228199005, -0.030788687989115715, -0.3515864610671997, -0.42471620440483093, 0.007150545716285706, -0.23162047564983368, 0.05971222370862961, -0.0036051732022315264, 0.06789856404066086, -0.017833273857831955, -0.031174398958683014, -0.07371357828378677, -0.01104822475463152, -0.01469021663069725, 0.01462799683213234, 0.06360180675983429, 0.24410994350910187, -0.20352526009082794, -0.02316715009510517, 0.07556615024805069, -0.08200550824403763, 0.2336432784795761, 0.11226348578929901, -0.1027679592370987, -0.032167088240385056, -0.15907339751720428, -0.10883661359548569, -0.20253127813339233, -0.04835547134280205, 0.32663044333457947, -0.06608589738607407, 0.17043344676494598, -0.023887427523732185, 0.19854773581027985, 0.03687131404876709, -0.0198313407599926, 0.04330088570713997, -0.03586874529719353, -0.024986429139971733, 0.05486937239766121, -0.08594208210706711, -0.04381534829735756, 0.07603409141302109, 0.16649897396564484, 0.03270765766501427, 0.012565188109874725, -0.032011087983846664, 0.058429017663002014, 0.04760608822107315, -0.04037332162261009, -0.011931324377655983, -0.38235658407211304, -0.02239987626671791, -0.04650958254933357, -0.08612564951181412, -0.13692858815193176, -0.32491323351860046, 0.13321688771247864, 0.05629481375217438},
{ -0.27631300687789917, -0.051515091210603714, -0.09100860357284546, 0.14510630071163177, 0.0654236227273941, -0.11526967585086823, 0.01173492893576622, 0.06661594659090042, 0.27156907320022583, 0.011983097530901432, -0.2012506127357483, -0.01449260488152504, 0.3030926585197449, 0.07773125171661377, -0.022826306521892548, -0.015183789655566216, 0.013178895227611065, -0.22270487248897552, 0.19588254392147064, -0.01722417213022709, 0.06209983304142952, 0.09113316982984543, -0.23324882984161377, -8.471289038425311e-05, 0.11174172163009644, 0.1107025146484375, -0.10294342786073685, 0.14175590872764587, -0.018176497891545296, 0.23339609801769257, 0.053086794912815094, 0.02510990761220455, -0.17982907593250275, 0.04673139005899429, -0.1015007421374321, 0.012540214695036411, -0.3243680000305176, -0.03662794455885887, -0.3759354054927826, -0.038512393832206726, 0.03125836327672005, -0.07781270891427994, 0.16779188811779022, -0.1745581179857254, 0.06708899885416031, -0.011555003002285957, -0.05384126305580139, 0.004574721213430166, 0.0754370465874672, -0.2123946100473404, -0.000729958584997803, -0.12146937102079391, 0.0399300716817379, -0.04566660523414612, 0.07427746802568436, 0.11334127932786942, 0.08566935360431671, -0.07672089338302612, -0.10683002322912216, -0.06022465601563454, 0.0042335884645581245, -0.18463793396949768, 0.014258578419685364, -0.13934923708438873, -0.08163845539093018, -0.07620062679052353, -0.2691892087459564, 0.0018601332558318973, 0.07931818068027496, -0.06392979621887207, -0.007317660376429558, -0.15759749710559845, -0.010044100694358349, -0.190317302942276, 0.03549555316567421, -0.04552066698670387, -0.05853796377778053, 0.005795955192297697, 0.0026378631591796875, 0.09958115965127945, 0.02852468751370907, -0.12814341485500336, -0.15045137703418732, 0.0509645901620388, -0.12264931201934814, -0.0613282285630703, 0.021764732897281647, 0.21516966819763184, -0.24090039730072021, 0.06466864049434662, -0.17334051430225372, 0.053228311240673065, 0.0403534397482872, -0.08330472558736801, -0.1381314992904663, -0.013625036925077438, 0.11292517185211182, 0.08015082031488419, -0.0006403286824934185, 0.01507373433560133, 0.01623123697936535, 0.03679806739091873, 0.02483236975967884, -0.06256379932165146, 0.20970995724201202, 0.02387024462223053, 0.14671175181865692, -0.0653807744383812, -0.09426861256361008, 0.253774493932724, 0.005684473551809788, 0.08523906022310257, -0.11767458915710449, 0.08501704037189484, 0.03908989951014519, 0.027198581025004387, -0.03582911193370819, -0.04142456129193306, 0.12460446357727051, 0.0688176229596138},
{ 0.012610139325261116, -0.2605139911174774, -0.2106265425682068, -0.0490732342004776, -0.062075696885585785, -0.20984415709972382, 0.010670028626918793, 0.10481761395931244, -0.15337471663951874, -0.06777358055114746, -0.2006983458995819, 0.0516330786049366, 0.11219897866249084, 0.10183178633451462, 0.08149074763059616, -0.06125232204794884, -0.08417584002017975, -0.12880563735961914, 0.16736973822116852, -0.13466835021972656, -0.057042911648750305, 0.010942854918539524, -0.043488435447216034, -0.010561583563685417, -0.12010279297828674, 0.24142546951770782, 0.011693935841321945, 0.1489817351102829, 0.13026896119117737, 0.015871955081820488, -0.3624874949455261, -0.31242743134498596, -0.17823489010334015, -0.07823231816291809, 0.013435653410851955, 0.1932007372379303, -0.34676316380500793, -0.066472128033638, -0.3183002471923828, -0.08958860486745834, -0.04177251085639, 0.0628577321767807, -0.03183756768703461, 0.049018651247024536, 0.004881663713604212, -0.00793375726789236, 0.03366825729608536, -0.03800267353653908, -0.07402920722961426, -0.050914790481328964, -0.025764355435967445, 0.16810332238674164, 0.06854891777038574, -0.10324174910783768, -0.16168493032455444, 0.2171366959810257, -0.02536441758275032, 0.089439757168293, 0.0007401705952361226, -0.18472380936145782, 0.05271917209029198, 0.10237903892993927, -0.027394132688641548, -0.13157987594604492, 0.049154940992593765, 0.0893908217549324, 0.2111956775188446, 0.12482652813196182, -0.03759760409593582, -0.007494140416383743, -0.09086180478334427, -0.14161914587020874, 0.06676588207483292, -0.3073890507221222, 0.20391739904880524, 0.03079277276992798, -0.006552199367433786, -0.12260377407073975, 0.21829591691493988, -0.06354491412639618, 0.037129953503608704, 0.11126305907964706, 0.008105844259262085, 0.007405867334455252, -0.08516798168420792, 0.13364571332931519, 0.1427524834871292, 0.14262209832668304, 0.04267027974128723, 0.020170914009213448, 0.02541872300207615, 0.08811391144990921, -0.10598333179950714, 0.1475454866886139, -0.013758729211986065, -0.0324787013232708, 0.26823604106903076, 0.1549510508775711, 0.06519843637943268, 0.1374964565038681, -0.1431807279586792, 0.22307336330413818, 0.049217019230127335, -0.0804838016629219, -0.06589516997337341, 0.31896406412124634, 0.15025727450847626, -0.08438027650117874, 0.054739706218242645, 0.1436360776424408, 0.062433645129203796, 0.025911875069141388, 0.13049909472465515, -0.0847512036561966, -0.08005689084529877, -0.05909940227866173, -0.17173148691654205, -0.0692613422870636, 0.08923200517892838, 0.2864680588245392},
{ 0.0046624387614429, 0.15814335644245148, -0.02672792412340641, 0.17211692035198212, 0.04778997600078583, 0.23889562487602234, 0.09192713350057602, 0.025391127914190292, 0.022079970687627792, 0.07687757164239883, -0.03952796012163162, -0.03107520192861557, 0.24090541899204254, -0.037258248776197433, -0.05042346194386482, -0.03198091313242912, 0.01990140601992607, -0.16341571509838104, -0.03341598063707352, -0.14794296026229858, -0.13346785306930542, 0.07755967229604721, -0.17095303535461426, -0.06734775751829147, 0.16130377352237701, 0.1082579642534256, -0.14586113393306732, -0.07627052068710327, -0.02672141045331955, -0.00618730066344142, 0.22844302654266357, -0.278180867433548, -0.10568863153457642, 0.37123048305511475, -0.0607815645635128, 0.04451848566532135, -0.33931413292884827, 0.08473300188779831, -0.4070163369178772, -0.052947841584682465, 0.007660343311727047, -0.0032770619727671146, -0.1060410737991333, -0.027709921821951866, 0.07145128399133682, 0.2094380408525467, -0.021858079358935356, 0.06456208974123001, 0.007753328420221806, -0.021703392267227173, -0.03910255432128906, 0.013150197453796864, 0.047409869730472565, -0.1460125595331192, -0.06948477029800415, -0.12402666360139847, 0.03847498074173927, 0.040011413395404816, 0.12198017537593842, 0.07145469635725021, 0.2762789726257324, 0.10307320952415466, 0.06755958497524261, -0.049448560923337936, -0.055748287588357925, 0.08313938975334167, -0.06661207228899002, 0.26963019371032715, 0.005328845232725143, 0.009189662523567677, -0.1269294172525406, 0.2582811117172241, 0.03929102420806885, -0.27975597977638245, 0.03316782787442207, 0.0917326956987381, -0.011514411307871342, -0.127039834856987, 0.14867711067199707, -0.08335690945386887, -0.08795930445194244, -0.273107647895813, -0.33345016837120056, 0.08160622417926788, 0.004941259976476431, 0.022064577788114548, 0.03187888488173485, -0.04104434698820114, -0.09929415583610535, 0.01596127636730671, -0.02050040289759636, 0.041219908744096756, -0.08791792392730713, -0.30103030800819397, 0.06609669327735901, 0.025389986112713814, 0.05220719054341316, -0.0029914616607129574, -0.057991188019514084, 0.000415527232689783, 0.21498121321201324, -0.13043810427188873, 0.09700621664524078, -0.012749362736940384, 0.28246796131134033, -0.34085628390312195, 0.3135520815849304, 0.08116193115711212, 0.07360461354255676, 0.18885396420955658, 0.10381036251783371, -0.09096625447273254, -0.26569288969039917, 0.03690783306956291, -0.047339532524347305, -0.03726968169212341, -0.21394720673561096, -0.29796305298805237, 0.22728441655635834, 0.158988818526268},
{ 0.03599192947149277, 0.0897926315665245, -0.17969046533107758, -0.0352231040596962, 0.08487068861722946, -0.0025753274094313383, -0.2700519859790802, -0.13521002233028412, 0.2755419909954071, -0.00047268409980461, -0.22381772100925446, -0.05808882415294647, -0.02760539948940277, 0.04428878054022789, -0.07095623761415482, 0.2459215670824051, -0.22511127591133118, 0.014212772250175476, 0.10249744355678558, 0.113525390625, -0.11992625147104263, -0.014158707112073898, 0.22515569627285004, 0.006104068364948034, 0.10702797770500183, 0.0974314883351326, 0.13931913673877716, 0.13135556876659393, -0.06036160886287689, 0.052207477390766144, 0.003553555114194751, -0.021459462121129036, -0.11613792181015015, -0.3045574426651001, 0.12248943746089935, -0.3218076229095459, -0.04367215931415558, -0.06538168340921402, 0.15359453856945038, 0.020467285066843033, 0.044403210282325745, 0.19136473536491394, -0.13875241577625275, -0.24954314529895782, 0.1051751896739006, 0.07692849636077881, -0.02658247947692871, 0.0567314513027668, -0.2145998179912567, 0.03304396569728851, -0.12176439166069031, -0.3405904769897461, 0.026672326028347015, -0.017515530809760094, 0.06672732532024384, -0.014155606739223003, 0.04646158218383789, 0.08858362585306168, -0.0111783966422081, 0.17830783128738403, 0.03726080805063248, 0.0012064720503985882, 0.04714157432317734, 0.07695195078849792, 0.07504052668809891, 0.01438023429363966, -0.008556146174669266, -0.04386518895626068, 0.03957367688417435, 0.017991172149777412, 0.13427597284317017, -0.1369665563106537, 0.08237375319004059, 0.04078790545463562, -0.04449339210987091, 0.050846755504608154, -0.05573255941271782, 0.26166218519210815, -0.0022600034717470407, 0.08561156690120697, -0.01204188447445631, -0.02951601706445217, 0.23608414828777313, -0.3998050093650818, -0.00044200921547599137, -0.3387930691242218, -0.0799533948302269, 0.012011962942779064, 0.0005588567582890391, 0.10215945541858673, -0.10260126739740372, 0.005267620552331209, 0.139509916305542, 0.05721736326813698, 0.12927494943141937, -0.0015788970049470663, -0.06100679188966751, 0.175951287150383, 0.004853941034525633, 0.05024334415793419, -0.09797149151563644, -0.10809367895126343, 0.07359306514263153, 0.22159446775913239, -0.17702478170394897, -0.13461068272590637, -0.12149441242218018, -0.02786986716091633, 0.11221809685230255, -0.1255236268043518, -0.08723495155572891, -0.09404545277357101, 0.27249395847320557, -0.05019300431013107, -0.1307840496301651, -0.005490848794579506, 0.12181311845779419, -0.1326805055141449, -0.1478414535522461, -0.22071033716201782},
{ 0.08320576697587967, -0.2016526609659195, -0.29239097237586975, -0.3013816773891449, 0.07117064297199249, 0.026701468974351883, 0.10526889562606812, 0.24336066842079163, 0.037106387317180634, -0.04073112830519676, -0.11136523634195328, 0.024712523445487022, -0.006715703289955854, -0.1555916965007782, -0.07847758382558823, -0.08670727163553238, -0.1366942822933197, 0.35202187299728394, 0.13477766513824463, 0.012586661614477634, 0.05364152789115906, -0.0516919381916523, 0.1734909564256668, 0.006581985857337713, 0.07396040111780167, -0.04074912145733833, 0.18692389130592346, 0.07548176497220993, 0.3254638612270355, -0.01460668258368969, -0.26728031039237976, 0.17775344848632812, -0.004733460955321789, -0.13490478694438934, 0.10309702903032303, 0.19997386634349823, -0.0845802053809166, 0.016664041206240654, -0.3339674174785614, -0.03830420598387718, 0.05811694636940956, 0.2094610184431076, 0.017308581620454788, 0.01602880284190178, 0.04801669344305992, -0.006389889400452375, 0.08832821995019913, 0.2269696742296219, -0.16922082006931305, 0.029244858771562576, -0.09503641724586487, 0.05908543989062309, -0.06362850964069366, -0.0373702235519886, -0.14373666048049927, 0.017634673044085503, -0.0025881461333483458, -0.005741635337471962, 0.08461729437112808, 0.1434098184108734, 0.14208373427391052, -0.049097560346126556, 0.017282286658883095, -0.17526333034038544, -0.1419520229101181, 0.0020493194460868835, 0.1627897173166275, 0.02240161970257759, 0.050709523260593414, -0.02782401256263256, -0.023516647517681122, -0.008042247034609318, -0.07108499109745026, -0.22624371945858002, 0.08804656565189362, -0.018899906426668167, 0.011513841338455677, -0.20245979726314545, -0.34530022740364075, -0.04788212850689888, 0.09605098515748978, 0.17315591871738434, 0.20715981721878052, 0.08702997863292694, -0.2061544507741928, 0.11217792332172394, -0.12096725404262543, -0.07186111062765121, 0.2341153621673584, 0.032428499311208725, 0.43390291929244995, -0.012425809167325497, -0.09248880296945572, -0.020952610298991203, 0.1468030959367752, -0.12739624083042145, -0.13517147302627563, -0.11615552008152008, 0.03651449456810951, 0.18252497911453247, -0.1363719254732132, -0.1819460541009903, 0.07938731461763382, 0.1794653683900833, 0.11608173698186874, 0.1748904585838318, 0.03175466135144234, -0.08335590362548828, 0.0003799578407779336, 0.03639398142695427, -0.5003095865249634, 0.05423757806420326, -0.10635388642549515, 0.07851580530405045, -0.7336558103561401, 0.09312135726213455, -0.2160942107439041, -0.2264738529920578, 0.0639415830373764, 0.1819062978029251},
{ 0.05254954472184181, -0.2062305361032486, 0.13699506223201752, -0.0029954740311950445, -0.08613478392362595, -0.17685040831565857, -0.14395347237586975, -0.03669697418808937, -0.09457340091466904, 0.0742449015378952, -0.2733857333660126, -0.015782920643687248, -0.3346186578273773, -0.12087241560220718, 0.09328728169202805, 0.10520992428064346, -0.06594496220350266, -0.24662207067012787, 0.014509431086480618, -0.17268486320972443, -0.027783412486314774, -0.21368469297885895, -0.10447829216718674, 0.004349212162196636, -0.20457063615322113, -0.11758622527122498, 0.041812047362327576, 0.10492613166570663, 0.005197520833462477, -0.11308123171329498, -0.13117578625679016, -0.09347694367170334, 0.04386969655752182, 0.013316690921783447, 0.05120706558227539, -0.06289306282997131, -0.003009685082361102, 0.02459149807691574, 0.03141121566295624, -0.010605111718177795, -0.01401478797197342, 0.27629074454307556, -0.07256284356117249, -0.03244621679186821, -0.06218988448381424, 0.04464534670114517, -0.08451705425977707, 0.007491819094866514, -0.006915345322340727, 0.03919115662574768, -0.03160334751009941, 0.105465367436409, 0.07705861330032349, 0.0447748564183712, -0.2939162850379944, 0.047063399106264114, 0.01854713261127472, -0.04078911617398262, -0.12747959792613983, -0.13246069848537445, -0.17482754588127136, -0.008720902726054192, -0.027229875326156616, 0.06408445537090302, -0.1432356983423233, 0.02431095391511917, -0.13372306525707245, -0.047300003468990326, -0.01789873093366623, -0.0002770721912384033, -0.04156852886080742, -0.14188061654567719, -0.050557106733322144, -0.2331600934267044, 0.21133436262607574, -0.30523502826690674, 0.054352328181266785, 0.1299707591533661, 0.25591742992401123, 0.07618562877178192, -0.04062318429350853, 0.045978907495737076, -0.038204438984394073, -0.11363264918327332, 0.00663762679323554, -0.21702377498149872, 0.0295422300696373, 0.05593912675976753, 0.05513996258378029, -0.05341435596346855, -0.09338251501321793, -0.02947581373155117, -0.02370806410908699, -0.15527231991291046, -0.012768781743943691, 0.10970552265644073, -0.10340883582830429, 0.2218645215034485, -0.054783161729574203, 0.015690742060542107, 0.009588840417563915, 0.07541216164827347, -0.07345254719257355, 0.1401066929101944, 0.05920909717679024, -0.20540191233158112, 0.0968523770570755, 0.027594618499279022, 0.05640584975481033, -0.17811577022075653, -0.19175750017166138, -0.03757964074611664, -0.12351276725530624, -0.016999877989292145, -0.3381960690021515, 0.009019413962960243, 0.07763577252626419, 0.06569597870111465, -0.04907367378473282, -0.38438811898231506},
{ -0.01665506139397621, 0.045719847083091736, 0.10252327471971512, 0.00215326389297843, 0.09889848530292511, -0.20715013146400452, -0.1025639995932579, -0.19418735802173615, -0.09412020444869995, 0.042293209582567215, 0.07633677870035172, -0.07808427512645721, 0.17962287366390228, 0.01229269988834858, -0.003982561640441418, -0.0668359249830246, 0.022303558886051178, -0.1343088448047638, 0.15921719372272491, 0.026304511353373528, -0.06406066566705704, -0.31977578997612, 0.0810321792960167, 0.07028450071811676, 0.066416896879673, -0.19303320348262787, -0.28861287236213684, -0.09783650934696198, 0.08391272276639938, 0.13751108944416046, 0.13789436221122742, -0.04151080548763275, 0.1743289679288864, 0.23323428630828857, -0.0759507492184639, 0.0315677747130394, 0.20382022857666016, 0.0073312618769705296, 0.03938859701156616, -0.0181160569190979, 0.09272946417331696, 0.02158806473016739, 0.05523819476366043, 0.33608731627464294, -0.03798395022749901, 0.077752985060215, 0.0326957181096077, 0.0806969702243805, 0.11351612955331802, -0.5480400919914246, 0.05769543722271919, 0.2064729630947113, 0.03560008481144905, 0.05529964342713356, 0.1624000370502472, -0.281853049993515, -0.06915920227766037, -0.07014935463666916, 0.009631841443479061, -0.010064670816063881, -0.22628237307071686, -0.06989200413227081, -0.007887216284871101, 0.2574760615825653, -0.4271915555000305, 0.007079961244016886, 0.07572732865810394, -0.027833107858896255, -0.005564951337873936, -0.04312119260430336, 0.02835909090936184, 0.20677733421325684, -0.0004352472897153348, 0.20558811724185944, 0.13539935648441315, -0.0068119000643491745, -0.0009717491338960826, 0.14851118624210358, -0.042055536061525345, 0.0629691407084465, -0.022583091631531715, 0.31768107414245605, -0.29401060938835144, 0.11620977520942688, 0.11308281868696213, 0.22047081589698792, -0.07780428230762482, -0.3257206976413727, 0.011271586641669273, 0.07290156185626984, -0.1794445961713791, 0.07681700587272644, -0.02447579987347126, 0.22636018693447113, 0.14602738618850708, -0.014260915108025074, -0.3018380403518677, -0.043776918202638626, 0.006648646201938391, -0.07640470564365387, 0.11813227832317352, 0.20488965511322021, 0.07005982846021652, -0.22362881898880005, -0.5319430828094482, 0.19823800027370453, -0.00840025208890438, -0.053199850022792816, 0.07695848494768143, -0.17479649186134338, -0.11188490688800812, 0.04532381147146225, 0.07519719004631042, 0.06863941252231598, 0.2792122960090637, -0.0032528224401175976, -0.11788950115442276, 0.22464126348495483, 0.15569370985031128, 0.031082257628440857},
{ -0.027102114632725716, -0.019067205488681793, 0.2525281012058258, -0.06856323778629303, -0.010863485746085644, -0.0871487706899643, -0.15930777788162231, -0.3658331334590912, 0.4241959750652313, -0.014337534084916115, 0.005043113604187965, -0.03340335562825203, 0.2813296914100647, 0.18889860808849335, 0.11851297318935394, -0.005433591548353434, 0.05620121210813522, 0.13168799877166748, 0.1305309534072876, 0.08202314376831055, 0.03355124220252037, -0.20260700583457947, -0.02139255590736866, 0.05720759928226471, 0.07098057866096497, 0.07660888135433197, -0.06485440582036972, 0.13270588219165802, -0.05367038771510124, -0.05954514443874359, -0.03136618062853813, -0.11832498759031296, 0.10752230882644653, 0.16051876544952393, 0.08326754719018936, -0.2030293345451355, 0.07168947905302048, 0.03211092948913574, 0.1502142995595932, 0.04170648008584976, 0.053506821393966675, 0.09054665267467499, 0.1575012356042862, 0.05642129108309746, -0.011688954196870327, 0.09621573984622955, 0.06445948034524918, -0.12069915980100632, 0.038384951651096344, -0.45764604210853577, -0.016720889136195183, -0.059474993497133255, -0.030997250229120255, 0.01389915868639946, 0.20819376409053802, -0.024182043969631195, -0.023419519886374474, 0.08138711750507355, -0.044741686433553696, -0.09825356304645538, -0.29545560479164124, 0.05063198134303093, 0.022473663091659546, 0.2127809375524521, -0.24524015188217163, -0.05972044914960861, 0.04808330163359642, 0.11738507449626923, -0.030379444360733032, -0.08619937300682068, 0.11998652666807175, 0.18569126725196838, 0.009017020463943481, 0.11946477741003036, 0.18406403064727783, -0.10424263775348663, -0.02325291559100151, 0.04000542685389519, 0.10982061177492142, 0.07325401157140732, 0.040118176490068436, 0.14171332120895386, -0.1471516638994217, -0.13357850909233093, 0.12845787405967712, 0.045897968113422394, -0.047427039593458176, -0.02353076823055744, -0.08467747271060944, -0.03812722489237785, -0.1513025462627411, -0.0870509147644043, -0.07076901197433472, -0.053133945912122726, 0.08117612451314926, 0.04659067839384079, -0.2007371336221695, 0.3125733733177185, -0.04078005254268646, -0.04074809327721596, 0.14271137118339539, 0.23751169443130493, -0.05130256339907646, -0.2905110716819763, -0.22871877253055573, 0.07111218571662903, 0.059566132724285126, 0.0028963598888367414, -0.07131806761026382, -0.33691996335983276, 0.10232429206371307, -0.021182119846343994, 0.208908811211586, -0.023241998627781868, 0.4284990727901459, -0.07082738727331161, -0.041184425354003906, 0.04667768254876137, 0.07579874992370605, 0.04496585577726364},
{ -0.04570208117365837, 0.006332597229629755, -0.08579550683498383, -0.13364100456237793, 0.043324440717697144, -0.027852259576320648, -0.12911131978034973, -0.1449151188135147, 0.0037759568076580763, -0.05783018469810486, -0.06225632503628731, 0.015916943550109863, -0.07723791152238846, -0.11032173037528992, -0.023082541301846504, -0.01753174513578415, -0.1265379786491394, -0.06082136183977127, 0.029444275423884392, 0.04619366303086281, -0.03215239569544792, -0.04549778997898102, -0.10325983911752701, -0.026628833264112473, 0.007088573183864355, 0.013843929395079613, 0.010656498372554779, -0.07074879109859467, -0.03826863318681717, -0.026302212849259377, -0.050654858350753784, -0.016682200133800507, -0.05694979801774025, -0.10874045640230179, -0.05530586466193199, -0.06910552829504013, -0.08710294961929321, -0.02089298889040947, 0.030905259773135185, -0.02848675847053528, -0.04986622557044029, -0.007180818822234869, 0.005822093691676855, 0.03219865262508392, -0.054400693625211716, -0.06577768176794052, -0.09482258558273315, -0.11017856001853943, 0.029684413224458694, 0.01569727435708046, -0.013813751749694347, -0.05302003026008606, 0.03929104283452034, 0.018894359469413757, -0.06694980710744858, -0.049275822937488556, -0.08053583651781082, -0.05964655801653862, 0.08569765090942383, -0.1212870180606842, -0.0318298265337944, -0.10385433584451675, -0.08807788044214249, -0.06671711802482605, 0.03719513863325119, 0.007912985980510712, 0.048189204186201096, -0.07517056167125702, 0.017702698707580566, -0.07016345858573914, -0.03774699568748474, 0.08406715095043182, 0.04040186479687691, -0.04470819607377052, -0.0008821785449981689, -0.0964057445526123, -0.08330707252025604, -0.05131486430764198, -0.03334557265043259, -0.0865020900964737, -0.09097258001565933, -0.07620123773813248, -0.06002264469861984, -0.09292693436145782, 0.053528182208538055, -0.025908898562192917, -0.126445472240448, 0.017649604007601738, -0.08512281626462936, -0.07829985022544861, 0.041689202189445496, -0.04222787916660309, -0.08062254637479782, -0.0699315220117569, -0.05700073763728142, 0.05417649820446968, -0.13953901827335358, -0.061507448554039, -0.06228082627058029, 0.012191075831651688, 0.023508168756961823, -0.003009241772815585, 0.044943273067474365, -0.06058303639292717, -0.08738023042678833, -0.06925827264785767, 0.0183400921523571, 0.035221949219703674, 0.040999025106430054, 0.0628141239285469, -0.1218031570315361, 0.025509929284453392, 0.04089437797665596, -0.010513760149478912, -0.06868873536586761, 0.05110934004187584, 0.035376373678445816, -0.07114293426275253, -0.13812431693077087, -0.005388494580984116},
{ -0.1313161849975586, 0.03071216680109501, 0.0838998332619667, 0.03531862795352936, 0.008568458259105682, -0.23626576364040375, -0.1566210687160492, -0.264627605676651, 0.13570944964885712, -0.032793935388326645, -0.3385678231716156, 0.010016614571213722, 0.00488826772198081, 0.2197594940662384, 0.04507437348365784, -0.2005993276834488, -0.035964760929346085, -0.04807445406913757, 0.0057092634961009026, 0.11059729009866714, -0.07677692174911499, 0.13185901939868927, -0.1618558168411255, -0.03482062742114067, 0.0587727390229702, 0.10994713753461838, 0.17001980543136597, 0.29995110630989075, -0.0002395321789663285, 0.18772338330745697, -0.20102931559085846, -0.0014184766914695501, -0.19567416608333588, -0.29916754364967346, 0.045953623950481415, -0.06116301193833351, -0.033200301229953766, -0.0434684082865715, -0.12613779306411743, -0.033628273755311966, 0.021333016455173492, 0.07604273408651352, 0.3155478239059448, 0.19152706861495972, -0.013741381466388702, 0.1397610455751419, -0.00023627950577065349, 0.10124996304512024, 0.003790090326219797, -0.07823264598846436, -0.05275142937898636, -0.29302674531936646, 0.00644172728061676, 0.2869316339492798, -0.2160380482673645, 0.06172560527920723, 0.050975993275642395, 0.18935544788837433, -0.12231189757585526, 0.17040780186653137, -0.04493705928325653, -0.37409886717796326, 0.08563888072967529, -0.2698605954647064, 0.2143159657716751, 0.017659932374954224, -0.22971759736537933, -0.21036124229431152, -0.001196146011352539, -0.07695066928863525, 0.04002959653735161, -0.22398333251476288, -0.019631177186965942, -0.21473254263401031, 0.1388375163078308, 0.04909752681851387, 0.058430954813957214, 0.05489431321620941, -0.14739488065242767, -0.0010147392749786377, -0.08426673710346222, 0.11926031857728958, 0.098149873316288, -0.11117133498191833, 0.03608878329396248, -0.1035577580332756, -0.4576447606086731, 0.20641423761844635, -0.014138161204755306, -0.040319591760635376, 0.0795377567410469, -0.035962361842393875, 0.10379284620285034, 0.23286904394626617, 0.0532660074532032, -0.0043123867362737656, -0.07791868597269058, 0.27874526381492615, 0.04622514545917511, 0.015853503718972206, -0.11668353527784348, 0.14219054579734802, 0.08348898589611053, 0.23036716878414154, 0.11139194667339325, 0.24707747995853424, -0.19913803040981293, 0.06975403428077698, -0.020679710432887077, 0.14690473675727844, -0.08322399854660034, -0.08634508401155472, 0.3018496036529541, 0.031496040523052216, 0.025791862979531288, -0.08410370349884033, -0.15920549631118774, -0.05509645864367485, 0.02507690154016018, 0.07372481375932693},
{ -0.255526602268219, -0.25523003935813904, 0.2977132499217987, 0.011261616833508015, -0.05866689234972, 0.05672335997223854, 0.2320174276828766, -0.14511613547801971, 0.0020349614787846804, -0.09287438541650772, 0.06141974404454231, 0.029254093766212463, -0.20051296055316925, -0.09369324892759323, 0.03700784221291542, -0.42149537801742554, -0.02598218433558941, 0.06972916424274445, -0.019770240411162376, 0.18671056628227234, 0.22505076229572296, 0.2165822982788086, -0.32730522751808167, 0.008881798945367336, -0.06850368529558182, -0.04046497866511345, -0.0608988031744957, 0.17607636749744415, 0.09150204807519913, -0.09067606925964355, 0.24026498198509216, 0.3059179484844208, -0.022074712440371513, -0.45826253294944763, -0.15319958329200745, 0.11373264342546463, 0.08498214185237885, 0.02089940942823887, 0.26472043991088867, -0.06109634414315224, 0.05228860676288605, -0.28557100892066956, -0.04557972401380539, -0.0005793930031359196, -0.06654807925224304, -0.02298104763031006, 0.08007495105266571, 0.10380193591117859, -0.10318265855312347, -0.02580207586288452, 0.04338493570685387, 0.02675771340727806, 0.03443403169512749, 0.1316918432712555, 0.0031122073996812105, 0.14457693696022034, -0.03596287965774536, 0.030295269563794136, -0.13588295876979828, -0.3262738883495331, 0.24211755394935608, -0.32894572615623474, -0.02357712760567665, 0.24099743366241455, -0.14933231472969055, -0.0253310427069664, -0.15276475250720978, -0.3138507604598999, -0.0033849056344479322, 0.03817877918481827, 0.13888847827911377, -0.0718049705028534, -0.06231028586626053, 0.2792995870113373, -0.1470308154821396, 0.04116018861532211, -0.03805583715438843, 0.3095175623893738, -0.11835889518260956, -0.030522722750902176, -0.053695715963840485, 0.05389769747853279, 0.1801156997680664, 0.23327404260635376, 0.016116898506879807, -0.06501320749521255, -0.15174253284931183, 0.13063578307628632, 0.06866488605737686, -0.06926450878381729, 0.1003638207912445, 0.03994365781545639, 0.1407720148563385, 0.05658823251724243, -0.03230210021138191, -0.07916846126317978, -0.032952792942523956, -0.14677493274211884, 0.03960883244872093, 0.037113700062036514, 0.261095255613327, 0.09338733553886414, 0.018101384863257408, 0.1281857192516327, -0.10916159301996231, 0.09903162717819214, -0.3213733732700348, 0.11294502019882202, -0.02880890667438507, 0.35486528277397156, 0.21845893561840057, -0.0763188973069191, -0.12061753123998642, 0.055537864565849304, -0.09774962067604065, 0.021341893821954727, -0.11786989867687225, 0.15515558421611786, -0.07664956897497177, -0.10640979558229446},
{ -0.06251104176044464, -0.03103582188487053, 0.006873947102576494, -0.3314512372016907, -0.0036241761408746243, 0.02487330324947834, -0.13283683359622955, 0.11441070586442947, 0.14943672716617584, -0.03041144832968712, 0.05632453039288521, -0.07708372920751572, 0.009955313056707382, -0.17142637073993683, 0.05752269923686981, -0.26590627431869507, 0.043034881353378296, 0.10459280014038086, -0.10262757539749146, 0.24297937750816345, -0.020139165222644806, 0.38663187623023987, -0.23342116177082062, -0.026686033234000206, 0.17060916125774384, -0.09582506120204926, 0.12534929811954498, 0.2971155047416687, 0.0863214060664177, -0.0774502232670784, 0.07543588429689407, 0.33502447605133057, -0.016050022095441818, -0.4231570065021515, 0.12118948996067047, 0.161245197057724, 0.09380225092172623, 0.028398392722010612, 0.107781320810318, 0.005778335966169834, 0.06780925393104553, 0.0021231865976005793, -0.13657046854496002, -0.17540580034255981, 0.05669784918427467, 0.03997880220413208, 0.025060057640075684, 0.24991260468959808, 0.03473995253443718, -0.05490810051560402, -0.01548424270004034, -0.04644252359867096, -0.05680204555392265, -0.0656084343791008, -0.11638221889734268, 0.2545693516731262, 0.08044576644897461, 0.06896308809518814, -0.018324285745620728, -0.0746985375881195, 0.07996106892824173, -0.15564726293087006, -0.0089469188824296, -0.11106641590595245, -0.2059171199798584, 0.010216875933110714, 0.02094605192542076, 0.052019327878952026, -0.05573070049285889, 0.027983058243989944, 0.017678014934062958, -0.19642508029937744, -0.007412304170429707, 0.18495339155197144, -0.13512514531612396, -0.08996906876564026, 0.0006723065162077546, -0.0033337376080453396, -0.3035343587398529, 0.10777714848518372, -0.059632789343595505, -0.09719661623239517, 0.16839294135570526, 0.2808065116405487, -0.12784218788146973, 0.021421276032924652, -0.15399131178855896, 0.13821645081043243, -0.09106007218360901, 0.07032819092273712, 0.2422330528497696, -0.0031337528489530087, 0.0666707381606102, 0.09210585057735443, 0.0857725590467453, -0.02126682735979557, -0.2818510830402374, 0.037572231143713, 0.1008194237947464, 0.08810674399137497, 0.0786413848400116, -0.007781091146171093, -0.0750458762049675, -0.01453473512083292, 0.10764618217945099, 0.22491516172885895, -0.20093147456645966, -0.01243043877184391, 0.07664192467927933, 0.2736819386482239, 0.13561508059501648, 0.028384940698742867, -0.3303150534629822, 0.07783045619726181, -0.136582151055336, 0.052923183888196945, -0.18861672282218933, -0.0633818507194519, 0.18567505478858948, 0.13400626182556152},
{ -0.047118350863456726, 0.1605469435453415, 0.11742310225963593, 0.409209281206131, 0.08484841138124466, 0.11337860673666, 0.23307916522026062, -0.04976095259189606, 0.09904928505420685, 0.08606906980276108, 0.0006810131017118692, 0.06712167710065842, -0.16579338908195496, 0.09599702805280685, -0.0164645966142416, -0.03414217755198479, -0.1408311426639557, -0.007012353744357824, 0.020514285191893578, -0.4061747193336487, 0.08754987269639969, 0.11837451905012131, -0.038115911185741425, -0.059398580342531204, -0.02295718342065811, 0.18531791865825653, -0.05862114951014519, 0.07251317799091339, 0.019378604367375374, 0.09668896347284317, -0.08193444460630417, -0.17899306118488312, 0.12422153353691101, 0.13731645047664642, -0.010116210207343102, 0.14424635469913483, -0.20963434875011444, 0.010835178196430206, -0.17183880507946014, -0.025759441778063774, -0.03234550356864929, 0.12747105956077576, 0.08324497193098068, 0.240515798330307, 0.009341678582131863, 0.11541607230901718, -0.07557551562786102, -0.10043641924858093, -0.2169719636440277, 0.09780945628881454, 0.07435701787471771, 0.20545801520347595, -0.03794502839446068, -0.01820887066423893, 0.1370295137166977, -0.1863962709903717, 0.04349079355597496, 0.039731670171022415, -0.12905049324035645, 0.10154616087675095, 0.10101810097694397, 0.1844407171010971, 0.030884278938174248, 0.02700117975473404, 0.18853434920310974, 0.06974833458662033, 0.25287044048309326, 0.13321200013160706, -0.09279897809028625, -0.005900554358959198, -0.12008003890514374, 0.1132008507847786, 0.06153698265552521, -0.1302621066570282, -0.036919932812452316, 0.1869743913412094, -0.05579030513763428, -0.26105403900146484, 0.3057582378387451, 0.06523174792528152, 0.025767294690012932, -0.06301401555538177, -0.0502428375184536, 0.012230487540364265, 0.28182652592658997, -0.020688306540250778, 0.1949898600578308, -0.0921679362654686, 0.06499999761581421, -0.07811501622200012, -0.045488983392715454, -0.017534613609313965, -0.04804200306534767, -0.008309605531394482, 0.07248547673225403, 0.03136231750249863, 0.15579095482826233, -0.17557567358016968, -0.028848066926002502, -0.015358740463852882, 0.1436421275138855, 0.026073630899190903, -0.0574406273663044, -0.01087320875376463, 0.0800408273935318, 0.007881986908614635, 0.2254316359758377, 0.06285254657268524, 0.0018446518806740642, 0.17485083639621735, 0.14401325583457947, 0.029221728444099426, -0.06439173966646194, -0.03500570356845856, 0.026440760120749474, 0.004872865509241819, -0.007685922551900148, -0.13634048402309418, 0.06635603308677673, 0.047314830124378204},
{ -0.24663428962230682, 0.024352136999368668, 0.15696920454502106, 0.07142887264490128, -0.08197864890098572, 0.09877032786607742, 0.062293704599142075, -0.20345231890678406, -0.19921785593032837, -0.04105212539434433, 0.09959591925144196, -0.0011490053730085492, 0.31074976921081543, 0.07471870630979538, 0.028040602803230286, -0.007814963348209858, 0.011546909809112549, -0.4628596901893616, 0.10640835762023926, 0.0167465228587389, 0.08361306041479111, 0.19573186337947845, -0.2164754569530487, -0.07698211818933487, 0.07454115152359009, 0.21735554933547974, -0.1863105446100235, 0.16682395339012146, 0.011893033981323242, 0.009237213060259819, -0.0015512375393882394, -0.33504363894462585, -0.10035227239131927, 0.14569704234600067, 0.11279395967721939, 0.13861501216888428, -0.41828304529190063, 0.09033516049385071, -0.2095939815044403, 0.06305336207151413, 0.056870851665735245, -0.030660195276141167, 0.1840612292289734, 0.0852532610297203, 0.08334803581237793, -0.17783097922801971, 0.06989923119544983, -0.31554824113845825, 0.3686559200286865, -0.011770744808018208, -0.07858378440141678, -0.09531112015247345, 0.036302682012319565, 0.05244709551334381, -0.007478196639567614, 0.34098154306411743, -0.05278759077191353, 0.0787699818611145, 0.08248835802078247, -0.2702188491821289, 0.04014929383993149, -0.1586262434720993, 0.04695224389433861, 0.03534773364663124, -0.10826534032821655, -0.0368485152721405, -0.24255472421646118, 0.09471327066421509, 0.08651023358106613, 0.09077214449644089, 0.07180194556713104, 0.018881313502788544, -0.03073401190340519, -0.18062885105609894, -0.09076777845621109, 0.02897018752992153, -0.02326330915093422, -0.19752278923988342, 0.12089942395687103, -0.05840470269322395, -0.024616582319140434, -0.02386348508298397, -0.3394554853439331, -0.043789222836494446, 0.0787573754787445, -0.21690919995307922, 0.04546493664383888, 0.21799258887767792, -0.31096014380455017, 0.04534914344549179, -0.3802110552787781, 0.0035048697609454393, 0.09596426784992218, -0.07962282747030258, -0.11582083255052567, 0.057398583739995956, 0.09362159669399261, 0.3311060965061188, 0.013726722449064255, 0.03537207841873169, 0.24076789617538452, 0.14649702608585358, 0.01175470370799303, -0.2920262813568115, -0.10165733098983765, -0.12612827122211456, 0.16213540732860565, -0.09541124850511551, -0.05272362008690834, -0.015537741594016552, 0.23676486313343048, 0.10425760596990585, 0.0819406732916832, -0.0395306758582592, 0.16290609538555145, 0.056219376623630524, -0.12179791927337646, 0.1398218870162964, -0.023712756112217903, 0.17415881156921387},
{ 0.010515054687857628, 0.06916777044534683, 0.48400411009788513, 0.18131084740161896, 0.07757076621055603, -0.06324543058872223, -0.2955004870891571, -0.23400211334228516, 0.2305000126361847, 0.026320036500692368, 0.06023954227566719, 0.025450097396969795, 0.2915109395980835, 0.326015830039978, -0.030002353712916374, 0.1371479332447052, -0.12794630229473114, 0.07503102719783783, -0.004323601722717285, -0.1655210703611374, -0.1995963305234909, 0.11172755807638168, 0.14545626938343048, 0.060549426823854446, 0.0709129273891449, 0.031694769859313965, 0.1320582628250122, 0.2700119912624359, -0.4809848964214325, 0.1100948303937912, -0.2977488040924072, -0.15945638716220856, 0.1969018429517746, 0.02355925925076008, 0.024928364902734756, -0.25885432958602905, 0.20886878669261932, -0.019970452412962914, 0.27232667803764343, -0.07576627284288406, -0.00394801702350378, 0.20521049201488495, -0.2266741394996643, -0.11689364165067673, -0.039316073060035706, -0.044262632727622986, -0.0074147554114460945, -0.23837924003601074, -0.09500283747911453, -0.08169148117303848, -0.058437563478946686, -0.18353746831417084, -0.0648544579744339, 0.08584878593683243, 0.3575618863105774, -0.08179882913827896, -0.048283226788043976, -0.026118850335478783, -0.07500810921192169, 0.1240050196647644, -0.23744764924049377, -0.07147925347089767, -0.06050204485654831, 0.22823889553546906, 0.09012714773416519, 0.03497549891471863, 0.10576026886701584, 0.04138844460248947, -0.023796414956450462, -0.016661640256643295, 0.014277305454015732, -0.07658635079860687, 0.07319004088640213, 0.27142533659935, 0.10181985795497894, 0.17604002356529236, -0.008730683475732803, 0.09836050122976303, 0.10384897142648697, -0.07332497835159302, 0.018516231328248978, -0.08972898870706558, 0.20947058498859406, -0.016822654753923416, 0.3833359181880951, -0.05075661838054657, -0.17636694014072418, 0.23213273286819458, 0.17336587607860565, -0.011614413931965828, -0.2363998144865036, -0.05594184249639511, 0.04082537814974785, -0.26119187474250793, 0.033661872148513794, -0.0740489587187767, -0.055063966661691666, 0.20371335744857788, 0.02208085171878338, -0.08667951077222824, 0.16342386603355408, 0.2622036635875702, 0.014306124299764633, -0.128883495926857, -0.3904828727245331, -0.2668159604072571, -0.12854382395744324, -0.04718049615621567, 0.1008353903889656, -0.1409519612789154, 0.18088054656982422, 0.020398100838065147, 0.3661859333515167, 0.0717960000038147, 0.5189502239227295, 0.05617489665746689, 0.03837111219763756, -0.1981872022151947, 0.10168835520744324, 0.10356075316667557},
{ -0.10786953568458557, 0.018424486741423607, 0.417959600687027, 0.08002594858407974, -0.04257719963788986, -0.08033734560012817, 0.014089517295360565, -0.24105781316757202, 0.3122831881046295, 0.009973515756428242, -0.06451085954904556, -0.05557219684123993, -0.007130063604563475, 0.19607900083065033, 0.0684565007686615, 0.043796420097351074, 0.04595767334103584, 0.07342049479484558, 0.09234806150197983, -0.008931569755077362, 0.1141647920012474, 0.0054533216170966625, -0.021188318729400635, -0.054199595004320145, -0.001986637944355607, -0.00045190087985247374, 0.07284858822822571, 0.3477718234062195, -0.16523636877536774, -0.11678433418273926, -0.29365789890289307, -0.017048662528395653, 0.014407089911401272, -0.05018497630953789, -0.07092680037021637, -0.3086220622062683, 0.08396310359239578, -0.07891380786895752, -0.07242726534605026, -0.04985114187002182, -0.030678533017635345, -0.1195264607667923, 0.20129847526550293, 0.09898508340120316, 0.004911109339445829, 0.026609886437654495, 0.01613902859389782, -0.11416037380695343, -0.19895388185977936, -0.09330044686794281, 0.06385517865419388, -0.26852938532829285, 0.01947014406323433, 0.14683924615383148, 0.17186881601810455, -0.0608481764793396, -0.05820240452885628, 0.06929104030132294, -0.02680090256035328, 0.025685949251055717, 0.05041099712252617, -0.0682879388332367, 0.013172229751944542, 0.28381654620170593, 0.07292824238538742, 0.10213074833154678, -0.0017392681911587715, 0.08660954236984253, 0.025581443682312965, -0.036977801471948624, 0.04683409258723259, -0.13674910366535187, 0.043363895267248154, 0.04491713270545006, 0.024085653945803642, 0.148720383644104, 0.09358209371566772, -0.04485660418868065, -0.04880480468273163, -0.0030797659419476986, -0.04089457914233208, 0.042338792234659195, 0.047997329384088516, -0.04471824690699577, 0.22086885571479797, -0.05175831913948059, -0.11916821449995041, 0.20811434090137482, -0.019591232761740685, -0.07081526517868042, -0.10202861577272415, -0.013343672268092632, 0.04840466007590294, 0.10352106392383575, -0.252992182970047, -0.07980862259864807, -0.0422348827123642, 0.041357096284627914, -0.05804852396249771, 0.12064121663570404, -0.11832918971776962, 0.29160431027412415, 0.04619370400905609, 0.028379695490002632, -0.30033403635025024, 0.06460753083229065, -0.3865967094898224, -0.04352104291319847, -0.048246145248413086, 0.04871115833520889, 0.04294416680932045, 0.0022250162437558174, 0.17661409080028534, 0.09581880271434784, 0.0057669407688081264, 0.05415024980902672, -0.036710746586322784, 0.026617154479026794, -0.04337885230779648, 0.027818648144602776},
{ -0.11935408413410187, 0.1666371375322342, -0.015283940359950066, 0.16862283647060394, -0.06270967423915863, 0.302142858505249, 0.12969252467155457, 0.25116395950317383, -0.3109854459762573, 0.06877586245536804, 0.3161986470222473, 0.09765619039535522, 0.008129226043820381, -0.11028970032930374, 0.02971806935966015, -0.23412691056728363, 0.08187203854322433, 0.09577663242816925, 0.06804325431585312, -0.13657896220684052, 0.007228729780763388, 0.03824261948466301, -0.11129365116357803, 0.07741563022136688, 0.06919436901807785, 0.11330979317426682, 0.020435620099306107, -0.35796669125556946, -0.1087755635380745, 0.22906899452209473, 0.04769133776426315, -0.0046364967711269855, 0.037016794085502625, -0.013396292924880981, -0.013423329219222069, -0.142645001411438, -0.2808264493942261, -0.04246868938207626, -0.050838571041822433, -0.03179556503891945, -0.08423083275556564, -0.2533228099346161, -0.20415766537189484, -0.13371896743774414, -0.06299782544374466, 0.041770271956920624, 0.06952624022960663, 0.04634649679064751, -0.30762436985969543, 0.14376111328601837, -0.00156379712279886, 0.03687528893351555, 0.06426753848791122, -0.1082681342959404, -0.3320671319961548, -0.06263386458158493, 0.035981982946395874, 0.10571892559528351, -0.25685247778892517, 0.10640320181846619, 0.1583646833896637, 0.1588081568479538, -0.0027992473915219307, -0.0033874136861413717, -0.17951138317584991, -0.06911072880029678, 0.06741341948509216, 0.23078294098377228, 0.05011972039937973, -0.003970889840275049, 0.017522897571325302, 0.1764862984418869, 0.0549558624625206, -0.0038771743420511484, -0.005726452451199293, -0.30513015389442444, 0.09396328777074814, 0.2138744294643402, 0.18949921429157257, -0.04761982336640358, 0.014351578429341316, -0.26785123348236084, 0.06578437983989716, 0.3292301595211029, 0.1576497107744217, 0.04380493611097336, 0.11751516163349152, -0.34720590710639954, 0.0862162709236145, 0.048254288733005524, 0.16951130330562592, 0.03165741637349129, 0.15399110317230225, 0.039996590465307236, 0.07116773724555969, 0.02109028585255146, 0.22355131804943085, -0.1861588954925537, -0.04010738059878349, 0.19172367453575134, 0.15813849866390228, -0.36381083726882935, 0.05170685425400734, -0.006987971253693104, 0.2629656493663788, -0.4503737986087799, 0.09631364792585373, 0.01830742508172989, 0.0686236098408699, 0.14274445176124573, -0.037688128650188446, -0.08157506585121155, -0.06601458787918091, -0.09006911516189575, -0.09286327660083771, 0.10297852754592896, -0.05960461497306824, -0.32214680314064026, 0.03461861237883568, 0.02495981939136982},
{ 0.08843822032213211, 0.020714379847049713, -0.24572797119617462, 0.1199970543384552, -0.08816996216773987, -0.01180232036858797, -0.18217548727989197, 0.04333115369081497, 0.03762412816286087, -0.025649333372712135, -0.14825181663036346, 0.016510846093297005, 0.10923632979393005, 0.12449371814727783, 0.07782309502363205, 0.05519028753042221, -0.35012176632881165, -0.013471033424139023, -0.045371826738119125, -0.30487409234046936, -0.21410802006721497, -0.014195553958415985, -0.06830399483442307, 0.03365517407655716, 0.036546170711517334, 0.31920385360717773, 0.10855516791343689, 0.07222723215818405, -0.13214434683322906, 0.09806481003761292, -0.2166774421930313, -0.473662793636322, 0.03170797601342201, -0.006276901811361313, 0.05886983126401901, 0.09269752353429794, -0.386180579662323, -0.0770445242524147, -0.12318501621484756, 0.08314733952283859, -0.01970827765762806, 0.09537996351718903, 0.09558244794607162, -0.037827566266059875, 0.09358091652393341, -0.12793239951133728, 0.011466444469988346, -0.30612871050834656, -0.39677003026008606, 0.34073659777641296, 0.0040857624262571335, -0.026261545717716217, -0.030078215524554253, -0.005104409996420145, -0.08885323256254196, -0.07183511555194855, -0.07714442908763885, 0.15153269469738007, 0.06228151172399521, 0.04546070471405983, -0.19667282700538635, 0.2986799478530884, -0.01780807226896286, -0.17352867126464844, 0.3694000840187073, -0.06602213531732559, 0.06389280408620834, 0.16984081268310547, 0.0013961129589006305, 0.024133101105690002, -0.08794005960226059, -0.11443273723125458, 0.08624555915594101, -0.02483527362346649, 0.04336893931031227, 0.12315213680267334, 0.08495496213436127, -0.2516331374645233, 0.1781696230173111, 0.0334819070994854, 0.04024829342961311, -0.2640027701854706, 0.1784783899784088, -0.020875291898846626, 0.046510688960552216, 0.08381112664937973, 0.023503445088863373, -0.11286060512065887, 0.1453441083431244, -0.07620728760957718, -0.14278817176818848, -0.05601008981466293, -0.0362030565738678, -0.14902377128601074, 0.17918989062309265, 0.13767947256565094, 0.23513323068618774, 0.396731972694397, -0.002164522185921669, 0.11390562355518341, 0.07871320843696594, 0.039739299565553665, 0.06301722675561905, 0.05065039545297623, 0.07907360047101974, 0.006897078361362219, -0.01966184191405773, -0.005460993852466345, -0.03800206631422043, -0.16969434916973114, 0.05656537041068077, -0.08705436438322067, 0.14581000804901123, -0.011669858358800411, -0.045000653713941574, 0.03074752353131771, -0.019311964511871338, -0.23025864362716675, -0.09614387154579163, 0.012576432898640633},
{ 0.07134624570608139, -0.14292190968990326, 0.13564369082450867, -0.2749393880367279, -0.04729056730866432, 0.01702965795993805, -0.13805487751960754, -0.19353066384792328, 0.22748731076717377, -0.04467647150158882, 0.06408717483282089, 0.05150451511144638, -0.1854533851146698, -0.004257709253579378, 0.04371865838766098, 0.07102572172880173, 0.2314833253622055, 0.034304652363061905, 0.02765057422220707, 0.13153105974197388, -0.02435775101184845, -0.04695741459727287, 0.20629888772964478, 0.08924385160207748, -0.05320916324853897, -0.07739021629095078, 0.07042999565601349, 0.24530096352100372, -0.08139542490243912, -0.03828546777367592, 0.07641632109880447, 0.15126727521419525, -0.06812313199043274, -0.5489644408226013, 0.0011246000649407506, -0.160167396068573, 0.2852790951728821, 0.0738522857427597, 0.05981878191232681, 0.029302194714546204, -0.037040188908576965, -0.08003684878349304, -0.09107795357704163, -0.17740339040756226, -0.030771775171160698, -0.023751413449645042, 0.0894632339477539, 0.24081912636756897, 0.2753453850746155, -0.3481537699699402, -0.04928719252347946, -0.09984707832336426, -0.04205145314335823, 0.18565742671489716, 0.039139509201049805, -0.03766172006726265, -0.013372335582971573, 0.046136800199747086, 0.044733501970767975, -0.03860777989029884, -0.12970569729804993, -0.16450592875480652, -0.04329534247517586, -0.23064112663269043, -0.45206427574157715, 0.07966651022434235, 0.042502015829086304, -0.0643383115530014, 0.04171338677406311, -0.010820930823683739, 0.07685428857803345, -0.18359537422657013, -0.0459957979619503, 0.021154828369617462, 0.13822996616363525, -0.11058248579502106, -0.005171401426196098, 0.3248625099658966, -0.15092241764068604, 0.049748796969652176, 0.02436264418065548, 0.25301384925842285, 0.06634140759706497, 0.13347189128398895, -0.030766639858484268, -0.1975194662809372, -0.5478243827819824, 0.3129015266895294, 0.008444343693554401, 0.07762036472558975, 0.19413842260837555, -0.033261463046073914, 0.021161675453186035, 0.043738093227148056, 0.0448695607483387, -0.06278830021619797, -0.4943423271179199, -0.0830019935965538, 0.06571055948734283, 0.05404847487807274, -0.08612235635519028, 0.2855532169342041, -0.07802822440862656, 0.03026004694402218, 0.030560202896595, 0.15016840398311615, -0.11109670996665955, -0.0318322591483593, -0.041656799614429474, 0.03710043802857399, 0.022303098812699318, -0.07967964559793472, -0.030694201588630676, -0.10264856368303299, -0.1945965588092804, -0.007216739933937788, -0.31933486461639404, -0.17792096734046936, 0.22727996110916138, -0.03553679957985878},
{ 0.00962861254811287, -0.17982487380504608, 0.33274272084236145, 0.16958115994930267, -0.052018359303474426, -0.1264231950044632, 0.10708099603652954, -0.1411336362361908, -0.4421461224555969, -0.045362140983343124, 0.12535981833934784, -0.091672882437706, 0.02414911985397339, -0.03797047585248947, -0.038474347442388535, 0.03711014240980148, 0.171524316072464, 0.11486028134822845, 0.050682514905929565, -0.03943222016096115, 0.11446230113506317, -0.25838157534599304, 0.18541951477527618, 0.10779879987239838, -0.06369704008102417, 0.0765107199549675, -0.15857194364070892, 0.002630012109875679, 0.059538569301366806, -0.16336214542388916, 0.09099774807691574, -0.12763158977031708, 0.15755042433738708, -0.01914909854531288, -0.23847390711307526, 0.09147890657186508, 0.11430970579385757, -0.07092557847499847, 0.26757389307022095, -0.018058273941278458, 0.02262439951300621, -0.08161111176013947, 0.0471280999481678, 0.1691983938217163, 0.05214253440499306, 0.159683495759964, -0.0715242326259613, 0.23167550563812256, -0.03619775176048279, -0.25922539830207825, 0.03812877833843231, 0.17285151779651642, 0.03250127285718918, -0.12700578570365906, -0.1397714912891388, 0.03115248493850231, -0.003972920123487711, -0.0030433335341513157, 0.1483079195022583, -0.036158885806798935, 0.10897659510374069, 0.07728293538093567, -0.05668081343173981, 0.2444361001253128, -0.21638348698616028, 0.040336113423109055, 0.25635454058647156, 0.0029581026174128056, -0.01305182185024023, -0.08434031903743744, 0.05161191523075104, 0.13480032980442047, -0.001966907409951091, -0.04422646388411522, 0.08513268828392029, 0.08658391982316971, 0.024797704070806503, 0.3834727704524994, 0.05613159015774727, 0.026597458869218826, -0.014206786639988422, 0.03908773884177208, -0.20374692976474762, 0.280200719833374, -0.0473361611366272, 0.050740208476781845, 0.10501272231340408, -0.15533488988876343, 0.09343679994344711, -0.09264981746673584, 0.14371079206466675, 0.030691415071487427, -0.04295576736330986, 0.05138319730758667, -0.1525558978319168, -0.08272705972194672, -0.12071447819471359, -0.4978623688220978, 0.05614933371543884, 0.11413835734128952, 0.11259603500366211, 0.1703570932149887, -0.038916490972042084, 0.07161877304315567, -0.1575237512588501, 0.009966193698346615, -0.11687511205673218, 0.07096586376428604, -0.0024743862450122833, 0.1308465301990509, -0.2005448341369629, -0.019240599125623703, -0.24660590291023254, -0.10139928013086319, -0.0029772550333291292, -0.04287876933813095, -0.09432490170001984, 0.012219414114952087, 0.11344101279973984, 0.19499000906944275},
{ 0.04803492873907089, 0.00010452318383613601, -0.12639093399047852, -0.1333453357219696, 0.08668279647827148, 0.025658825412392616, -0.11433305591344833, -0.18597063422203064, 0.3467482328414917, -0.008184627629816532, -0.06794040650129318, -0.033408522605895996, 0.32275062799453735, -0.08650793135166168, -0.040934689342975616, 0.15585388243198395, 0.022157715633511543, -0.10417578369379044, 0.03918808698654175, 0.045089688152074814, -0.09660603851079941, -0.2096942514181137, 0.03495786339044571, 0.0871788039803505, -0.1731083244085312, 0.03025955520570278, 0.08093530684709549, -0.08223852515220642, 0.09150189906358719, -0.2839222550392151, 0.295111745595932, -0.13780514895915985, -0.11122777312994003, 0.2676088809967041, 0.027915624901652336, 0.13109846413135529, -0.11996608972549438, -0.05241616815328598, -0.20704996585845947, -0.041116341948509216, 0.013053911738097668, 0.12014982849359512, 0.050535526126623154, -0.1450907588005066, 0.032731663435697556, 0.09435204416513443, 0.07778598368167877, -0.0710546150803566, 0.339626282453537, -0.10975953936576843, 0.035506751388311386, -0.253091424703598, 0.04165026918053627, 0.0691797062754631, -0.04668562486767769, -0.07694730162620544, 0.04893497750163078, 0.030695276334881783, 0.20478402078151703, 0.08043449372053146, -0.10116589069366455, 0.11323663592338562, -0.02701415866613388, 0.05949874222278595, -0.1097601056098938, 0.046027179807424545, -0.2251209318637848, 0.07518509775400162, 0.0717904195189476, 0.06807877123355865, 0.13769102096557617, 0.12372554838657379, 0.016660891473293304, -0.09238811582326889, -0.05545566603541374, 0.0001629322359804064, -0.01682209223508835, -0.09353255480527878, 0.24717795848846436, 0.011428895406425, 0.003305262653157115, 0.32598528265953064, -0.16901826858520508, -0.20816214382648468, -0.08434316515922546, -0.06586195528507233, -0.08478331565856934, 0.08358744531869888, -0.18871204555034637, 0.03924957290291786, -0.16702914237976074, -0.05614345520734787, 0.13447865843772888, -0.032166555523872375, 0.07465951889753342, 0.09363344311714172, -0.04956365376710892, 0.26733097434043884, -0.017751872539520264, -0.04536477103829384, 0.18313652276992798, 0.18558906018733978, 0.05130327120423317, 0.12098871916532516, 0.16163644194602966, -0.04628675803542137, 0.18855445086956024, -0.04763462767004967, -0.005667548161000013, -0.2863816022872925, -0.0774446651339531, -0.09852128475904465, 0.12380475550889969, 0.007632462773472071, 0.1037258431315422, -0.020593753084540367, 0.07565002888441086, -0.14350265264511108, 0.06555706262588501, -0.10719812661409378},
{ 0.08796472102403641, 0.06928049772977829, 0.1396259218454361, 0.05602550879120827, 0.10174335539340973, -0.02378191612660885, -0.19440527260303497, -0.0321832001209259, -0.009061663411557674, 0.06722714751958847, -0.08160875737667084, -0.05359053984284401, -0.2648940086364746, 0.060783982276916504, -0.07275015115737915, 0.0891183391213417, -0.16948050260543823, 0.006503348704427481, -0.0822494700551033, -0.1841835081577301, 0.06080804392695427, 0.017032889649271965, 0.15631715953350067, 0.1387423425912857, 0.09071404486894608, -0.023714449256658554, 0.12004055082798004, -0.08145326375961304, -0.3831421732902527, 0.04908369481563568, -0.019074155017733574, -0.2928790748119354, -0.009398718364536762, -0.046687882393598557, -0.10885173827409744, -0.26026707887649536, -0.1227232962846756, -0.032766059041023254, -0.1090661957859993, -0.06230372190475464, -0.0009455803665332496, -0.00030072606750763953, -0.11663342267274857, -0.17569708824157715, 0.10789515823125839, -0.2561042904853821, 0.031291019171476364, -0.1767198145389557, -0.41478604078292847, 0.2059764415025711, 0.05660955607891083, 0.005903362762182951, 0.023260854184627533, 0.10723592340946198, 0.173951655626297, -0.21757853031158447, 0.07002373039722443, 0.10172542184591293, -0.46378061175346375, 0.1401403844356537, -0.05742049589753151, 0.14661478996276855, 0.068348728120327, 0.11056812107563019, 0.11233723908662796, -0.024510487914085388, 0.15717513859272003, 0.031434960663318634, -0.033289264887571335, -0.019623911008238792, -0.03981535881757736, -0.21306735277175903, -0.05257946252822876, 0.03213755786418915, -0.10438303649425507, -0.014432643540203571, -0.061109259724617004, 0.22354590892791748, -0.12070208042860031, 0.04214053601026535, 0.0787937194108963, -0.374287873506546, 0.16467277705669403, -0.17862281203269958, 0.23435121774673462, -0.13660483062267303, 0.1548619121313095, 0.16188427805900574, 0.020725533366203308, -0.04799661785364151, -0.027438843622803688, -0.07562804967164993, 0.13102476298809052, -0.055018216371536255, -0.03493259847164154, 0.1448087990283966, -0.11505090445280075, -0.013626321218907833, 0.0006447138730436563, 0.04572828486561775, -0.1459951400756836, -0.49655500054359436, -0.07808470726013184, 0.13600723445415497, -0.17849823832511902, -0.36073654890060425, -0.22790032625198364, -0.08063383400440216, 0.024823637679219246, -0.0205521397292614, 0.09192080795764923, 0.0626073032617569, -0.07232902199029922, 0.10219349712133408, 0.1351969838142395, 0.02335761860013008, 0.17880994081497192, -0.11536123603582382, -0.23481842875480652, -0.3261491060256958},
{ 0.07687123864889145, 0.013240496627986431, 0.15158414840698242, -0.21861080825328827, 0.06832855939865112, -0.4240816533565521, 0.22898367047309875, -0.053332507610321045, 0.015708263963460922, 0.041114628314971924, -0.32502323389053345, 0.04399559646844864, -0.04473824426531792, -0.23887480795383453, -0.012654699385166168, -0.15513575077056885, -0.16069623827934265, -0.20942622423171997, 0.04986363276839256, 0.0865725725889206, -0.2095230370759964, 0.06153017282485962, 0.0925823301076889, 0.06393072009086609, -0.1333516389131546, 0.09938330948352814, -0.011202441528439522, -0.0032454286701977253, 0.2072950154542923, -0.09710577130317688, 0.05830678343772888, -0.2828897535800934, -0.11644309759140015, -0.18168607354164124, 0.14317142963409424, 0.11736319214105606, -0.02965361438691616, 0.052840039134025574, -0.2987542450428009, -0.07977566123008728, -0.005051611922681332, 0.18693432211875916, 0.37688151001930237, 0.3439427614212036, -0.08649256825447083, -0.3129478693008423, 0.019251491874456406, -0.10039684176445007, 0.1238776296377182, 0.11740069836378098, -0.019981741905212402, -0.06129256635904312, 0.02766897901892662, 0.23926125466823578, 0.01906181499361992, -0.1279245764017105, 0.034148696810007095, 0.06666223704814911, 0.016426224261522293, -0.11761990934610367, 0.09159907698631287, -0.021249162033200264, 0.06024283170700073, 0.12417897582054138, 0.045159418135881424, -0.018036773428320885, -0.1791871190071106, -0.41560831665992737, 0.02365117520093918, 0.0826248973608017, 0.055129870772361755, 0.041050150990486145, 0.03366374969482422, -0.13805432617664337, -0.10129230469465256, -0.0011865737615153193, 0.02967391163110733, -0.12856701016426086, 0.17875821888446808, -0.08394943922758102, -0.06708986312150955, 0.14430877566337585, 0.0046561299823224545, -0.4995516240596771, -0.053331438452005386, 0.10875651985406876, -0.00042374050826765597, 0.11045218259096146, 0.08966972678899765, -0.0849970132112503, -0.09604819864034653, 0.035858552902936935, 0.0010291620856150985, 0.0961882695555687, 0.01283354964107275, 0.01617962121963501, 0.013835415244102478, 0.2095809429883957, 0.09625266492366791, 0.014456361532211304, -0.022133363410830498, 0.24531258642673492, -0.00983957014977932, -0.08929509669542313, 0.05258670449256897, 0.21905899047851562, -0.014262783341109753, -0.05995020270347595, 0.0270460844039917, -0.2365272492170334, 0.09054841846227646, 0.036719854921102524, 0.30790627002716064, -0.08560851961374283, 0.1469293236732483, -0.057291049510240555, -0.005791788455098867, 0.36515817046165466, -0.08800951391458511, -0.1894913613796234},
{ -0.05314915254712105, 0.05387645214796066, 0.3641892671585083, 0.16389095783233643, 0.09901229292154312, -0.22836199402809143, -0.2545072138309479, 0.0015534530393779278, 0.4186951518058777, 0.09867431223392487, -0.1730755865573883, -0.006069459021091461, -0.2357712835073471, 0.17187455296516418, 0.04549909383058548, -0.2858250141143799, 0.0899309515953064, 0.11388380080461502, -0.05372404307126999, -0.03128034621477127, 0.08385021984577179, -0.07462640106678009, -0.0005059213726781309, -0.017191054299473763, 0.1273750215768814, -0.02114332839846611, 0.1065235361456871, 0.5341013669967651, -0.186338871717453, 0.15249140560626984, -0.17858335375785828, 0.06519924849271774, 0.11058004200458527, -0.28281962871551514, 0.03673476353287697, -0.01656486466526985, 0.10363689064979553, -0.012617677450180054, -0.1883491426706314, -0.018734540790319443, 0.05066131427884102, 0.12249220162630081, 0.017225459218025208, 0.11578347533941269, -0.039871398359537125, 0.07171014696359634, 0.10836639255285263, 0.011549306102097034, -0.2606692612171173, -0.13657613098621368, -0.0475015789270401, -0.030101371929049492, 0.08595359325408936, 0.025991348549723625, 0.10678328573703766, 0.08096243441104889, 0.054902076721191406, 0.02289055660367012, -0.2904908359050751, 0.11789804697036743, -0.26020348072052, -0.26719558238983154, 0.06080909073352814, 0.13725681602954865, -0.0054134163074195385, -0.05583729222416878, -0.00662127323448658, -0.1885979026556015, -0.09440059959888458, 0.019355524331331253, 0.04220779240131378, -0.456655889749527, -0.03130235895514488, -0.014263764955103397, -0.1852986216545105, 0.1902262419462204, 0.0454854816198349, 0.057717058807611465, -0.5819491147994995, -0.029441984370350838, 0.013588842935860157, 0.004551293328404427, 0.06615660339593887, -0.027082104235887527, 0.13172097504138947, 0.07089991122484207, -0.0948900654911995, 0.28127557039260864, -0.08036855608224869, 0.013894188217818737, 0.09573616832494736, 0.025899505242705345, 0.014920977875590324, 0.10156075656414032, 0.11743304878473282, -0.12488783895969391, -0.010572709143161774, 0.3619902729988098, -0.05815295875072479, -0.012545755133032799, -0.24553154408931732, -0.053898513317108154, 0.07495537400245667, 0.053498201072216034, 0.035302046686410904, 0.18279320001602173, -0.09821520000696182, -0.06871094554662704, -0.04813653603196144, 0.18231849372386932, 0.17354975640773773, -0.049608614295721054, 0.057869527488946915, -0.016713816672563553, 0.2528853714466095, 0.03446318209171295, -0.048751283437013626, -0.05297773703932762, -0.029319625347852707, -0.06952692568302155},
{ -0.13838407397270203, -0.09607212990522385, 0.2702288329601288, 0.0964912697672844, -0.048630598932504654, -0.0054377298802137375, 0.17044425010681152, -0.2660873830318451, -0.03296209126710892, 0.03373280167579651, 0.23997296392917633, -0.04292772337794304, -0.09907045215368271, 0.08685415983200073, -0.01905503123998642, -0.28292521834373474, -0.03812594711780548, -0.156804621219635, 0.2015923708677292, -0.07941475510597229, 0.31354233622550964, 0.23382331430912018, -0.03108668513596058, 0.05456574261188507, 0.0792248323559761, 0.25233128666877747, -0.10363562405109406, 0.169031023979187, -0.07753156870603561, -0.05882306396961212, -0.27705293893814087, 0.11809603869915009, 0.2854883074760437, -0.05570255219936371, -0.09063618630170822, 0.05523807555437088, 0.053100425750017166, -0.06212353706359863, 0.19195960462093353, -0.0038547732401639223, -0.07418828457593918, -0.11685363203287125, 0.08132149279117584, 0.43530505895614624, -0.039641134440898895, -0.0847417488694191, -0.06393475830554962, -0.2540512979030609, -0.32400885224342346, -0.10043012350797653, 0.043697744607925415, 0.06467988342046738, -0.04745042696595192, -0.06000784412026405, 0.0075192637741565704, 0.05063236504793167, -0.061899784952402115, 0.054775651544332504, -0.24659577012062073, -0.21963657438755035, -0.12263891845941544, -0.020509062334895134, 0.05567590892314911, 0.4847452640533447, 0.08617942780256271, -0.01723548024892807, -0.10044284164905548, 0.1733921468257904, 0.017297543585300446, -0.07705540210008621, 0.03950996324419975, 0.15448081493377686, -0.0812082290649414, -0.0016613256884738803, 0.014652579091489315, -0.1063714250922203, 0.06933364272117615, -0.07746119797229767, 0.1717577874660492, 0.0784434974193573, -0.08246609568595886, -0.03267548978328705, -0.3083791434764862, 0.15405333042144775, 0.004905905108898878, 0.1347891092300415, -0.16743193566799164, 0.07236171513795853, -0.2389744073152542, -0.09026993066072464, -0.33621272444725037, 0.028134696185588837, 0.08413998037576675, 0.17205101251602173, 0.002768544713035226, -0.060360606759786606, -0.033393003046512604, 0.02762746252119541, -0.007550500333309174, 0.0264823529869318, 0.3609364926815033, -0.020368626341223717, -0.0730532631278038, -0.013852154836058617, -0.14469699561595917, 0.3640143573284149, -0.1288759857416153, -0.04341303929686546, -0.055473849177360535, 0.041424691677093506, 0.025391442701220512, 0.041250213980674744, 0.06811600178480148, 0.009358994662761688, 0.23758958280086517, -0.004607996437698603, -0.10092156380414963, 0.059802208095788956, -0.06973981857299805, 0.022855281829833984},
{ 0.21844232082366943, 0.1306152194738388, -0.19247804582118988, 0.040142808109521866, -0.03877371549606323, -0.09177588671445847, 0.10627198964357376, -0.1786637157201767, -0.29989203810691833, 0.007098071277141571, 0.09340424090623856, 0.02391299605369568, -0.026297224685549736, 0.08982346951961517, 0.01628139615058899, 0.19105961918830872, -0.006478491704910994, 0.1327672004699707, -0.15259811282157898, -0.03321901708841324, -0.15450535714626312, -0.10982831567525864, 0.18741849064826965, -0.01956145651638508, -0.36074137687683105, -0.0013538477942347527, 0.03883736953139305, -0.597230076789856, 0.018038347363471985, -0.26162031292915344, 0.0841129869222641, -0.08961942046880722, 0.2593573331832886, -0.10640070587396622, 0.04452567175030708, -0.22472909092903137, 0.10366284102201462, -0.04021744430065155, 0.17754410207271576, -0.05047998204827309, -0.0691278949379921, 0.12362997233867645, 0.12196343392133713, 0.0017111734487116337, 0.054189302027225494, -0.11360329389572144, -0.05947595834732056, 0.12430673837661743, 0.13218927383422852, 0.18430590629577637, 0.05438400059938431, -0.3222982883453369, 0.009975616820156574, 0.00459563871845603, -0.11032227426767349, -0.125145822763443, 0.02453187294304371, -0.05929075926542282, 0.10664188116788864, 0.16579024493694305, -0.08264841139316559, 0.19865772128105164, -0.04367890954017639, -0.03429589420557022, -0.02777734398841858, -0.08800693601369858, 0.12509097158908844, -0.05797022581100464, -0.060591477900743484, 0.07913463562726974, 0.08478737622499466, 0.04975948482751846, 0.07247374951839447, 0.14090077579021454, 0.09527847915887833, 0.1024218425154686, 0.005288225598633289, 0.1484595090150833, 0.21974587440490723, -0.12743304669857025, 0.06105923280119896, 0.27259621024131775, 0.2085450440645218, -0.25655314326286316, 0.15267649292945862, -0.08140914887189865, 0.026008665561676025, -0.24526996910572052, 0.08828628063201904, 0.0868593230843544, 0.07034043967723846, 0.08351203799247742, 0.10435667634010315, 0.0579654686152935, 0.04391636326909065, 0.08178336918354034, 0.2146122306585312, -0.07688997685909271, -0.03988845273852348, -0.09683637320995331, -0.22877979278564453, -0.04455338418483734, -0.011928458698093891, 0.056845784187316895, -0.0891379565000534, -0.07050249725580215, 0.08803623169660568, -0.04753897339105606, 0.08852861076593399, -0.41973307728767395, -0.07422356307506561, 0.0713036060333252, 0.354310542345047, 0.024418644607067108, -0.07846234738826752, -0.07314278930425644, 0.011745885014533997, 0.10422494262456894, -0.029661715030670166, -0.3782855272293091},
{ 0.24157088994979858, 0.0863884910941124, -0.21701398491859436, 0.12572334706783295, 0.07265407592058182, 0.060331013053655624, 0.09679688513278961, 0.08229141682386398, -0.1961580067873001, 0.10067106783390045, 0.12869788706302643, -0.08865021914243698, -0.24772848188877106, -0.25581037998199463, -0.01087018009275198, -0.1061633974313736, 0.10774699598550797, -0.10507824271917343, 0.06758775562047958, 0.17675775289535522, 0.19473233819007874, 0.05980756878852844, 0.33070170879364014, 0.09768429398536682, -0.10132025927305222, -0.00794301275163889, 0.09145709127187729, -0.4435335099697113, 0.05719470605254173, -0.20420107245445251, -0.0477471686899662, 0.032133799046278, -0.23168067634105682, -0.5216218829154968, 0.053900234401226044, -0.2723567485809326, -0.2217080444097519, -0.05719190090894699, 0.0007679621921852231, -0.0700751468539238, -0.06689096242189407, -0.02029956318438053, 0.08421574532985687, 0.1288469433784485, 0.03914934769272804, -0.26211825013160706, -0.045048605650663376, -0.01548863761126995, 0.06444960832595825, 0.17858344316482544, -0.09540899842977524, -0.3337819576263428, 0.005739843938499689, 0.2762320339679718, -0.2097955197095871, -0.09867459535598755, -0.050983723253011703, 0.0436822772026062, -0.11955007165670395, -0.00636984733864665, 0.06592270731925964, 0.0379461944103241, -0.050354115664958954, -0.06471462547779083, 0.03257477283477783, 0.015152286738157272, -0.16037210822105408, -0.009907547384500504, 0.050179388374090195, -0.040984682738780975, 0.15273797512054443, -0.07938216626644135, -0.06177355349063873, 0.006770792882889509, 0.001969774952158332, 0.09825511276721954, 0.06777530163526535, -0.047665100544691086, 0.3618311285972595, 0.044718388468027115, -0.05185173451900482, 0.0785188227891922, 0.31676945090293884, -0.33582746982574463, 0.0566682368516922, 0.18381302058696747, -0.01648469641804695, -0.2338118851184845, 0.15167468786239624, 0.10268283635377884, -0.09277485311031342, 0.00028725145966745913, 0.10249205678701401, 0.06056470051407814, -0.22897514700889587, 0.04583863168954849, -0.14438384771347046, 0.00010221485717920586, 0.10530789941549301, 0.0974743589758873, 0.22292150557041168, -0.34679940342903137, 0.0890662744641304, 0.18142388761043549, 0.170561283826828, -0.10650766640901566, -0.131182000041008, -0.03947467729449272, -0.0938408374786377, -0.3528095483779907, -0.05265320464968681, -0.0056643313728272915, 0.08387941867113113, 0.08540993928909302, -0.030154522508382797, 0.08326125890016556, 0.16388039290905, 0.05981020629405975, -0.41281840205192566, -0.3944627046585083},
{ -0.07392116636037827, -0.20717090368270874, 0.051347751170396805, -0.08832376450300217, -0.06663953512907028, -0.13054823875427246, 0.05639725551009178, -0.021665558218955994, 0.29620546102523804, 0.018933262676000595, -0.060161564499139786, 0.04023212939500809, -0.11522591859102249, 0.0749918669462204, -0.04661053419113159, -0.025119256228208542, -0.0969628393650055, 0.037367355078458786, 0.10473162680864334, -0.1156000941991806, -0.08379295468330383, 0.09161161631345749, -0.0251142755150795, -0.06925628334283829, -0.12196715176105499, 0.16093720495700836, 0.13644547760486603, 0.2769990563392639, 0.15582172572612762, 0.06293830275535583, -0.37920552492141724, 0.07101811468601227, -0.12869855761528015, 0.15126964449882507, 0.07729972898960114, 0.1598530113697052, -0.08606522530317307, 0.0795072466135025, -0.2396932691335678, -0.05785617232322693, -0.06231848895549774, 0.2333947718143463, 0.01039586216211319, 0.17287708818912506, -0.01586497761309147, 0.005912613123655319, 0.024727026000618935, -0.04146400839090347, -0.027587760239839554, -0.09973691403865814, 0.01618306152522564, 0.20967824757099152, -0.030782630667090416, 0.05235128849744797, -0.14007993042469025, 0.10002163052558899, -0.057782720774412155, 0.10273108631372452, -0.1446201354265213, -0.14992846548557281, -0.020328234881162643, 0.0278066024184227, -0.07348236441612244, -0.13954633474349976, -0.10402961075305939, -0.03454689309000969, 0.07703772932291031, -0.05645301192998886, -0.04197922721505165, 0.08597207814455032, -0.16526690125465393, 0.05053010210394859, -0.053927429020404816, -0.41709545254707336, 0.1887844353914261, 0.16303415596485138, -0.04458718001842499, -0.15360581874847412, -0.12140797823667526, 0.08104392886161804, -0.05199684202671051, -0.0058768438175320625, -0.24107667803764343, 0.026619084179401398, -0.2763497531414032, 0.21540120244026184, 0.25516754388809204, 0.18526005744934082, -0.007718902546912432, -0.08426627516746521, 0.17021387815475464, -0.03506331145763397, 0.09715192019939423, 0.05745526775717735, 0.00986503902822733, -0.035162314772605896, -0.037516023963689804, -0.017227211967110634, -0.0251920223236084, 0.1151399239897728, -0.2630161643028259, 0.07675039023160934, -0.05191590636968613, 0.09343845397233963, 0.19505718350410461, 0.2735269069671631, 0.2592344284057617, -0.02500484324991703, 0.07232451438903809, 0.2350090593099594, -0.24642780423164368, -0.025779766961932182, -0.11723948270082474, -0.061662208288908005, -0.16313879191875458, -0.06589809060096741, -0.28622546792030334, -0.16850808262825012, 0.21250098943710327, 0.1493467539548874},
{ -0.10628703236579895, -0.014440360479056835, 0.07295749336481094, -0.006401116959750652, 0.08807951211929321, -0.03540203347802162, -0.3056296706199646, -0.2712377607822418, 0.13063398003578186, -0.09490058571100235, 0.07908136397600174, 0.05083881691098213, 0.2024705559015274, 0.08712148666381836, 0.08003029972314835, 0.1233440637588501, 0.19753782451152802, -0.15591904520988464, -0.016701417043805122, 0.1676601618528366, -0.16635876893997192, -0.17185266315937042, -0.12364591658115387, 0.08061398565769196, 0.00980920996516943, 0.15106165409088135, 0.05039753019809723, 0.09528248012065887, -0.01964780129492283, 0.03254944086074829, 0.2398516982793808, -0.058942314237356186, -0.03105316497385502, 0.1902952790260315, -0.044143687933683395, 0.006142250262200832, 0.07860805094242096, 0.06463010609149933, -0.09107766300439835, -0.014525317586958408, -0.0786767229437828, -0.007119852118194103, 0.006195096764713526, -0.20073167979717255, 0.08233967423439026, 0.18741372227668762, -0.057406630367040634, 0.03436930477619171, 0.27712398767471313, -0.19787494838237762, 0.04493377357721329, -0.24483147263526917, -0.07648798823356628, -0.070457823574543, 0.15547765791416168, 0.16799308359622955, 0.01661105267703533, 0.07641773670911789, 0.07676495611667633, -0.07134002447128296, -0.10451816767454147, -0.021081414073705673, -0.033907875418663025, -0.2978329658508301, -0.19091202318668365, 0.10293950140476227, -0.09444010257720947, 0.07901720702648163, 0.08717077225446701, 0.06608618050813675, 0.09043946117162704, 0.03072134405374527, -0.050416331738233566, -0.015041124075651169, -0.03359780088067055, -0.042152464389801025, -0.04594777151942253, 0.12360505014657974, 0.28864702582359314, -0.0013783973408862948, -0.04787001013755798, 0.1232040748000145, -0.15224598348140717, -0.11617746204137802, 0.07960110902786255, -0.30794161558151245, -0.24581840634346008, 0.3276728391647339, -0.18115706741809845, -0.05702904611825943, 0.014377804473042488, 0.07227787375450134, -0.03155694156885147, -0.3391070067882538, -0.05166937783360481, 0.0293409563601017, -0.18100754916667938, 0.08600246161222458, 0.029998039826750755, 0.14224329590797424, 0.2752087414264679, 0.3493839204311371, -0.04094861075282097, -0.1572047770023346, -0.06956641376018524, -0.2766733169555664, 0.20427753031253815, -0.04217347875237465, 0.04722607880830765, -0.05895360931754112, 0.16773280501365662, 0.07311183214187622, -0.07723122090101242, 0.04145349562168121, 0.13671521842479706, 0.10763328522443771, -0.010771021246910095, -0.04718766734004021, 0.11505270004272461, 0.16883304715156555},
{ -0.2039753645658493, -0.14728465676307678, 0.11773423105478287, -0.2247408777475357, -0.025521181523799896, -0.05717209726572037, 0.05726661905646324, -0.08774267137050629, -0.2471264749765396, 0.06554633378982544, 0.04393791779875755, 0.019650839269161224, -0.07878795266151428, -0.08391162008047104, 0.05323854088783264, -0.1432925909757614, -0.22061623632907867, -0.17029902338981628, 0.17667213082313538, 0.02019001916050911, -0.0930071473121643, -0.030685603618621826, -0.13998930156230927, -0.06350912153720856, -0.037901703268289566, -0.03668058663606644, -0.12355657666921616, 0.0896141454577446, -0.015325075015425682, 0.07234574109315872, -0.11733128130435944, -0.003770604496821761, -0.09011579304933548, -0.050194088369607925, -0.12174521386623383, -0.012571511790156364, -0.04734573885798454, -0.07891857624053955, -0.14559678733348846, 0.054228007793426514, 0.021321021020412445, 0.013748591765761375, -0.09957244247198105, -0.15007048845291138, -0.06344974786043167, -0.01983119547367096, 0.04277840256690979, -0.0852663591504097, 0.03256222605705261, -0.05985941365361214, -0.02006305381655693, 0.009410549886524677, 0.02650570124387741, -0.06826058775186539, -0.017919665202498436, -0.11903854459524155, -0.023979224264621735, 0.043797027319669724, 0.017621604725718498, -0.12226349115371704, -0.12353521585464478, -0.07005771994590759, -0.0042135268449783325, 0.0475211925804615, -0.13050079345703125, -0.00034096091985702515, -0.12204524874687195, -0.018786752596497536, -0.00755416601896286, 0.03490285575389862, 0.017443504184484482, 0.0015997103182598948, 0.004396580159664154, -0.19720955193042755, 0.04572565481066704, -0.04409974813461304, -0.07021800428628922, -0.042851522564888, -0.010209688916802406, 0.054664209485054016, 0.031345464289188385, -0.06880180537700653, -0.08393373340368271, 0.07616297155618668, -0.042878203094005585, 0.05531094968318939, -0.07102479785680771, 0.024000070989131927, -0.15038442611694336, 0.02181512862443924, -0.03934156894683838, -0.006244279444217682, -0.004846195224672556, 0.057335712015628815, -0.011780325323343277, 0.025192346423864365, 0.02110881544649601, -0.10897685587406158, 0.051757603883743286, 0.022492436692118645, 0.06116408854722977, 0.07064736634492874, -0.08017777651548386, -0.05990349128842354, -0.04350524768233299, 0.049473393708467484, -0.0785796046257019, -0.008642904460430145, 0.060038819909095764, 0.007507923524826765, -0.11546241492033005, 0.02876768261194229, -0.11238245666027069, 0.05050337314605713, -0.16644752025604248, -0.09075284004211426, -0.06303557753562927, -0.11562199890613556, -0.07951924949884415, -0.08483025431632996},
{ 0.03666846081614494, 0.1487404853105545, -0.22767001390457153, 0.3550902307033539, 0.013310062699019909, -0.011587332934141159, 0.20521949231624603, 0.061652034521102905, 0.11777816712856293, -0.020381614565849304, 0.029108943417668343, -0.008928750641644001, -0.29783952236175537, 0.08848707377910614, -0.03147845342755318, 0.18193857371807098, -0.25029927492141724, 0.12357070297002792, 0.020264314487576485, -0.22831887006759644, 0.0920129269361496, 0.16068033874034882, 0.05730387568473816, 0.07965216040611267, 0.04670442268252373, 0.10990778356790543, 0.039778683334589005, 0.028690485283732414, -0.07718109339475632, 0.06444872915744781, -0.11044732481241226, -0.24478453397750854, -0.19285620748996735, -0.019662657752633095, -0.15060025453567505, 0.10516990721225739, -0.25460848212242126, 0.06944496929645538, -0.24869227409362793, -0.039072185754776, 0.0519309900701046, 0.15453553199768066, -0.17856979370117188, -0.21694782376289368, -0.06182223930954933, -0.08484538644552231, 0.02125343680381775, -0.0816691592335701, -0.5023519396781921, 0.0600101500749588, 0.015475035645067692, 0.05968277528882027, -0.0227494053542614, -0.21250484883785248, -0.07380442321300507, -0.15061187744140625, -0.08119215816259384, -0.04739461466670036, -0.29510417580604553, 0.17462851107120514, 0.11597278714179993, 0.27219393849372864, 0.030216092243790627, -0.2577460706233978, 0.09180495887994766, -0.0030823596753180027, 0.283786803483963, 0.06857383251190186, 0.07680277526378632, 0.07055781781673431, -0.17392371594905853, -0.12093988806009293, 0.07591339200735092, -0.12270938605070114, 0.0093823978677392, 0.1596619188785553, 0.027350090444087982, -0.12516623735427856, 0.08311968296766281, 0.052846238017082214, -0.017339035868644714, -0.14508385956287384, -0.010964217595756054, -0.03069675713777542, 0.23065076768398285, -0.00011276956502115354, 0.11940289288759232, -0.03483637422323227, 0.02309419773519039, 0.016594909131526947, 0.013148059137165546, -0.04415206238627434, 0.018639860674738884, -0.057264287024736404, -0.11956872045993805, -0.10109312832355499, 0.09978192299604416, -0.10888603329658508, -0.04492979869246483, -0.042825546115636826, 0.06822538375854492, -0.24003776907920837, 0.09058275073766708, 0.27784764766693115, 0.14002038538455963, 0.101535864174366, 0.1787252277135849, 0.049666628241539, -0.0472174733877182, 0.18063445389270782, -0.0016960829962044954, -0.040905244648456573, 0.025509100407361984, 0.02810283750295639, -0.10744690895080566, -0.06405369192361832, 0.020412670448422432, -0.323899507522583, 0.022706765681505203, -0.0266035795211792},
{ 0.09050776064395905, 0.058714065700769424, -0.022778665646910667, -0.0039603193290531635, -0.005350756458938122, 0.2667683959007263, -0.10913722217082977, 0.0586138479411602, -0.16996830701828003, -0.03812434896826744, 0.19673588871955872, -0.038086194545030594, 0.042035650461912155, 0.07812701165676117, -0.029391495510935783, 0.018457714468240738, 0.04753526672720909, -0.12269292771816254, -0.026200469583272934, 0.008650295436382294, 0.10789154469966888, 0.0676346868276596, -0.043980494141578674, -0.09297016263008118, -0.07994716614484787, 0.3073372542858124, 0.004676959943026304, -0.009871169924736023, -0.09146496653556824, 0.048552535474300385, 0.006027825642377138, -0.2647411823272705, 0.027860870584845543, 0.11638683080673218, 0.14316695928573608, -0.07286602258682251, -0.16309110820293427, -0.03935035690665245, -0.18947634100914001, 0.03787994384765625, 0.021917864680290222, 0.08214805275201797, -0.056737981736660004, -0.12432391196489334, 0.07905960828065872, -0.26186230778694153, -0.05174265056848526, -0.2669638395309448, 0.11921803653240204, 0.12667278945446014, 0.0493963398039341, -0.35382598638534546, -0.09327773749828339, 0.1661667674779892, -0.09153016656637192, 0.0770140215754509, 0.023224202916026115, 0.11466182768344879, 0.18645481765270233, -0.056004926562309265, 0.029554549604654312, 0.17783407866954803, 0.0019457234302535653, -0.1972886025905609, 0.10779654234647751, -0.003517946694046259, -0.017369363456964493, 0.1358291208744049, 0.004981334786862135, -0.05657707899808884, 0.1156531274318695, 0.012127471156418324, 0.04583299160003662, -0.17950931191444397, -0.020679859444499016, -0.16700346767902374, -0.03029823675751686, -0.20504969358444214, 0.45118945837020874, -0.015191623009741306, -0.0037508539389818907, 0.08629262447357178, 0.07032282650470734, -0.24973586201667786, 0.06747302412986755, -0.2681860625743866, 0.1491134911775589, 0.1179678738117218, -0.022584738209843636, 0.01659756526350975, -0.09126383066177368, 0.08634097129106522, 0.11851612478494644, -0.07983705401420593, 0.008231197483837605, 0.08860591053962708, -0.09727832674980164, 0.33741751313209534, -0.0014571778010576963, 0.026600807905197144, 0.38500937819480896, -0.017561014741659164, 0.057957060635089874, -0.019882913678884506, 0.041850537061691284, -0.05688130855560303, 0.026224926114082336, 0.028750544413924217, 0.04458241909742355, -0.27888229489326477, 0.16840803623199463, -0.06045208126306534, 0.2759596109390259, -0.06485440582036972, 0.08915184438228607, 0.04335244372487068, 0.138942688703537, 0.0810416042804718, -0.13369056582450867, -0.08292950689792633},
