weights[10][84] = {{ 0.004556615371257067, 0.01892276294529438, -0.040475599467754364, -0.4467472732067108, 0.07333113998174667, -0.2032276839017868, 0.10220561921596527, -0.2545381188392639, 0.11641277372837067, -0.23546414077281952, -0.5345365405082703, -0.10352062433958054, -0.19701851904392242, -0.2837440073490143, -0.1858985871076584, -0.15598569810390472, 0.1160893365740776, -0.14093604683876038, 0.069944366812706, -0.007629765197634697, -0.24722345173358917, -0.14279402792453766, 0.11133265495300293, -0.5444507598876953, -0.2743677794933319, 0.06099380552768707, -0.019376855343580246, 0.16432230174541473, 0.016309894621372223, -0.1645043045282364, -0.05823526531457901, -0.029726194217801094, 0.15775486826896667, -0.01919609308242798, -0.0524112805724144, 0.06851428747177124, 0.10315998643636703, -0.0613979771733284, 0.0864752009510994, -0.01116375532001257, -0.24328704178333282, 0.16642463207244873, -0.10176259279251099, 0.23375768959522247, -0.21699482202529907, -0.1474725753068924, 0.07497671246528625, -0.46484363079071045, -0.18133144080638885, -0.09853305667638779, -0.18303628265857697, -0.3683260381221771, -0.1406925916671753, -0.0070971157401800156, -0.023174770176410675, 0.13016889989376068, -0.33482396602630615, 0.24163906276226044, -0.18913331627845764, 0.2910296618938446, 0.11962763965129852, -0.286700963973999, 0.09051891416311264, -0.020869912579655647, 0.08282319456338882, -0.17948949337005615, 0.2830550968647003, 0.09836026281118393, -0.1806396245956421, -0.11412806063890457, -0.37000662088394165, 0.05497213453054428, -0.06018475443124771, 0.008709323592483997, -0.4007483422756195, -0.6026678681373596, -0.021500185132026672, -0.055408865213394165, -0.7832686901092529, -0.24176478385925293, -0.10941565036773682, -0.4730302095413208, -0.10997582972049713, -0.22267672419548035},
{ 0.0016949704149737954, -0.20288054645061493, 0.23658223450183868, 0.13687779009342194, -0.16330485045909882, -0.41323786973953247, 0.029828321188688278, -0.014447605237364769, -0.3131777048110962, -0.24856282770633698, -0.07908457517623901, -0.1079402044415474, 0.24323612451553345, 0.130056232213974, -0.03008638322353363, -0.12089921534061432, 0.10433047264814377, -0.022404082119464874, 0.01388486661016941, -0.013455617241561413, 0.06499940156936646, 0.041612688452005386, -0.10772199183702469, -0.27439332008361816, -0.14984923601150513, 0.06900021433830261, -0.2022462636232376, 0.044011469930410385, 0.04685041680932045, 0.13599590957164764, 0.04998479783535004, -0.21551021933555603, -0.24538539350032806, 0.01835654303431511, -0.2371961921453476, -0.023310333490371704, -0.31487998366355896, -0.16543994843959808, -0.27697238326072693, -0.253995418548584, -0.016923975199460983, -0.18284159898757935, -0.37355804443359375, 0.24579723179340363, 0.06883049011230469, -0.4811074435710907, -0.016579991206526756, 0.028382178395986557, 0.03336692228913307, 0.07347971946001053, -0.18033663928508759, 0.11131743341684341, 0.08509881794452667, -0.19556966423988342, -0.4514716863632202, -0.8419530987739563, 0.06686590611934662, -0.5935298800468445, 0.02067139931023121, 0.07483166456222534, -0.5376909375190735, 0.11896170675754547, 0.12134934216737747, -0.13913144171237946, -0.2250758558511734, -0.2986789643764496, -0.41142281889915466, -0.012657828629016876, -0.05852574482560158, -0.29827040433883667, -0.38892143964767456, -0.0937919169664383, -0.018568631261587143, 0.0027250268030911684, 0.11430773884057999, 0.22131600975990295, -0.07842007279396057, -0.10043700784444809, -0.36802300810813904, 0.17353121936321259, -0.09533052146434784, 0.020103376358747482, -0.05200456455349922, 0.16232609748840332},
{ -0.0815701112151146, -0.463288813829422, 0.23465695977210999, -0.014525745064020157, 0.033916834741830826, 0.05904030427336693, 0.09570488333702087, 0.08414099365472794, 0.19026914238929749, -0.020315853878855705, -0.3032725751399994, -0.15627725422382355, 0.06684396415948868, 0.13845910131931305, 0.008580583147704601, 0.0387408584356308, -0.30230966210365295, -0.028654318302869797, 0.040389832109212875, 0.17806902527809143, 0.14877742528915405, 0.07042630016803741, 0.061806581914424896, 0.055646754801273346, -0.22666077315807343, -0.18743959069252014, 0.13349848985671997, -0.23068642616271973, -0.1319238543510437, 0.04672085493803024, -0.01307967584580183, -0.14165303111076355, 0.06761684268712997, -0.06468559801578522, 0.17845454812049866, -0.11602431535720825, -0.09560124576091766, 0.0972939059138298, -0.36226099729537964, 0.17912565171718597, -0.04537526145577431, 0.22844187915325165, -0.1401604413986206, -0.40059134364128113, 0.05842090770602226, -0.2601447105407715, -0.17924968898296356, -0.1680924892425537, -0.2314099669456482, 0.15621498227119446, 0.03496970608830452, -0.16173292696475983, -0.06463983654975891, -0.25372934341430664, -0.36584725975990295, 0.06282549351453781, -0.04504041373729706, -0.1111614927649498, -0.44708120822906494, -0.06963823735713959, 0.10724363476037979, 0.1670016348361969, -0.3412385880947113, -0.09550056606531143, -0.21948038041591644, 0.15899628400802612, -0.21864350140094757, -0.13245849311351776, 0.10700342804193497, 0.07706847041845322, -0.12034636735916138, -0.23966868221759796, 0.04744413122534752, -0.05963381379842758, -0.157710999250412, -0.24508938193321228, 0.006230886094272137, -0.05134682357311249, -0.5297306180000305, -0.2568875849246979, -0.36295953392982483, -0.153286874294281, 0.05359332635998726, -0.045812223106622696},
{ 0.05609791353344917, -0.18971237540245056, -0.37496525049209595, 0.05361174792051315, 0.10086711496114731, -0.060496747493743896, -0.1997852474451065, -0.13978491723537445, -0.02457405813038349, 0.11983099579811096, -0.16363173723220825, -0.12238875776529312, -0.24324747920036316, -0.07345105707645416, 0.05007760971784592, -0.14140011370182037, -0.10442517697811127, -0.2576368451118469, 0.04264851287007332, -0.13104477524757385, 0.25052112340927124, 0.07838443666696548, 0.15650412440299988, 0.2016056329011917, -0.212684765458107, -0.30862563848495483, -0.15818911790847778, 0.18618907034397125, -0.06999410688877106, 0.07090282440185547, -0.4235053062438965, 0.14866499602794647, 0.09386341273784637, -0.2240922600030899, -0.20029281079769135, -0.2489854395389557, 0.13165034353733063, 0.09113369882106781, -0.2199442982673645, 0.1262715756893158, 0.022570710629224777, -0.28579798340797424, -0.22199898958206177, -0.39670607447624207, -0.08034046739339828, -0.16848915815353394, -0.12238726764917374, 0.11887302994728088, 0.032313790172338486, -0.027444303035736084, -0.0634119063615799, 0.2109793722629547, -0.4814103841781616, 0.11639710515737534, -0.08204516768455505, -0.10720380395650864, -0.16519542038440704, -0.199611097574234, -0.10052631050348282, -0.12362851947546005, 0.0711962953209877, -0.000346462766174227, -0.1531996876001358, 0.05314166843891144, -0.2333320826292038, -0.013263487257063389, -0.12782065570354462, -0.23841583728790283, 0.14852716028690338, 0.07612039148807526, 0.10034437477588654, 0.09597285836935043, -0.32755759358406067, 0.08980564028024673, 0.2347211092710495, -0.21908433735370636, -0.10913140326738358, -0.1200772076845169, -0.8398720026016235, -0.30879563093185425, 0.03082600049674511, -0.15956979990005493, 0.05615765601396561, -0.620472252368927},
{ 0.02145516313612461, 0.004785450175404549, -0.012335248291492462, -0.1473936289548874, -0.08663283288478851, 0.11567937582731247, 0.15780848264694214, -0.19007611274719238, -0.126252219080925, 0.0965794175863266, 0.14564445614814758, -0.15113647282123566, -0.06396622210741043, 0.04531039297580719, 0.03910056874155998, 0.15610550343990326, 0.12629029154777527, 0.21436290442943573, -0.20113100111484528, -0.07577921450138092, 0.15449361503124237, 0.015704069286584854, -0.4663205146789551, -0.36900895833969116, 0.22699226438999176, -0.03956475853919983, 0.031411927193403244, -0.14875636994838715, -0.16144752502441406, 0.22091315686702728, -0.25410473346710205, -0.31906193494796753, -0.05974674969911575, 0.012425468303263187, 0.14470045268535614, -0.04328463599085808, -0.16577193140983582, -0.3554527461528778, -0.19938912987709045, -0.06706025451421738, 0.11103508621454239, 0.14979133009910583, -0.0864567756652832, -0.2732565701007843, -0.270687073469162, 0.11401664465665817, -0.1301712542772293, -0.29935115575790405, -0.024799901992082596, -0.15195952355861664, -0.020985227078199387, -0.11571265012025833, -0.3446837365627289, -0.015362288802862167, -0.5117661356925964, -0.24202607572078705, 0.08663315325975418, 0.010344915091991425, -0.39954543113708496, -0.21682271361351013, -0.033815398812294006, 0.0037553030997514725, 0.13639280200004578, -0.22398369014263153, 0.0007909415871836245, -0.28511151671409607, -0.5607892274856567, 0.1255228966474533, -0.21037782728672028, -0.07486826181411743, -0.12401310354471207, -0.4120748043060303, 0.23728197813034058, -0.06911904364824295, -0.2810194492340088, 0.03490012139081955, 0.049734342843294144, -0.12494948506355286, 0.04231925308704376, 0.14424015581607819, -0.08115863054990768, -0.27683842182159424, 0.019053731113672256, 0.11016762256622314},
{ 0.08429767936468124, 0.20720097422599792, -0.11933410167694092, -0.344745010137558, -0.0833900198340416, -0.298979789018631, -0.13196636736392975, 0.08842085301876068, -0.08692744374275208, 0.07721813023090363, 0.0981493815779686, 0.018563123419880867, -0.27638059854507446, -0.18676656484603882, 0.04291384667158127, 0.022169360890984535, -0.24332955479621887, -0.1866389662027359, -0.060259513556957245, 0.06962353736162186, -0.24715447425842285, 0.01637045107781887, -0.3526453375816345, 0.08934915065765381, -0.09691783040761948, -0.2888944447040558, 0.12494735419750214, -0.0029424307867884636, 0.22947537899017334, -0.1722821444272995, -0.12655137479305267, 0.14764304459095, 0.179956316947937, -0.008657369762659073, -0.089541956782341, -0.4267190396785736, -0.021660178899765015, 0.09038369357585907, 0.14787857234477997, -0.15214873850345612, 0.07543515413999557, 0.13248218595981598, -0.36972635984420776, -0.18317551910877228, 0.08238190412521362, 0.13701972365379333, 0.12770123779773712, -0.022134561091661453, 0.07186121493577957, -0.1009083241224289, -0.18363019824028015, 0.1723995804786682, -0.0844932496547699, -0.048934709280729294, 0.11215496808290482, -0.12737800180912018, -0.0022597680799663067, -0.2689937949180603, -1.012024164199829, -0.07832878828048706, -0.034692127257585526, -0.0025322253350168467, 0.147319033741951, -0.19119684398174286, 0.0165839996188879, -0.2378387153148651, -0.308870792388916, -0.13706636428833008, -0.2902238667011261, -0.12259072810411453, 0.15277591347694397, 0.15269216895103455, -0.2071406990289688, -0.0777353048324585, -0.019460337236523628, -0.1779075562953949, -0.14463002979755402, -0.1759895235300064, -0.33676373958587646, 0.04508088901638985, 0.2504562437534332, -0.027701077982783318, -0.0540529303252697, 0.019294971600174904},
{ 0.07154295593500137, 0.1758732795715332, -0.048791222274303436, -0.2488645315170288, 0.08043400943279266, -0.4025234580039978, 0.13552913069725037, 0.13304732739925385, -0.1561833769083023, -0.3585035502910614, -0.20459099113941193, -0.34658461809158325, -0.20429565012454987, -0.17682360112667084, 0.006318730302155018, 0.11390618234872818, 0.1620001643896103, 0.02963658608496189, 0.04124726727604866, 0.18644987046718597, -0.002085275948047638, 0.14419539272785187, -0.16867095232009888, -0.06774845719337463, 0.04658500477671623, 0.03973466530442238, -0.3125985860824585, -0.4678739905357361, 0.06869535148143768, 0.09463243931531906, 0.019979817792773247, -0.2922636866569519, -0.3639078140258789, 0.042082250118255615, 0.07841888815164566, -0.009801266714930534, 0.09322665631771088, -0.0012404108420014381, 0.17903490364551544, -0.2474144548177719, -0.2057100087404251, -0.058180708438158035, -0.533122718334198, -0.0647110715508461, -0.05377935990691185, 0.20497263967990875, -0.07189738750457764, -0.21590569615364075, -0.08695115894079208, -0.1754138171672821, -0.18042105436325073, -0.4090210795402527, 0.35809317231178284, -0.39728954434394836, -0.43723589181900024, -0.18506422638893127, -0.10224262624979019, 0.04439413547515869, -0.22763803601264954, -0.4314603805541992, 0.164555624127388, -0.29102909564971924, -0.11002175509929657, -0.2765081226825714, 0.0051550911739468575, -0.27620577812194824, 0.01184637937694788, -0.12916991114616394, -0.08381228893995285, 0.029133858159184456, -0.09707537293434143, 0.11463052034378052, -0.34418296813964844, -0.06766821444034576, -0.11141359061002731, -0.061450108885765076, -0.008700383827090263, -0.007884937338531017, 0.05408123880624771, -0.08809662610292435, 0.012780771590769291, -0.18529269099235535, 0.0566558875143528, -0.20923364162445068},
{ 0.08422089368104935, -0.4166082441806793, -0.1802094578742981, -0.08421162515878677, -0.38706475496292114, -0.008183077909052372, -0.22564281523227692, -0.09559592604637146, -0.035715360194444656, 0.012626804411411285, -0.15248559415340424, 0.037912070751190186, 0.21884065866470337, 0.14345480501651764, -0.0798582211136818, -0.3899647891521454, -0.18944759666919708, -0.35969114303588867, -0.0325750857591629, -0.2452610284090042, 0.18046605587005615, 0.07821929454803467, -0.13551123440265656, -0.23161844909191132, 0.16136203706264496, 0.1505618691444397, 0.11210417747497559, -0.21743904054164886, -0.3041943311691284, -0.22258292138576508, -0.17864316701889038, 0.13626547157764435, -0.3136242926120758, -0.26986321806907654, 0.1197180449962616, -0.14541743695735931, -0.22190140187740326, -0.09759597480297089, 0.04714151471853256, -0.09117407351732254, 0.09581968933343887, -0.4075413644313812, -0.03201783075928688, 0.15896625816822052, -0.24750153720378876, 0.04979659244418144, -0.004832869861274958, 0.05913512781262398, -0.28577250242233276, -0.0031346669420599937, 0.05298182740807533, -0.30670446157455444, -0.6811589002609253, 0.11982820928096771, -0.12647034227848053, 0.10984043776988983, -0.3303399384021759, -0.34939655661582947, -0.20551222562789917, -0.029326077550649643, -0.35440000891685486, 0.03707350045442581, 0.2196243852376938, 0.052952442318201065, 0.14657288789749146, 0.1531924456357956, -0.3119577169418335, 0.050128910690546036, 0.1127716451883316, -0.09190389513969421, -0.012415275909006596, -0.23190487921237946, 0.09992595762014389, -0.09514755755662918, 0.019797317683696747, 0.13560780882835388, -0.03414778411388397, -0.05434291809797287, -0.3315272927284241, -0.3450160324573517, 0.11828188598155975, -0.049244474619627, -0.07825351506471634, 0.08056670427322388},
{ 0.0479874461889267, 0.15605483949184418, -0.3092070519924164, -0.1080520823597908, -0.22727258503437042, 0.029291342943906784, 0.06347450613975525, 0.17652440071105957, 0.20668098330497742, -0.35721901059150696, 0.24512286484241486, -0.21413883566856384, -0.09418820589780807, -0.31400546431541443, -0.05706767737865448, -0.470088928937912, -0.210377499461174, 0.07262866199016571, 0.12204011529684067, -0.2809809744358063, -0.5568830966949463, -0.36901816725730896, 0.20932134985923767, 0.09361208975315094, -0.3223972022533417, 0.1047920286655426, -0.10174639523029327, -0.04502037912607193, -0.29316216707229614, 0.038783419877290726, -0.1040744036436081, -0.12547944486141205, -0.2827712297439575, 0.16227377951145172, -0.05927642807364464, -0.03588235005736351, 0.22508451342582703, -0.18669310212135315, -0.06037535145878792, 0.0650404766201973, -0.11144936829805374, -0.050092700868844986, -0.28410664200782776, -0.08142028003931046, 0.18037886917591095, -0.06606607139110565, -0.17828020453453064, 0.02696787379682064, 0.16859540343284607, 0.020600710064172745, -0.12073764950037003, -0.4761198163032532, -0.21952424943447113, -0.07705018669366837, -0.2875373661518097, -0.2778158187866211, 0.06562385708093643, -0.1007269024848938, -0.11188055574893951, -0.31198638677597046, 0.14750725030899048, 0.04992299899458885, -0.10609165579080582, 0.12647102773189545, 0.1353534460067749, 0.004671947564929724, -0.11661986261606216, -0.4756714105606079, 0.09115488082170486, -0.018022047355771065, 0.23187832534313202, -0.12911339104175568, 0.11884453147649765, -0.055550217628479004, 0.11911510676145554, -0.36147254705429077, 0.010672240518033504, -0.11665701121091843, -0.5405057072639465, 0.022827591747045517, -0.23950988054275513, -0.07743550837039948, -0.012167559936642647, -0.04369962960481644},
{ 0.090292789041996, -0.0505729503929615, -0.14858286082744598, -0.06207694858312607, -0.30041706562042236, 0.18886896967887878, 0.009826980531215668, -0.06513258069753647, -0.25011321902275085, -0.0031731256749480963, 0.1130957379937172, -0.04492557793855667, -0.02322419360280037, -0.26246193051338196, 0.0032061017118394375, -0.16121822595596313, 0.1680261343717575, 0.12060024589300156, -0.5758928656578064, -0.03352125734090805, -0.18268735706806183, -0.2144424319267273, 0.13378259539604187, -0.1597713977098465, 0.1149120181798935, 0.05014289915561676, -0.04544626176357269, 0.001068943296559155, -0.2360372692346573, -0.3303737938404083, -0.16232359409332275, 0.06530638784170151, 0.16025230288505554, -0.36090368032455444, -0.02520538493990898, -0.09471116214990616, -0.17402248084545135, -0.13764280080795288, 0.24910993874073029, 0.087510846555233, 0.10926668345928192, -0.14760152995586395, -0.19140641391277313, -0.06161161884665489, -0.2572019100189209, -0.03576193377375603, -0.02457481622695923, -0.057690441608428955, -0.23834531009197235, -0.4241236448287964, -0.19056926667690277, 0.08591346442699432, -0.38880109786987305, 0.12732325494289398, -0.09687181562185287, -0.13639184832572937, 0.14922171831130981, 0.09447096288204193, -0.039864569902420044, 0.21394774317741394, -0.3091234266757965, 0.1561134159564972, -0.39649954438209534, 0.049219559878110886, 0.005119175650179386, 0.0699177086353302, -0.053891655057668686, -0.0020127573516219854, 0.10698647797107697, -0.1219220757484436, 0.05145597457885742, -0.04585396870970726, -0.002362453378736973, -0.07452152669429779, -0.20186541974544525, 0.1923539638519287, -0.07178574800491333, -0.038928575813770294, -0.14218781888484955, 0.045307837426662445, -0.08289221674203873, -0.18221955001354218, 0.0755842998623848, 0.10726270079612732}};