biases[84] = { -0.1351073533296585,
 0.19664457440376282,
 0.03285809978842735,
 -0.08162938803434372,
 -0.11808192729949951,
 0.13779325783252716,
 -0.1200748160481453,
 0.0997784435749054,
 0.09197624027729034,
 -0.04342734441161156,
 0.21023328602313995,
 -0.17322377860546112,
 0.004389001522213221,
 -0.20420266687870026,
 -0.005122516769915819,
 0.03763386607170105,
 -0.07509993761777878,
 0.0866357684135437,
 0.17055152356624603,
 -0.039591915905475616,
 -0.005632211919873953,
 -0.11690797656774521,
 0.23509128391742706,
 0.2618212401866913,
 0.06420613080263138,
 0.06786590069532394,
 -0.16191837191581726,
 -0.04413862153887749,
 -0.16534221172332764,
 0.015425133518874645,
 -0.14696185290813446,
 0.05011655017733574,
 0.02704772911965847,
 0.08801479637622833,
 -0.10919470340013504,
 -0.045470625162124634,
 0.22977492213249207,
 -0.0033027324825525284,
 0.03386378288269043,
 0.029755519703030586,
 -0.015065029263496399,
 0.06740589439868927,
 -0.22044169902801514,
 -0.12101194262504578,
 0.16609762609004974,
 -0.08367320895195007,
 -0.03379068896174431,
 0.08865734934806824,
 0.05547543615102768,
 0.0878429114818573,
 -0.17285217344760895,
 -0.06398017704486847,
 -0.035012125968933105,
 0.03139813244342804,
 -0.0319070890545845,
 -0.14945198595523834,
 0.11171157658100128,
 -0.09006348997354507,
 -0.13682790100574493,
 -0.0700441375374794,
 0.019917046651244164,
 0.047376979142427444,
 0.05089347064495087,
 0.07292429357767105,
 0.0582042820751667,
 0.0848451629281044,
 -0.1210785061120987,
 -0.024849653244018555,
 0.09446966648101807,
 -0.24628102779388428,
 0.13312602043151855,
 0.03860614076256752,
 0.019722485914826393,
 -0.0008772521978244185,
 0.19808316230773926,
 0.006187785882502794,
 -0.08958698064088821,
 -0.15562471747398376,
 -0.1369292140007019,
 0.07648584246635437,
 -0.0466577485203743,
 -0.1979450285434723,
 -0.0026310556568205357,
 -0.017663398757576942};