void conv1_bias(float *biases_out){
	const float biases[120] = { -0.002964026527479291,
			 -0.049378782510757446,
			 -0.06568107008934021,
			 -0.17463120818138123,
			 0.13677266240119934,
			 0.04901297017931938,
			0,
			0,
			0,
			0,
			0,
			0,
			0,
			0,
			0,
			0,
			0,
			0,
			0,
			0,
			0,
			0,
			0,
			0,
			0,
			0,
			0,
			0,
			0,
			0,
			0,
			0,
			0,
			0,
			0,
			0,
			0,
			0,
			0,
			0,
			0,
			0,
			0,
			0,
			0,
			0,
			0,
			0,
			0,
			0,
			0,
			0,
			0,
			0,
			0,
			0,
			0,
			0,
			0,
			0,
			0,
			0,
			0,
			0,
			0,
			0,
			0,
			0,
			0,
			0,
			0,
			0,
			0,
			0,
			0,
			0,
			0,
			0,
			0,
			0,
			0,
			0,
			0,
			0,
			0,
			0,
			0,
			0,
			0,
			0,
			0,
			0,
			0,
			0,
			0,
			0,
			0,
			0,
			0,
			0,
			0,
			0,
			0,
			0,
			0,
			0,
			0,
			0,
			0,
			0,
			0,
			0,
			0,
			0,
			0,
			0,
			0,
			0,
			0,
			0};
	for(unsigned int i=0; i<120; i++){
		biases_out[i] = biases[i];
	}
}

void conv2_bias(float *biases_out){
	const float biases[120] = { -0.08309008181095123,
			 0.020190022885799408,
			 0.10248664021492004,
			 -0.026744024828076363,
			 -0.18809005618095398,
			 0.0016560070216655731,
			 0.05539406090974808,
			 0.008762349374592304,
			 -0.12507084012031555,
			 0.19078220427036285,
			 -0.1314585953950882,
			 -0.009498666040599346,
			 -0.1205875352025032,
			 0.049214523285627365,
			 0.08443975448608398,
			 0.03272204101085663,
			0,
			0,
			0,
			0,
			0,
			0,
			0,
			0,
			0,
			0,
			0,
			0,
			0,
			0,
			0,
			0,
			0,
			0,
			0,
			0,
			0,
			0,
			0,
			0,
			0,
			0,
			0,
			0,
			0,
			0,
			0,
			0,
			0,
			0,
			0,
			0,
			0,
			0,
			0,
			0,
			0,
			0,
			0,
			0,
			0,
			0,
			0,
			0,
			0,
			0,
			0,
			0,
			0,
			0,
			0,
			0,
			0,
			0,
			0,
			0,
			0,
			0,
			0,
			0,
			0,
			0,
			0,
			0,
			0,
			0,
			0,
			0,
			0,
			0,
			0,
			0,
			0,
			0,
			0,
			0,
			0,
			0,
			0,
			0,
			0,
			0,
			0,
			0,
			0,
			0,
			0,
			0,
			0,
			0,
			0,
			0,
			0,
			0,
			0,
			0,
			0,
			0,
			0,
			0};
	for(unsigned int i=0; i<120; i++){
		biases_out[i] = biases[i];
	}
}

void conv3_bias(float *biases_out){
	const float biases[120] = { -0.08732578158378601,
			 -0.11792363971471786,
			 -0.08795900642871857,
			 0.018793683499097824,
			 0.009357262402772903,
			 0.028020372614264488,
			 0.028170093894004822,
			 0.06971853226423264,
			 0.03353599086403847,
			 -0.04138459265232086,
			 -0.046577248722314835,
			 -0.041190918534994125,
			 -0.04967448115348816,
			 -0.030335376039147377,
			 -0.04831375554203987,
			 -0.024272939190268517,
			 -0.031026208773255348,
			 -0.05447027459740639,
			 -0.06484413146972656,
			 -0.07380656152963638,
			 -0.015788527205586433,
			 -0.03307047486305237,
			 -0.07793471217155457,
			 -0.07683694362640381,
			 0.012393859215080738,
			 0.024806978181004524,
			 -0.07058901339769363,
			 0.11868953704833984,
			 0.007159877102822065,
			 0.11214704811573029,
			 0.06123324856162071,
			 0.04772699251770973,
			 -0.14871078729629517,
			 -0.025586577132344246,
			 0.0016558968927711248,
			 0.17380978167057037,
			 -0.0026003392413258553,
			 0.028292519971728325,
			 -0.0147251533344388,
			 -0.014731488190591335,
			 0.006025894079357386,
			 0.08269412070512772,
			 -0.04925800487399101,
			 0.008064838126301765,
			 -0.04372132942080498,
			 0.011394343338906765,
			 -0.016266047954559326,
			 0.013198193162679672,
			 -0.10866334289312363,
			 -0.037547316402196884,
			 0.016972169280052185,
			 0.23799854516983032,
			 -0.018146028742194176,
			 0.03402252495288849,
			 -0.12081258744001389,
			 -0.09364062547683716,
			 -0.005646708887070417,
			 -0.10573413968086243,
			 -0.03968028351664543,
			 -0.0821337029337883,
			 -0.03745109960436821,
			 -0.052623994648456573,
			 -0.012165302410721779,
			 -0.010068446397781372,
			 0.008244992233812809,
			 -0.06293968856334686,
			 0.04138028621673584,
			 -0.03365485370159149,
			 0.022758761420845985,
			 -0.02506045065820217,
			 -0.17425768077373505,
			 -0.0313703678548336,
			 -0.009053903631865978,
			 -0.13721531629562378,
			 -0.11543169617652893,
			 0.060622718185186386,
			 0.01703754812479019,
			 0.032996766269207,
			 -0.10030832886695862,
			 0.006291639059782028,
			 -0.074636310338974,
			 -0.07294629514217377,
			 -0.058909568935632706,
			 0.20947928726673126,
			 -0.12250998616218567,
			 0.0652955025434494,
			 0.0839926078915596,
			 0.03343113511800766,
			 -0.0045491536147892475,
			 -0.04653022438287735,
			 0.04850446805357933,
			 -0.013994325883686543,
			 -0.10137012600898743,
			 0.0010701074497774243,
			 0.07380606979131699,
			 -0.05948708951473236,
			 0.057805150747299194,
			 -0.06262477487325668,
			 -0.05295981839299202,
			 -0.0003258650831412524,
			 -0.05211666598916054,
			 -0.05753854662179947,
			 -0.009672543033957481,
			 -0.036195408552885056,
			 0.03659089654684067,
			 0.012495748698711395,
			 0.0055322591215372086,
			 -0.04104921221733093,
			 -0.057171911001205444,
			 0.11518053710460663,
			 -0.029262900352478027,
			 0.020907878875732422,
			 -0.15857729315757751,
			 -0.037394892424345016,
			 -0.07829860597848892,
			 -0.010185619816184044,
			 -0.10056506842374802,
			 -0.07398922741413116,
			 -0.009863978251814842,
			 0.02480940707027912};
	for(unsigned int i=0; i<120; i++){
		biases_out[i] = biases[i];
	}
}

void fc1_bias(float *biases_out){
	const float biases[84] = { -0.1351073533296585,
			 0.19664457440376282,
			 0.03285809978842735,
			 -0.08162938803434372,
			 -0.11808192729949951,
			 0.13779325783252716,
			 -0.1200748160481453,
			 0.0997784435749054,
			 0.09197624027729034,
			 -0.04342734441161156,
			 0.21023328602313995,
			 -0.17322377860546112,
			 0.004389001522213221,
			 -0.20420266687870026,
			 -0.005122516769915819,
			 0.03763386607170105,
			 -0.07509993761777878,
			 0.0866357684135437,
			 0.17055152356624603,
			 -0.039591915905475616,
			 -0.005632211919873953,
			 -0.11690797656774521,
			 0.23509128391742706,
			 0.2618212401866913,
			 0.06420613080263138,
			 0.06786590069532394,
			 -0.16191837191581726,
			 -0.04413862153887749,
			 -0.16534221172332764,
			 0.015425133518874645,
			 -0.14696185290813446,
			 0.05011655017733574,
			 0.02704772911965847,
			 0.08801479637622833,
			 -0.10919470340013504,
			 -0.045470625162124634,
			 0.22977492213249207,
			 -0.0033027324825525284,
			 0.03386378288269043,
			 0.029755519703030586,
			 -0.015065029263496399,
			 0.06740589439868927,
			 -0.22044169902801514,
			 -0.12101194262504578,
			 0.16609762609004974,
			 -0.08367320895195007,
			 -0.03379068896174431,
			 0.08865734934806824,
			 0.05547543615102768,
			 0.0878429114818573,
			 -0.17285217344760895,
			 -0.06398017704486847,
			 -0.035012125968933105,
			 0.03139813244342804,
			 -0.0319070890545845,
			 -0.14945198595523834,
			 0.11171157658100128,
			 -0.09006348997354507,
			 -0.13682790100574493,
			 -0.0700441375374794,
			 0.019917046651244164,
			 0.047376979142427444,
			 0.05089347064495087,
			 0.07292429357767105,
			 0.0582042820751667,
			 0.0848451629281044,
			 -0.1210785061120987,
			 -0.024849653244018555,
			 0.09446966648101807,
			 -0.24628102779388428,
			 0.13312602043151855,
			 0.03860614076256752,
			 0.019722485914826393,
			 -0.0008772521978244185,
			 0.19808316230773926,
			 0.006187785882502794,
			 -0.08958698064088821,
			 -0.15562471747398376,
			 -0.1369292140007019,
			 0.07648584246635437,
			 -0.0466577485203743,
			 -0.1979450285434723,
			 -0.0026310556568205357,
			 -0.017663398757576942};
	for(unsigned int i=0; i<84; i++){
		biases_out[i] = biases[i];
	}
}

void fc2_bias(float *biases_out){
	const float biases[10] = { 0.08275362849235535,
			 -0.14151769876480103,
			 -0.10942631959915161,
			 0.08998682349920273,
			 0.02104239910840988,
			 -0.06869040429592133,
			 -0.2693009078502655,
			 -0.06407520174980164,
			 0.26230141520500183,
			 0.028703756630420685};
	for(unsigned int i=0; i<10; i++){
		biases_out[i] = biases[i];
	}
}
